{
  "version": 1,
  "kind": "legal_action_mlp",
  "feature_schema_version": "goat_state_features_v1",
  "action_schema_version": "goat_action_features_v1",
  "input_size": 91,
  "seed": 909,
  "dataset_hash": "1c4771ea",
  "training_config": {
    "algorithm": "ladder_supervised_policy_v1",
    "target_tier": "goat",
    "tiers": [
      "goat"
    ],
    "episodes": 2000,
    "iterations": 3,
    "epochs_per_iteration": 8,
    "batch_size": 64,
    "learning_rate": 0.01,
    "max_ticks": 900,
    "max_negatives_per_decision": 8,
    "dataset_sources": [
      {
        "path": "/home/runner/work/edge_royale/edge_royale/artifacts/training/runs/daily-25276131849/datasets/goat/shard-001.json",
        "dataset_hash": "26d32375",
        "episode_count": 500,
        "sample_count": 6438,
        "row_summary": {
          "rows": 47130,
          "positives": 6438,
          "negatives": 40692
        }
      },
      {
        "path": "/home/runner/work/edge_royale/edge_royale/artifacts/training/runs/daily-25276131849/datasets/goat/shard-002.json",
        "dataset_hash": "ced51994",
        "episode_count": 500,
        "sample_count": 6440,
        "row_summary": {
          "rows": 47163,
          "positives": 6440,
          "negatives": 40723
        }
      },
      {
        "path": "/home/runner/work/edge_royale/edge_royale/artifacts/training/runs/daily-25276131849/datasets/goat/shard-003.json",
        "dataset_hash": "34d2ea10",
        "episode_count": 500,
        "sample_count": 6468,
        "row_summary": {
          "rows": 47348,
          "positives": 6468,
          "negatives": 40880
        }
      },
      {
        "path": "/home/runner/work/edge_royale/edge_royale/artifacts/training/runs/daily-25276131849/datasets/goat/shard-004.json",
        "dataset_hash": "17a7a866",
        "episode_count": 500,
        "sample_count": 6422,
        "row_summary": {
          "rows": 47031,
          "positives": 6422,
          "negatives": 40609
        }
      }
    ],
    "row_summary": {
      "rows": 188672,
      "positives": 25768,
      "negatives": 162904
    },
    "iteration_summaries": [
      {
        "iteration": 1,
        "loss": 0.14189283549785614,
        "accuracy": 0.9080891609191895,
        "evaluation": [
          {
            "tier": "noob",
            "rounds": 50,
            "wins": 0,
            "losses": 0,
            "draws": 50,
            "win_rate": 0
          },
          {
            "tier": "mid",
            "rounds": 50,
            "wins": 0,
            "losses": 0,
            "draws": 50,
            "win_rate": 0
          },
          {
            "tier": "top",
            "rounds": 50,
            "wins": 0,
            "losses": 0,
            "draws": 50,
            "win_rate": 0
          }
        ]
      },
      {
        "iteration": 2,
        "loss": 0.13705769181251526,
        "accuracy": 0.9100131392478943,
        "evaluation": [
          {
            "tier": "noob",
            "rounds": 50,
            "wins": 0,
            "losses": 0,
            "draws": 50,
            "win_rate": 0
          },
          {
            "tier": "mid",
            "rounds": 50,
            "wins": 0,
            "losses": 0,
            "draws": 50,
            "win_rate": 0
          },
          {
            "tier": "top",
            "rounds": 50,
            "wins": 0,
            "losses": 0,
            "draws": 50,
            "win_rate": 0
          }
        ]
      },
      {
        "iteration": 3,
        "loss": 0.13460087776184082,
        "accuracy": 0.9103894829750061,
        "evaluation": [
          {
            "tier": "noob",
            "rounds": 50,
            "wins": 0,
            "losses": 0,
            "draws": 50,
            "win_rate": 0
          },
          {
            "tier": "mid",
            "rounds": 50,
            "wins": 0,
            "losses": 0,
            "draws": 50,
            "win_rate": 0
          },
          {
            "tier": "top",
            "rounds": 50,
            "wins": 0,
            "losses": 0,
            "draws": 50,
            "win_rate": 0
          }
        ]
      }
    ]
  },
  "layers": [
    {
      "type": "dense",
      "activation": "relu",
      "weights": [
        [
          -0.20859363675117493,
          -0.10603058338165283,
          -0.3622682988643646,
          0.02557734027504921,
          0.7629492878913879,
          -0.2236119508743286,
          -0.8864546418190002,
          -0.8298335671424866,
          0.17546069622039795,
          1.1677465438842773,
          0.1081228032708168,
          -0.27780649065971375,
          0.07910818606615067,
          -0.048771701753139496,
          0.09541882574558258,
          -0.4406071603298187,
          0.022846050560474396,
          -0.13977783918380737,
          -0.13634184002876282,
          -0.061425451189279556,
          0.040561236441135406,
          -0.4894793629646301,
          -0.05407385155558586,
          -0.25673118233680725,
          0.005224357359111309,
          -0.5915433168411255,
          -0.3648928999900818,
          -0.03659684956073761,
          -0.23413634300231934,
          -0.1446423977613449,
          0.00023349530238192528,
          0.0030824143905192614,
          0.6743651032447815,
          -0.012396996840834618,
          -0.3660212755203247,
          -0.08495219051837921,
          0.07717686146497726,
          -1.1578902006149292,
          0.08733168244361877,
          0.08712590485811234,
          0.021395647898316383,
          -1.3904694318771362,
          -0.8505963087081909,
          0.08845990896224976,
          -1.2895216941833496,
          0.10329516232013702,
          -0.2527740001678467,
          -0.1634865403175354,
          -0.3567411005496979,
          -0.2021142691373825,
          -0.10851692408323288,
          -0.18586541712284088,
          0.6441410183906555,
          -0.32578831911087036,
          -0.06652584671974182,
          -0.1511794626712799,
          0.28353679180145264,
          -0.5568214058876038,
          -0.14466159045696259,
          -0.12387651205062866,
          -1.4455984830856323,
          0.06549552828073502,
          -0.030562764033675194,
          0.0870397537946701
        ],
        [
          0.16723015904426575,
          -0.15961234271526337,
          -0.18954375386238098,
          -0.12055191397666931,
          0.019642680883407593,
          -0.1459130197763443,
          0.04605862498283386,
          0.13793209195137024,
          0.10303512960672379,
          0.08536259084939957,
          -0.06535229831933975,
          -0.06826519221067429,
          -0.07809824496507645,
          -0.15607266128063202,
          0.003734175581485033,
          0.022432420402765274,
          0.14734511077404022,
          0.055307209491729736,
          0.12311534583568573,
          0.029897373169660568,
          0.1550561487674713,
          -0.043607067316770554,
          -0.18826892971992493,
          0.12085404247045517,
          0.04532141983509064,
          -0.02718067727982998,
          -0.05297936871647835,
          -0.1658736765384674,
          0.06413187831640244,
          0.12742914259433746,
          -0.1047285720705986,
          0.08986152708530426,
          0.027365025132894516,
          -0.14350934326648712,
          0.029444389045238495,
          -0.10277935862541199,
          0.029264381155371666,
          -0.1298871785402298,
          -0.1022534891963005,
          -0.06473831832408905,
          0.07194501161575317,
          0.00893927551805973,
          0.08766651898622513,
          0.08771127462387085,
          0.012245438061654568,
          0.17161786556243896,
          0.12361055612564087,
          0.02124292589724064,
          -0.12005563825368881,
          0.08206749707460403,
          -0.19071368873119354,
          0.03641311079263687,
          -0.1468861997127533,
          -0.08331713080406189,
          0.06058124452829361,
          0.1300148218870163,
          -0.04365288466215134,
          -0.11723970621824265,
          0.10443220287561417,
          -0.1649661809206009,
          0.11380940675735474,
          -0.00388522120192647,
          -0.17476065456867218,
          -0.061642710119485855
        ],
        [
          -0.010950299911201,
          -0.1316971778869629,
          0.013517927378416061,
          0.1185285672545433,
          0.03934018686413765,
          0.005818613804876804,
          -0.11450554430484772,
          0.04862845316529274,
          0.01734236814081669,
          -0.07113505154848099,
          0.09392520040273666,
          -0.016422638669610023,
          0.06378842145204544,
          -0.12456309050321579,
          -0.04113547131419182,
          -0.16640865802764893,
          -0.17585815489292145,
          -0.008404833264648914,
          0.0031375139951705933,
          -0.03618844598531723,
          -0.07163646072149277,
          -0.17113064229488373,
          0.020926490426063538,
          -0.030594104900956154,
          0.04265240579843521,
          0.1933252215385437,
          -0.009478679858148098,
          0.1384648084640503,
          -0.04017617180943489,
          -0.09854073822498322,
          0.18840205669403076,
          0.06103702634572983,
          0.10937457531690598,
          -0.12749087810516357,
          0.1678665429353714,
          0.1406315118074417,
          -0.06588712334632874,
          0.16619372367858887,
          -0.11542467027902603,
          -0.1116916760802269,
          0.1937864124774933,
          0.06950981169939041,
          0.006881088484078646,
          0.16279222071170807,
          -0.0789887011051178,
          -0.13188298046588898,
          -0.10522553324699402,
          -0.0658668801188469,
          0.18249469995498657,
          0.01205744780600071,
          0.11630970239639282,
          -0.03205256909132004,
          -0.08495493978261948,
          0.10168570280075073,
          0.1803850680589676,
          0.03416853025555611,
          -0.041410159319639206,
          0.028381366282701492,
          -0.0001210706468555145,
          -0.053926266729831696,
          0.05623297020792961,
          0.1751263290643692,
          0.025116870179772377,
          0.1165444478392601
        ],
        [
          0.02600504830479622,
          -0.22445054352283478,
          -0.09910231083631516,
          -0.13192328810691833,
          6.929479598999023,
          -0.01493834238499403,
          -8.415278434753418,
          -2.7653582096099854,
          -3.69909405708313,
          3.15183687210083,
          -0.06624245643615723,
          0.22507940232753754,
          0.05487632378935814,
          0.11486746370792389,
          0.08484838902950287,
          -0.2645254135131836,
          -5.132944583892822,
          -0.05608631670475006,
          0.09868064522743225,
          0.009517683647572994,
          0.05256352946162224,
          0.5260535478591919,
          -0.1281377673149109,
          0.015043001621961594,
          0.03138415142893791,
          -1.2867600917816162,
          -0.9410109519958496,
          0.06763824820518494,
          -0.05215255171060562,
          -0.17175115644931793,
          -0.06515507400035858,
          -0.06720946729183197,
          0.5918887853622437,
          0.15634192526340485,
          -0.8998230695724487,
          0.041803255677223206,
          -0.03442924842238426,
          -4.135675430297852,
          0.12629006803035736,
          -0.9892573356628418,
          0.021893389523029327,
          -7.388585090637207,
          -4.414671897888184,
          -0.19130130112171173,
          -5.64255428314209,
          -0.01928570494055748,
          -3.935349225997925,
          -0.07494213432073593,
          -0.12589551508426666,
          0.025136344134807587,
          -0.03104698844254017,
          0.06710211932659149,
          1.1960134506225586,
          -0.16118304431438446,
          -0.18540383875370026,
          0.11546844989061356,
          -2.066483974456787,
          0.2917692959308624,
          -0.09077896177768707,
          -0.14036133885383606,
          -0.7974488735198975,
          -0.025293156504631042,
          0.10397977381944656,
          -0.2143275886774063
        ],
        [
          -0.20577125251293182,
          0.0457477867603302,
          -0.25120407342910767,
          -0.17747414112091064,
          -0.6453579664230347,
          0.053708892315626144,
          0.23850974440574646,
          -0.6157156825065613,
          1.1807907819747925,
          0.8151546120643616,
          -0.1163485124707222,
          -0.16853944957256317,
          0.08881589025259018,
          -0.3899574875831604,
          0.03532807156443596,
          -0.5617122650146484,
          0.5436508059501648,
          0.005527455825358629,
          0.05328386649489403,
          -0.27297544479370117,
          0.05224325507879257,
          -0.6707276105880737,
          0.10377168655395508,
          -0.3707325756549835,
          0.04412568360567093,
          -0.23564724624156952,
          -0.28813689947128296,
          -0.20374318957328796,
          -0.06512117385864258,
          0.06747086346149445,
          -0.18442562222480774,
          -0.08371450006961823,
          0.36214563250541687,
          -0.19594964385032654,
          -0.018260397017002106,
          0.09701134264469147,
          -0.1361715942621231,
          -1.0056298971176147,
          -0.028177961707115173,
          0.1611323058605194,
          -0.2273198366165161,
          -0.34098678827285767,
          -0.24173599481582642,
          -0.07984207570552826,
          -0.45972612500190735,
          -0.058344751596450806,
          0.39627572894096375,
          -0.20708216726779938,
          -0.2994473874568939,
          -0.01579873636364937,
          -0.09959305822849274,
          0.07368062436580658,
          0.6645274758338928,
          -0.3258521854877472,
          -0.06343025714159012,
          -0.10744108259677887,
          0.7595268487930298,
          -0.45096710324287415,
          -0.17050673067569733,
          -0.17242006957530975,
          -1.7516374588012695,
          -0.22898727655410767,
          -0.02857285551726818,
          -0.2139231264591217
        ],
        [
          -0.11010665446519852,
          -0.19483473896980286,
          -0.21048997342586517,
          0.09101784229278564,
          0.5741632580757141,
          -0.19048839807510376,
          -0.8213217854499817,
          -0.6105933785438538,
          0.3492128252983093,
          0.8991795182228088,
          0.07973235100507736,
          0.025712037459015846,
          -0.0672454759478569,
          -0.1851419359445572,
          -0.1628098338842392,
          -0.4076530635356903,
          0.01158760953694582,
          0.02571025677025318,
          -0.13743381202220917,
          0.043772563338279724,
          -0.24038778245449066,
          -0.6262540221214294,
          -0.15480537712574005,
          -0.08377518504858017,
          -0.08755768835544586,
          -0.3355463743209839,
          -0.15200991928577423,
          -0.1963689923286438,
          0.05960701033473015,
          -0.0862998440861702,
          -0.17300064861774445,
          -0.016552187502384186,
          0.5859476327896118,
          -0.22813329100608826,
          -0.1383117288351059,
          -0.0018114157719537616,
          -0.2637893855571747,
          -1.4038835763931274,
          -0.005722989793866873,
          -0.03551203012466431,
          -0.12159191071987152,
          -1.4784547090530396,
          -0.7382456064224243,
          -0.12754002213478088,
          -1.1827821731567383,
          -0.07860521227121353,
          -0.4131321310997009,
          -0.012503677047789097,
          -0.21787559986114502,
          -0.24413806200027466,
          -0.202162504196167,
          -0.104353167116642,
          0.6714606881141663,
          -0.22682404518127441,
          -0.1729770451784134,
          -0.005834583193063736,
          0.25277021527290344,
          -0.19708295166492462,
          -0.1275099813938141,
          -0.0361613854765892,
          -1.4139937162399292,
          0.10844825208187103,
          -0.1064474880695343,
          -0.003965920303016901
        ],
        [
          0.0861017107963562,
          -0.19291430711746216,
          -0.06519416719675064,
          -0.15087664127349854,
          0.1074656993150711,
          0.05127062648534775,
          -0.023811442777514458,
          -0.12777520716190338,
          -0.08066152781248093,
          0.1769268959760666,
          0.19174329936504364,
          -0.060866568237543106,
          0.008105208165943623,
          0.07632594555616379,
          -0.14038720726966858,
          -0.1903272122144699,
          0.091820128262043,
          -0.025109076872467995,
          0.051205266267061234,
          0.02492573857307434,
          -0.06740960478782654,
          0.14721882343292236,
          -0.14434397220611572,
          -0.03991569206118584,
          -0.08339207619428635,
          -0.164524644613266,
          -0.10030127316713333,
          -0.19184763729572296,
          -0.16834765672683716,
          0.0334835983812809,
          0.07584340870380402,
          0.07377083599567413,
          0.08729280531406403,
          0.10080406814813614,
          0.16780711710453033,
          -0.031405702233314514,
          -0.19004546105861664,
          -0.184502512216568,
          -0.03644966334104538,
          -0.10265480726957321,
          0.18669575452804565,
          -0.17627784609794617,
          -0.08071982115507126,
          -0.08079764991998672,
          0.0024806864093989134,
          -0.008119967766106129,
          0.11854957789182663,
          0.06889910250902176,
          0.010748284868896008,
          0.15986639261245728,
          -0.16222387552261353,
          -0.046197645366191864,
          0.14979401230812073,
          0.14453455805778503,
          -0.07341942936182022,
          0.10028917342424393,
          0.182461678981781,
          0.19160382449626923,
          -0.15921947360038757,
          0.15276950597763062,
          -0.08849300444126129,
          0.15226715803146362,
          -0.1540297418832779,
          0.1468987911939621
        ],
        [
          0.0926026701927185,
          -0.24294421076774597,
          -0.2946120500564575,
          -0.13479894399642944,
          0.36090558767318726,
          0.09469873458147049,
          0.10025349259376526,
          1.0665783882141113,
          2.6189262866973877,
          0.8148407340049744,
          -0.07573790103197098,
          -0.09116307646036148,
          -0.08049386739730835,
          0.023677807301282883,
          -0.017449622973799706,
          -0.5997443199157715,
          0.9551668167114258,
          -0.13340498507022858,
          0.04949522390961647,
          0.004474947694689035,
          -0.12204025685787201,
          0.33300405740737915,
          -0.1885269284248352,
          -0.37591552734375,
          -0.04505037143826485,
          -0.6755858659744263,
          0.17378360033035278,
          -0.063078872859478,
          0.06508315354585648,
          0.031238894909620285,
          -0.07569465786218643,
          -0.057695332914590836,
          -0.8795337080955505,
          -0.18597723543643951,
          -0.44930270314216614,
          -0.227256640791893,
          0.02315172553062439,
          2.272883176803589,
          -0.2075764536857605,
          -0.18759144842624664,
          0.032341793179512024,
          1.4350700378417969,
          2.1207876205444336,
          -0.030016059055924416,
          0.7058652639389038,
          0.11506043374538422,
          -0.5830593705177307,
          0.039349593222141266,
          0.09617646038532257,
          -0.22339823842048645,
          0.04309455305337906,
          -0.013113786466419697,
          -2.0468862056732178,
          -0.043799303472042084,
          -0.03389257937669754,
          0.10245956480503082,
          -0.5190675854682922,
          2.3489179611206055,
          -0.16194409132003784,
          -0.18092985451221466,
          -0.9726274609565735,
          -0.2262946218252182,
          -0.043736644089221954,
          -0.16763557493686676
        ],
        [
          -0.14880315959453583,
          0.05701196566224098,
          -0.22754648327827454,
          -0.13397492468357086,
          0.44897687435150146,
          -0.009983575902879238,
          0.14554089307785034,
          -2.5553946495056152,
          0.296019583940506,
          0.47943922877311707,
          0.008654000237584114,
          -0.1304052621126175,
          -0.06962024420499802,
          -0.19588005542755127,
          -0.263356477022171,
          -1.921756625175476,
          0.0050791408866643906,
          -0.14855873584747314,
          -0.08068586885929108,
          0.10615360736846924,
          -0.12818200886249542,
          -0.4207373857498169,
          0.07957204431295395,
          -0.16098056733608246,
          -0.16817642748355865,
          -1.5536857843399048,
          0.17742668092250824,
          -0.04192717373371124,
          0.08311836421489716,
          -0.027171919122338295,
          -0.08542370796203613,
          -0.009745471179485321,
          0.7697482109069824,
          -0.17264454066753387,
          -0.3336960971355438,
          0.14315690100193024,
          -0.028342846781015396,
          0.849820077419281,
          -0.170026957988739,
          0.1284007579088211,
          -0.0481608510017395,
          0.007747468538582325,
          0.41247373819351196,
          -0.11138901859521866,
          -1.5798280239105225,
          -0.10034908354282379,
          0.07037271559238434,
          -0.02004324272274971,
          -0.27744394540786743,
          -0.033829465508461,
          0.11987306922674179,
          0.05244427174329758,
          -0.1696731597185135,
          -0.24882887303829193,
          -0.1729549616575241,
          -0.005099989473819733,
          0.05838536471128464,
          -0.11343103647232056,
          -0.064606212079525,
          -0.10105904936790466,
          0.6074934601783752,
          0.09500321000814438,
          -0.014759592711925507,
          -0.23190586268901825
        ],
        [
          -0.07262086123228073,
          0.017453633248806,
          -0.1177915558218956,
          0.009257262572646141,
          -0.9323082566261292,
          0.04409521073102951,
          0.16890549659729004,
          1.1957391500473022,
          -0.09885770082473755,
          0.96744704246521,
          -0.2133745551109314,
          -0.0894855260848999,
          0.12351838499307632,
          -0.08721448481082916,
          0.0647263303399086,
          -1.8725745677947998,
          0.40010198950767517,
          -0.2398151457309723,
          0.09721613675355911,
          -0.1695917248725891,
          0.02119266614317894,
          0.557927131652832,
          0.16634789109230042,
          0.11517589539289474,
          0.07440534979104996,
          -0.10603681206703186,
          -0.5651268362998962,
          -0.20578402280807495,
          0.040199823677539825,
          -0.15998107194900513,
          -0.11559387296438217,
          -0.18998068571090698,
          -0.06934276223182678,
          0.09560229629278183,
          0.22888831794261932,
          0.08125228434801102,
          0.06302300095558167,
          0.836779773235321,
          -0.11227601021528244,
          0.0014375373721122742,
          -0.06927704066038132,
          -0.4929291605949402,
          -2.621854543685913,
          -0.22571322321891785,
          0.4795074164867401,
          -0.16265715658664703,
          -1.0460634231567383,
          0.2095436453819275,
          -0.3726983070373535,
          -0.11534280329942703,
          0.10707468539476395,
          -0.20924881100654602,
          -0.10779691487550735,
          0.14487425982952118,
          -0.15630501508712769,
          -0.08344629406929016,
          1.4361618757247925,
          0.364059180021286,
          0.009337871335446835,
          -0.07727832347154617,
          -0.42970144748687744,
          -0.04903663322329521,
          0.07304854691028595,
          0.12440518289804459
        ],
        [
          0.0814490094780922,
          0.13488514721393585,
          0.04202565923333168,
          0.0413714274764061,
          -3.338229179382324,
          -0.11387258023023605,
          -0.01525766309350729,
          0.6304066777229309,
          -0.7363883852958679,
          0.2562066614627838,
          -0.0572032704949379,
          -0.45791277289390564,
          -0.009297456592321396,
          -0.19591061770915985,
          0.07961133867502213,
          6.600818157196045,
          0.3806987702846527,
          0.007122436538338661,
          0.04086771607398987,
          0.06318797916173935,
          0.01576152630150318,
          -2.4280529022216797,
          0.12131056934595108,
          0.485995352268219,
          -0.011924698017537594,
          -0.2884936034679413,
          -0.399850070476532,
          -0.22775152325630188,
          0.005119610112160444,
          -0.09037639945745468,
          -0.12397312372922897,
          -0.17731796205043793,
          -1.4280743598937988,
          -0.16953246295452118,
          0.00830092653632164,
          -0.1404234766960144,
          0.10833758115768433,
          -1.5405126810073853,
          -0.04881737753748894,
          -0.026099219918251038,
          0.05814996734261513,
          -0.673568606376648,
          -2.265763521194458,
          0.030748695135116577,
          0.20724698901176453,
          -0.07617530971765518,
          -0.6609838604927063,
          0.09373992681503296,
          -0.13091252744197845,
          -0.009188163094222546,
          -0.05695446953177452,
          -0.2776689827442169,
          -1.210602045059204,
          -0.1837613582611084,
          0.1609671413898468,
          0.03288670629262924,
          0.4570012092590332,
          1.7922136783599854,
          -0.14689332246780396,
          -0.14753958582878113,
          0.28961071372032166,
          0.09473202377557755,
          0.018984917551279068,
          -0.13597799837589264
        ],
        [
          -0.11777536571025848,
          -0.03947802260518074,
          -0.1600201278924942,
          -0.11384156346321106,
          -0.01753326505422592,
          -0.11462640017271042,
          -0.3062743842601776,
          -1.878469705581665,
          0.2533739507198334,
          0.40675458312034607,
          -0.023125184699892998,
          -0.007858275435864925,
          -0.12359977513551712,
          -0.08928754925727844,
          -0.022468559443950653,
          -1.46358323097229,
          -0.2330780327320099,
          -0.1742398589849472,
          -0.03984567150473595,
          0.0007480819476768374,
          -0.23213642835617065,
          -0.4297952353954315,
          -0.0032332357950508595,
          -0.0641433522105217,
          -0.155983105301857,
          -0.34000465273857117,
          -0.55563884973526,
          0.13293159008026123,
          -0.1628321260213852,
          -0.05968932434916496,
          0.10655589401721954,
          0.18668538331985474,
          0.04370294138789177,
          -0.015433326363563538,
          -0.4439846873283386,
          0.06557705998420715,
          -0.191277876496315,
          -0.6452000141143799,
          -0.12726731598377228,
          -0.031164370477199554,
          0.0957799106836319,
          -0.0785188302397728,
          -2.112348794937134,
          0.008215639740228653,
          0.13208100199699402,
          -0.07644861936569214,
          -0.18207527697086334,
          0.015975885093212128,
          -0.12390159070491791,
          -0.10381325334310532,
          -0.20343463122844696,
          -0.0984777957201004,
          0.16448436677455902,
          -0.08457845449447632,
          -0.06756677478551865,
          -0.1711980700492859,
          0.34979456663131714,
          0.05016643926501274,
          0.10035888105630875,
          0.0741157978773117,
          -1.6285754442214966,
          -0.20867100358009338,
          -0.0266601350158453,
          -0.01761453039944172
        ],
        [
          -0.04213597625494003,
          0.0987880751490593,
          -0.16437207162380219,
          -0.05860340967774391,
          0.28298962116241455,
          -0.12390198558568954,
          0.37373802065849304,
          -2.3144068717956543,
          0.20075374841690063,
          0.4708192050457001,
          -0.033604107797145844,
          0.014692933298647404,
          0.06677240133285522,
          -0.5656803846359253,
          -0.05561934411525726,
          -1.8628841638565063,
          -0.44698262214660645,
          -0.08737386763095856,
          -0.08239313960075378,
          0.032697562128305435,
          -0.12135611474514008,
          -0.4533580541610718,
          -0.17896747589111328,
          -0.15968134999275208,
          0.13871580362319946,
          -1.3908926248550415,
          -0.23085567355155945,
          0.05663781240582466,
          0.0391889289021492,
          -0.19730432331562042,
          0.023594273254275322,
          -0.07711087912321091,
          -0.12033089995384216,
          -0.0490596741437912,
          -0.2375350147485733,
          -0.1570577621459961,
          -0.21108326315879822,
          -0.5476173758506775,
          -0.07038449496030807,
          -0.04774167388677597,
          0.09957507997751236,
          0.1103081926703453,
          -0.5042073726654053,
          -0.012505214661359787,
          -0.7913321256637573,
          0.1158909946680069,
          -0.5518375039100647,
          -0.17179028689861298,
          0.04117522016167641,
          -0.15135200321674347,
          -0.2127203345298767,
          -0.12909694015979767,
          -0.4811551868915558,
          -0.030042758211493492,
          -0.1933247596025467,
          -0.1499783843755722,
          0.3909568786621094,
          -0.07683675736188889,
          -0.1413031667470932,
          0.0752747505903244,
          1.1464288234710693,
          0.01974758319556713,
          -0.23230144381523132,
          -0.17442557215690613
        ],
        [
          -0.18819934129714966,
          -0.13247741758823395,
          -0.19711290299892426,
          -0.040728308260440826,
          -0.8357561826705933,
          -0.045188724994659424,
          2.7524242401123047,
          0.12224382907152176,
          0.3231915533542633,
          1.5052562952041626,
          0.039528362452983856,
          -0.7056959867477417,
          0.12633173167705536,
          -0.27919667959213257,
          -0.12318535149097443,
          -4.005043029785156,
          1.200812578201294,
          -0.062014881521463394,
          0.16941802203655243,
          -0.12271536141633987,
          0.07399635761976242,
          -1.3940705060958862,
          -0.09784762561321259,
          -0.8565554618835449,
          0.014881533570587635,
          0.0782053992152214,
          -0.10954742133617401,
          0.0858834907412529,
          0.024931881576776505,
          0.06559057533740997,
          0.1539013683795929,
          0.030971352010965347,
          -1.4398036003112793,
          0.03005298785865307,
          0.18365204334259033,
          0.033047232776880264,
          -0.11736710369586945,
          -0.5230820178985596,
          -0.07858608663082123,
          0.3495648205280304,
          0.026924997568130493,
          -0.6411837339401245,
          -1.8545535802841187,
          0.053670480847358704,
          1.592308759689331,
          -0.0006995950825512409,
          -0.10732793807983398,
          0.13136857748031616,
          -0.22925633192062378,
          0.043625567108392715,
          0.18908263742923737,
          -0.018357738852500916,
          -4.662003993988037,
          0.12527447938919067,
          0.03498617187142372,
          -0.13993051648139954,
          -1.4569188356399536,
          0.6565510034561157,
          -0.0448339618742466,
          -0.03873002901673317,
          -0.1740328073501587,
          -0.024225503206253052,
          0.07050745189189911,
          0.1164063811302185
        ],
        [
          0.14327850937843323,
          -0.14032882452011108,
          -0.15925951302051544,
          -0.10288456082344055,
          2.307598114013672,
          -0.05814545974135399,
          1.6087478399276733,
          2.5440056324005127,
          2.8152570724487305,
          0.29805055260658264,
          0.02185145393013954,
          -0.07058068364858627,
          -0.09823321551084518,
          0.30368658900260925,
          -0.07586061954498291,
          4.84679651260376,
          -0.5157398581504822,
          -0.1534631997346878,
          -0.05571465566754341,
          -0.06508767604827881,
          -0.05016353353857994,
          2.0409398078918457,
          -0.013408049941062927,
          -0.44831353425979614,
          -0.0621887631714344,
          0.16504575312137604,
          0.21538370847702026,
          -0.19059595465660095,
          -0.1422596126794815,
          -0.13622203469276428,
          -0.04459252208471298,
          -0.10820791125297546,
          2.217775344848633,
          -0.17403770983219147,
          -0.533689022064209,
          0.057814184576272964,
          0.12147510051727295,
          4.878842353820801,
          0.008565365336835384,
          -0.2180299460887909,
          0.09825605154037476,
          -0.00650443322956562,
          -0.49836263060569763,
          0.05408326908946037,
          -1.2528016567230225,
          -0.0025560844223946333,
          0.13581383228302002,
          0.05462391674518585,
          -0.022391751408576965,
          0.04655182361602783,
          -0.14942283928394318,
          0.05557708442211151,
          1.2310949563980103,
          -0.0563843809068203,
          -0.04543371498584747,
          -0.23682287335395813,
          -1.3811357021331787,
          -0.3057716190814972,
          0.07968674600124359,
          -0.1244911327958107,
          0.5812464952468872,
          -0.18971790373325348,
          -0.059002943336963654,
          -0.06287391483783722
        ],
        [
          -0.0005768555565737188,
          0.08760606497526169,
          0.019245414063334465,
          -0.039172131568193436,
          0.9491441249847412,
          -0.14686457812786102,
          -5.683477401733398,
          0.8957400321960449,
          0.10505972802639008,
          0.584959864616394,
          0.029643798246979713,
          -0.3457331955432892,
          -0.133351668715477,
          0.02549956738948822,
          -0.19683879613876343,
          -2.135873317718506,
          -0.19820398092269897,
          0.035700879991054535,
          -0.0019797137938439846,
          0.10631155967712402,
          -0.009658119641244411,
          -1.5066149234771729,
          0.0798787847161293,
          -0.2122151404619217,
          -0.18099987506866455,
          0.9217522144317627,
          0.45394858717918396,
          -0.1865488886833191,
          0.11514685302972794,
          -0.08167707175016403,
          -0.018212268128991127,
          -0.08299607038497925,
          0.1575411856174469,
          0.005113879218697548,
          -0.011335527524352074,
          -0.19405782222747803,
          -0.0373065210878849,
          -0.487529993057251,
          -0.09896405041217804,
          0.016210298985242844,
          -0.18795473873615265,
          -0.15962107479572296,
          3.6832666397094727,
          -0.16241298615932465,
          0.37174832820892334,
          -0.2412291020154953,
          0.43231600522994995,
          0.03085753135383129,
          -0.2800205945968628,
          -0.17518340051174164,
          -0.08465249091386795,
          0.10515002906322479,
          1.6900532245635986,
          -0.12056957930326462,
          -0.1146124079823494,
          -0.035830527544021606,
          -0.24322688579559326,
          -1.1467450857162476,
          0.049245115369558334,
          -0.16517582535743713,
          1.0190385580062866,
          0.010889959521591663,
          -0.0022026922088116407,
          -0.11165467649698257
        ],
        [
          -0.1507459431886673,
          -0.08465339988470078,
          -0.16149845719337463,
          -0.05065103620290756,
          -0.950798511505127,
          0.2077188491821289,
          -0.6352355480194092,
          4.329616069793701,
          1.9370983839035034,
          -1.1410996913909912,
          -0.08906646817922592,
          -0.21286314725875854,
          -0.11447673290967941,
          -0.2578938901424408,
          -0.15667295455932617,
          0.3411945402622223,
          0.20423203706741333,
          0.07448863238096237,
          -0.033949244767427444,
          -0.22167827188968658,
          0.053555309772491455,
          -0.3322116732597351,
          -0.050760187208652496,
          0.05048098415136337,
          -0.0857638493180275,
          1.2706940174102783,
          -0.455800861120224,
          -0.17992784082889557,
          -0.025621887296438217,
          -0.23584648966789246,
          -0.14656586945056915,
          0.1264752596616745,
          -0.026876015588641167,
          0.012935372069478035,
          -0.11506000906229019,
          -0.2111959308385849,
          0.06636953353881836,
          -0.32898765802383423,
          -0.04998064041137695,
          -0.12759672105312347,
          -0.08312015980482101,
          -0.8086060285568237,
          -1.4374326467514038,
          0.10973062366247177,
          -0.00045869979658164084,
          -0.10389842838048935,
          0.2255721092224121,
          -0.2367454320192337,
          -0.19000662863254547,
          0.10980663448572159,
          -0.04449602589011192,
          0.14450551569461823,
          -0.9427334666252136,
          -0.07055096328258514,
          0.171192467212677,
          -0.21333347260951996,
          -1.4678659439086914,
          0.24537193775177002,
          -0.09531433135271072,
          0.09999261796474457,
          -0.5459822416305542,
          -0.07127126306295395,
          0.0039626676589250565,
          -0.09609505534172058
        ],
        [
          -0.1115504577755928,
          -0.11565083265304565,
          -0.14975014328956604,
          0.15418149530887604,
          0.2978837192058563,
          -0.22390320897102356,
          -1.9841268062591553,
          -1.0510350465774536,
          1.91701340675354,
          1.1332125663757324,
          -0.10976678133010864,
          -0.2687373161315918,
          -0.02910054847598076,
          -0.10879258811473846,
          0.12016882747411728,
          0.481401264667511,
          -0.2781011760234833,
          -0.1176784336566925,
          -0.12165269255638123,
          -0.21004949510097504,
          0.0024601402692496777,
          -0.7194389700889587,
          0.12813694775104523,
          -0.1974199116230011,
          -0.16039656102657318,
          -1.0758966207504272,
          0.2103145271539688,
          -0.011855526827275753,
          -0.03829063102602959,
          0.06486454606056213,
          -0.21158990263938904,
          -0.13267944753170013,
          2.684314489364624,
          0.03129720687866211,
          -0.1959284245967865,
          -0.12853796780109406,
          -0.1421436220407486,
          1.0273059606552124,
          -0.016765855252742767,
          -0.08296893537044525,
          -0.18134866654872894,
          0.4684109091758728,
          -1.2918930053710938,
          -0.1137332171201706,
          -0.15986542403697968,
          0.11577256768941879,
          0.020065121352672577,
          -0.20414899289608002,
          0.16278252005577087,
          -0.21253350377082825,
          -0.156255841255188,
          -0.15698371827602386,
          -0.19223712384700775,
          -0.26738131046295166,
          -0.04629465937614441,
          -0.017110329121351242,
          2.0528903007507324,
          -2.0155794620513916,
          0.13170798122882843,
          -0.127005934715271,
          0.4818132221698761,
          0.08201568573713303,
          -0.24759238958358765,
          0.01156938262283802
        ],
        [
          0.06597615778446198,
          0.07762205600738525,
          -0.22104483842849731,
          -0.29903778433799744,
          -0.14671173691749573,
          0.13725169003009796,
          -2.7501044273376465,
          -0.48628103733062744,
          0.4486144185066223,
          0.08780884742736816,
          -0.07976433634757996,
          0.006229323334991932,
          -0.04887397587299347,
          -0.46924343705177307,
          -0.06777320802211761,
          -2.420055627822876,
          2.3977818489074707,
          -0.12859563529491425,
          0.0009118298767134547,
          0.04934346303343773,
          0.16821540892124176,
          4.160068511962891,
          -0.05116591230034828,
          -0.43839046359062195,
          0.04641607031226158,
          -0.3040930926799774,
          -0.06095900386571884,
          0.006035334896296263,
          -0.13545307517051697,
          -0.004393323324620724,
          0.09190063178539276,
          0.027225812897086143,
          -0.3057321012020111,
          -0.10057912021875381,
          -0.3156113028526306,
          -0.14667166769504547,
          0.0940685048699379,
          1.0145817995071411,
          -0.24245746433734894,
          -0.11942331492900848,
          -0.11627352237701416,
          2.171445608139038,
          0.03191326558589935,
          -0.0999545082449913,
          1.73068106174469,
          -0.01176182460039854,
          -0.7146725654602051,
          -0.125054731965065,
          -0.28455495834350586,
          -0.19450855255126953,
          0.052664682269096375,
          -0.15405488014221191,
          -2.7432727813720703,
          -0.15745040774345398,
          -0.08444942533969879,
          0.0646495521068573,
          1.5496498346328735,
          1.5317250490188599,
          -0.16913412511348724,
          -0.18895332515239716,
          -0.17927823960781097,
          -0.07448799908161163,
          -0.06583479791879654,
          -0.15826407074928284
        ],
        [
          0.11653430014848709,
          -0.07435178756713867,
          0.08744865655899048,
          0.007546816021203995,
          0.1531268209218979,
          0.19395193457603455,
          -2.0250442028045654,
          0.4731203317642212,
          0.1135168969631195,
          0.9261093735694885,
          -0.22524279356002808,
          -0.10445712506771088,
          0.2277262806892395,
          -0.372904509305954,
          -0.1350758969783783,
          2.8823869228363037,
          -0.26132214069366455,
          0.08205277472734451,
          0.1430063247680664,
          -0.060296084731817245,
          -0.05249588191509247,
          1.100175142288208,
          -0.11348919570446014,
          -0.4086786210536957,
          0.024759380146861076,
          -0.3786085247993469,
          0.43910467624664307,
          -0.06517575681209564,
          -0.206819549202919,
          -0.21985137462615967,
          -0.006318200845271349,
          -0.006686728913336992,
          0.5208029747009277,
          0.1514616310596466,
          -0.4077272415161133,
          0.030278712511062622,
          -0.18541812896728516,
          0.5544214844703674,
          -0.11080456525087357,
          -0.2511132061481476,
          0.14356999099254608,
          0.08820156008005142,
          1.3675521612167358,
          0.09086935967206955,
          2.8954691886901855,
          0.13133469223976135,
          0.11038259416818619,
          0.2122371792793274,
          -0.007384587544947863,
          -0.052620094269514084,
          -0.04942578449845314,
          -0.1543680876493454,
          0.7881069779396057,
          -0.11757926642894745,
          0.04782582074403763,
          0.11857958137989044,
          0.04638998955488205,
          2.544156074523926,
          0.13663917779922485,
          0.1689908802509308,
          0.3647996187210083,
          0.07108006626367569,
          0.013641448691487312,
          -0.009180517867207527
        ],
        [
          0.13563793897628784,
          0.12292568385601044,
          -0.08610595762729645,
          0.07301252335309982,
          -1.1586072444915771,
          -0.20900234580039978,
          -1.3159037828445435,
          4.356042385101318,
          2.400644302368164,
          1.3308244943618774,
          -0.14344865083694458,
          -0.31849363446235657,
          0.1621081531047821,
          0.7620388865470886,
          -0.09052194654941559,
          1.4769033193588257,
          1.4726626873016357,
          0.10866446048021317,
          0.05145317316055298,
          0.04064905643463135,
          0.07167278230190277,
          -6.031385898590088,
          0.16496872901916504,
          -0.03712089732289314,
          -0.22952140867710114,
          0.6656799912452698,
          -0.3709251880645752,
          0.02318553812801838,
          -0.18336786329746246,
          -0.10450755804777145,
          -0.1824302077293396,
          -0.0005349244456738234,
          0.6691704988479614,
          -0.048163674771785736,
          0.26414981484413147,
          0.11268088966608047,
          0.06573924422264099,
          1.0132776498794556,
          -0.07203934341669083,
          -0.25997450947761536,
          0.006882793270051479,
          0.5552548766136169,
          -1.9437026977539062,
          0.14499913156032562,
          2.325294256210327,
          0.10335007309913635,
          0.5324529409408569,
          0.2235526740550995,
          -0.3708531856536865,
          -0.1533401757478714,
          -0.14637400209903717,
          -0.14831854403018951,
          0.798937201499939,
          -0.042253054678440094,
          -0.11943105608224869,
          -0.04355989024043083,
          1.2098697423934937,
          1.4748377799987793,
          -0.14017821848392487,
          0.18147672712802887,
          -0.7740831971168518,
          -0.0640655905008316,
          -0.10459119826555252,
          0.2192980945110321
        ],
        [
          0.004161791875958443,
          0.022575272247195244,
          0.05273984745144844,
          0.044981736689805984,
          0.47126948833465576,
          0.15746738016605377,
          3.217005729675293,
          -0.15490417182445526,
          -0.2562194764614105,
          -0.6587134003639221,
          -0.06950809806585312,
          -0.060444388538599014,
          0.07887928932905197,
          -0.10901684314012527,
          0.013229802250862122,
          1.2005457878112793,
          -1.3643876314163208,
          -0.019768834114074707,
          0.009572337381541729,
          0.10315471142530441,
          0.08731597661972046,
          -0.849905788898468,
          -0.04293755069375038,
          -0.08371010422706604,
          -0.07243641465902328,
          -0.5321536660194397,
          0.0003864186583086848,
          0.015247187577188015,
          0.07286324352025986,
          -0.07292596995830536,
          -0.05079957842826843,
          -0.16452346742153168,
          -1.0156383514404297,
          -0.16397342085838318,
          -0.3495808243751526,
          -0.12111891061067581,
          -0.2621859908103943,
          0.5065631866455078,
          -0.07278938591480255,
          0.1619885265827179,
          0.00681198900565505,
          -1.3066558837890625,
          0.6169600486755371,
          -0.08154386281967163,
          -1.722181797027588,
          0.0872989147901535,
          -0.4660283327102661,
          -0.16526690125465393,
          -0.1354968398809433,
          -0.08333678543567657,
          -0.03365227207541466,
          0.03299555554986,
          -0.6935686469078064,
          -0.22894275188446045,
          0.19363021850585938,
          0.019151432439684868,
          0.09240929037332535,
          -0.6728237271308899,
          -0.2306460738182068,
          -0.11778844892978668,
          0.2500802278518677,
          0.06359969079494476,
          0.09130187332630157,
          -0.08318167179822922
        ],
        [
          -0.0007992658065631986,
          -0.03264589235186577,
          -0.06435219943523407,
          0.15191678702831268,
          -0.6381839513778687,
          -0.13457073271274567,
          -1.4154590368270874,
          -7.059223651885986,
          -1.4785407781600952,
          0.6755014657974243,
          -0.2613227069377899,
          -0.1581123322248459,
          0.12295134365558624,
          -0.7678666710853577,
          0.07478449493646622,
          -1.0846898555755615,
          -0.7206496596336365,
          -0.25747501850128174,
          -0.12277676165103912,
          -0.07372012734413147,
          -0.03634452447295189,
          -0.4784313440322876,
          -0.0911516398191452,
          0.00463873241096735,
          -0.21309144794940948,
          -0.2871518135070801,
          -0.6407421827316284,
          -0.2151094675064087,
          -0.04346346855163574,
          -0.3711409866809845,
          0.12203586101531982,
          -0.17185604572296143,
          -1.3407669067382812,
          -0.0807611495256424,
          0.025712016969919205,
          0.09615922719240189,
          0.12819968163967133,
          -0.9584271907806396,
          0.05394570529460907,
          0.3678027391433716,
          -0.05217108502984047,
          -0.02955443039536476,
          1.1123992204666138,
          0.07143570482730865,
          0.2884369492530823,
          -0.05084088444709778,
          -0.9201253652572632,
          -0.10433049499988556,
          -0.31131094694137573,
          -0.15086092054843903,
          -0.1933240443468094,
          -0.10615868121385574,
          -1.4727367162704468,
          0.13748575747013092,
          -0.16138871014118195,
          -0.17198505997657776,
          -2.1159398555755615,
          2.425506353378296,
          -0.2355075180530548,
          -0.17022132873535156,
          0.1952647864818573,
          -0.052614498883485794,
          -0.19949166476726532,
          0.06580232083797455
        ],
        [
          -0.1910838782787323,
          -0.21435168385505676,
          -0.24346502125263214,
          -0.07622912526130676,
          0.240231454372406,
          -0.1918523609638214,
          0.558811604976654,
          -3.812682867050171,
          -1.6620396375656128,
          1.3119593858718872,
          -0.0835459902882576,
          -0.14654086530208588,
          -0.09466628730297089,
          -0.4084925055503845,
          0.06200651451945305,
          1.088728427886963,
          -0.2667902112007141,
          0.07844659686088562,
          -0.20120829343795776,
          -0.0511343851685524,
          -0.0615665577352047,
          -0.8297823667526245,
          0.10142156481742859,
          -0.1249508261680603,
          -0.20455263555049896,
          -1.9391523599624634,
          -0.006297699175775051,
          0.12012030184268951,
          0.137549489736557,
          -0.3756539523601532,
          -0.09508901834487915,
          -0.10936523228883743,
          -1.325622797012329,
          -0.08140604197978973,
          -0.09873070567846298,
          0.06793034076690674,
          0.0771583542227745,
          1.7866520881652832,
          -0.0897563099861145,
          -0.20329298079013824,
          -0.26992806792259216,
          -0.32513248920440674,
          -0.3231391906738281,
          0.010119717568159103,
          -1.2986253499984741,
          0.00710316700860858,
          1.2299450635910034,
          -0.24187247455120087,
          -0.3775782287120819,
          -0.12495964765548706,
          -0.23903881013393402,
          -0.08627470582723618,
          2.7497994899749756,
          -0.010815080255270004,
          -0.1178259402513504,
          0.007393782027065754,
          -2.9664294719696045,
          -0.03794115036725998,
          0.10536939650774002,
          0.18924081325531006,
          1.483627200126648,
          0.008658096194267273,
          -0.012796240858733654,
          -0.019849363714456558
        ],
        [
          0.14070956408977509,
          -0.07985926419496536,
          -0.1637546867132187,
          -0.17936284840106964,
          -0.826504647731781,
          0.08645155280828476,
          -0.7719807028770447,
          0.0937843769788742,
          0.15873894095420837,
          -0.032056841999292374,
          0.048114243894815445,
          0.08396876603364944,
          -0.12678155303001404,
          -0.15930037200450897,
          0.07572169601917267,
          -0.28116288781166077,
          1.8128588199615479,
          -0.08985123783349991,
          -0.09150876849889755,
          -0.173042893409729,
          -0.14573036134243011,
          0.3670998811721802,
          -0.18540455400943756,
          -0.292763352394104,
          -0.09198565036058426,
          -0.12063691020011902,
          -0.35055115818977356,
          0.1146930381655693,
          -0.10167956352233887,
          -0.11524069309234619,
          -0.061640236526727676,
          -0.2280513197183609,
          0.4905076324939728,
          -0.09368211030960083,
          -0.06733566522598267,
          -0.2292112559080124,
          -0.07452462613582611,
          -1.2848061323165894,
          -0.1698673516511917,
          -0.13969677686691284,
          -0.2639961242675781,
          1.7368009090423584,
          0.40865013003349304,
          0.08268806338310242,
          -1.046499490737915,
          0.06110946089029312,
          -0.024285487830638885,
          0.11356237530708313,
          -0.18385271728038788,
          -0.22447006404399872,
          -0.10482808202505112,
          0.07337117940187454,
          0.0313602015376091,
          -0.21850262582302094,
          0.16944466531276703,
          0.039373092353343964,
          0.5905658006668091,
          0.018192404881119728,
          0.023458003997802734,
          0.053167760372161865,
          -1.5551360845565796,
          -0.1869208663702011,
          -0.034377116709947586,
          -0.1234418973326683
        ],
        [
          0.016710786148905754,
          -0.15309756994247437,
          -0.09158806502819061,
          -0.07481439411640167,
          -0.14437538385391235,
          0.14325836300849915,
          -0.7420564293861389,
          0.2913404405117035,
          0.048261821269989014,
          0.7246055603027344,
          0.08895933628082275,
          0.012937582097947598,
          -0.09067052602767944,
          -0.05330536514520645,
          -0.10738294571638107,
          -0.12356363236904144,
          0.6915106177330017,
          0.04216892644762993,
          -0.2648720145225525,
          -0.05297273024916649,
          -0.019111087545752525,
          -0.002370648318901658,
          -0.2205946445465088,
          -0.4335462152957916,
          0.018056508153676987,
          -0.3029441237449646,
          -0.26942113041877747,
          0.10207484662532806,
          -0.18701227009296417,
          -0.09594474732875824,
          -0.06006564944982529,
          0.11698850244283676,
          0.37578824162483215,
          -0.03338778764009476,
          0.003323198528960347,
          -0.015829499810934067,
          -0.0347251296043396,
          -0.7181663513183594,
          -0.028548026457428932,
          0.22657014429569244,
          0.07733961939811707,
          0.686996579170227,
          0.378666490316391,
          -0.16621355712413788,
          -0.585943877696991,
          -0.11966270953416824,
          -0.19404852390289307,
          -0.11191634833812714,
          -0.21982648968696594,
          0.07100449502468109,
          0.01723199523985386,
          0.10051680356264114,
          0.5034447312355042,
          -0.24648408591747284,
          -0.1206410601735115,
          -0.019288860261440277,
          -0.3782171905040741,
          0.2689879834651947,
          -0.1257936954498291,
          -0.08035784959793091,
          -2.281273126602173,
          0.11036758124828339,
          -0.042957812547683716,
          0.03999759256839752
        ],
        [
          -0.11615770310163498,
          0.07117892056703568,
          -0.13238947093486786,
          -0.13689279556274414,
          -0.20959784090518951,
          0.04336388036608696,
          -0.6638512015342712,
          0.5960868000984192,
          0.40240561962127686,
          0.7109911441802979,
          -0.2404610961675644,
          0.054118797183036804,
          -0.02975565195083618,
          -0.3456181585788727,
          -0.024886298924684525,
          -0.08573516458272934,
          0.6775932908058167,
          0.023727761581540108,
          -0.12714093923568726,
          -0.07010382413864136,
          -0.22732113301753998,
          0.17070338129997253,
          -0.21623656153678894,
          -0.47173118591308594,
          0.07126285880804062,
          -0.10819800198078156,
          -0.036690209060907364,
          0.043320734053850174,
          0.021660080179572105,
          0.022458361461758614,
          -0.12405040115118027,
          -0.2281709611415863,
          0.3636995851993561,
          -0.1615450084209442,
          -0.011389683932065964,
          0.03784222900867462,
          -0.11424987018108368,
          -0.6688321828842163,
          -0.060194097459316254,
          -0.036472804844379425,
          0.02879919297993183,
          0.7493917942047119,
          0.3144961893558502,
          -0.15909415483474731,
          -0.5070104598999023,
          0.053358111530542374,
          -0.06065324693918228,
          -0.09703922271728516,
          -0.1137688085436821,
          -0.11816099286079407,
          -0.030841249972581863,
          -0.16086451709270477,
          0.6325666308403015,
          -0.24223817884922028,
          0.062584787607193,
          -0.06906094402074814,
          -0.27563121914863586,
          0.025706017389893532,
          0.12145940959453583,
          0.023807955905795097,
          -2.16150164604187,
          -0.00020962953567504883,
          -0.0614137277007103,
          -0.021862689405679703
        ],
        [
          -0.08708477020263672,
          0.10104649513959885,
          0.10828050225973129,
          -0.04254177212715149,
          0.05542658641934395,
          -0.09366635978221893,
          -0.10853473842144012,
          -0.022241104394197464,
          0.080361507833004,
          -0.07253769040107727,
          -0.1415141224861145,
          0.15330873429775238,
          0.15069206058979034,
          -0.07981646060943604,
          -0.04912376031279564,
          -0.06114993989467621,
          -0.06585191190242767,
          -0.019689958542585373,
          0.1451708972454071,
          -0.052273474633693695,
          0.13395778834819794,
          -0.016987241804599762,
          -0.18515580892562866,
          0.10701257735490799,
          -0.10812260210514069,
          -0.03881147876381874,
          0.023737195879220963,
          -0.17457424104213715,
          0.09446359425783157,
          -0.04465648904442787,
          -0.17755979299545288,
          -0.19590355455875397,
          -0.048237912356853485,
          -0.09348008781671524,
          -0.04395703971385956,
          -0.11902774125337601,
          0.14144153892993927,
          -0.06417486816644669,
          -0.028305508196353912,
          0.14997906982898712,
          0.11021604388952255,
          0.03504987806081772,
          -0.021313615143299103,
          0.08028002083301544,
          -0.05755516141653061,
          -0.1031251773238182,
          0.09875652194023132,
          -0.17747069895267487,
          -0.17713060975074768,
          -0.108578622341156,
          0.14339935779571533,
          0.034121833741664886,
          -0.1663379818201065,
          0.09368851780891418,
          -0.07876566052436829,
          -0.13147374987602234,
          -0.16798369586467743,
          0.16106663644313812,
          -0.11913355439901352,
          -0.07204848527908325,
          0.10771902650594711,
          0.1795347034931183,
          -0.08073180168867111,
          0.08407717198133469
        ],
        [
          -0.012650417163968086,
          0.11842858791351318,
          0.04491481930017471,
          0.10663001239299774,
          0.1136619970202446,
          0.11130676418542862,
          -0.18865235149860382,
          0.10751146078109741,
          -0.007789202034473419,
          -0.06388279050588608,
          -0.040353912860155106,
          0.08886094391345978,
          -0.070001982152462,
          0.146040141582489,
          0.16665542125701904,
          0.008436175994575024,
          0.18484044075012207,
          -0.1334242820739746,
          -0.08367808163166046,
          -0.09935636818408966,
          -0.1716560423374176,
          0.09331689029932022,
          -0.09123864024877548,
          0.13262060284614563,
          0.06319916993379593,
          -0.058537982404232025,
          0.1673262119293213,
          0.15308836102485657,
          0.12538324296474457,
          0.10547948628664017,
          -0.18847453594207764,
          -0.01991986110806465,
          -0.05676285922527313,
          0.02041485533118248,
          0.11115730553865433,
          0.023331131786108017,
          -0.05016232654452324,
          -0.18816059827804565,
          0.17277200520038605,
          0.16149862110614777,
          -0.07877795398235321,
          -0.1557205766439438,
          -0.17825104296207428,
          0.02482456900179386,
          -0.06211162358522415,
          0.1451568752527237,
          -0.054750606417655945,
          -0.19070908427238464,
          0.1640547215938568,
          0.10087152570486069,
          0.09645242244005203,
          -0.1806020438671112,
          0.033726051449775696,
          0.08170535415410995,
          -0.16417641937732697,
          -0.004695331212133169,
          -0.13337600231170654,
          -0.17414261400699615,
          -0.07668133080005646,
          0.08985097706317902,
          -0.030839858576655388,
          -0.10497352480888367,
          -0.012262627482414246,
          -0.1323266476392746
        ],
        [
          -0.21985547244548798,
          -0.22540806233882904,
          -0.14517726004123688,
          -0.12757666409015656,
          -0.817340075969696,
          -0.0676906481385231,
          -0.408320814371109,
          -1.0804880857467651,
          0.20430240035057068,
          -2.4360342025756836,
          -0.20960284769535065,
          -0.21576540172100067,
          -0.2375105917453766,
          -0.38720425963401794,
          0.03700711578130722,
          -0.12764215469360352,
          4.810955047607422,
          0.007052055560052395,
          -0.010886858217418194,
          -0.25850430130958557,
          -0.2408178299665451,
          -0.21146869659423828,
          -0.18245552480220795,
          -0.24232864379882812,
          -0.03164975345134735,
          -0.17394261062145233,
          0.1833050400018692,
          -0.09736412018537521,
          -0.254346638917923,
          -0.0205556470900774,
          0.001892816973850131,
          -0.24809294939041138,
          -0.9568893313407898,
          0.009760764427483082,
          -0.03201288357377052,
          -0.02042263187468052,
          0.02409445121884346,
          1.3462826013565063,
          0.0057516698725521564,
          -0.46534740924835205,
          -0.10117902606725693,
          6.127415657043457,
          4.956696510314941,
          -0.014855132438242435,
          1.3890297412872314,
          0.013373598456382751,
          1.7695730924606323,
          -0.16912299394607544,
          -0.22002708911895752,
          0.0965508371591568,
          -0.1624116450548172,
          -0.07767333090305328,
          -5.4104108810424805,
          -0.07718034088611603,
          -0.08683139085769653,
          0.10738340765237808,
          -0.2628040313720703,
          -0.576237678527832,
          0.10147976130247116,
          0.030560368672013283,
          1.509731411933899,
          -0.12808813154697418,
          -0.1855035275220871,
          -0.23791459202766418
        ],
        [
          0.03534604236483574,
          0.02281888574361801,
          -0.19706688821315765,
          0.08177144825458527,
          0.6236125826835632,
          0.14369818568229675,
          1.351179838180542,
          -0.5463879704475403,
          -0.5369493961334229,
          0.5922073125839233,
          -0.1958310604095459,
          -0.3020370602607727,
          -0.1325570046901703,
          -0.4304593801498413,
          0.037956561893224716,
          0.05555352568626404,
          0.11914042383432388,
          0.03414713963866234,
          -0.08996021002531052,
          0.03757009655237198,
          -0.2241806536912918,
          0.670136034488678,
          -0.07114975899457932,
          -0.28698211908340454,
          -0.12452325969934464,
          -0.17596076428890228,
          -0.03466076776385307,
          -0.24077431857585907,
          -0.12814980745315552,
          -0.13723313808441162,
          -0.16709016263484955,
          0.051180750131607056,
          -0.4162817895412445,
          0.02538079395890236,
          -0.2578176259994507,
          -0.16649863123893738,
          -0.2400454729795456,
          -0.9396133422851562,
          -0.007181432563811541,
          0.2356567680835724,
          -0.21214482188224792,
          0.9501996636390686,
          0.18368887901306152,
          -0.1741807460784912,
          -1.24128258228302,
          -0.10657133907079697,
          1.1666359901428223,
          -0.008981526829302311,
          -0.15321770310401917,
          -0.13045932352542877,
          -0.15882401168346405,
          -0.262505441904068,
          -1.8968141078948975,
          0.03224286064505577,
          0.1228630393743515,
          0.08267557621002197,
          -1.7755331993103027,
          1.2082477807998657,
          -0.21595890820026398,
          0.00468843337148428,
          1.4601420164108276,
          -0.05930780991911888,
          -0.2518351972103119,
          -0.1439344584941864
        ],
        [
          -0.22369857132434845,
          -0.10418780148029327,
          -0.10203902423381805,
          -0.2754678428173065,
          0.7918161749839783,
          -0.18564152717590332,
          1.6308941841125488,
          -0.8398554921150208,
          -0.4591977596282959,
          0.20769357681274414,
          0.010198185220360756,
          0.01863757334649563,
          -0.23905067145824432,
          -0.4127110242843628,
          -0.21205595135688782,
          0.11272625625133514,
          -0.06594180315732956,
          -0.1813194751739502,
          -0.20274116098880768,
          -0.1768779754638672,
          -0.12354203313589096,
          0.5652034282684326,
          -0.14537018537521362,
          -0.23174795508384705,
          0.13874287903308868,
          0.10503116250038147,
          0.224977046251297,
          0.0483829528093338,
          -0.25664663314819336,
          -0.1941206157207489,
          -0.2216770052909851,
          -0.22715845704078674,
          -0.5524467825889587,
          -0.05918043851852417,
          -0.20684774219989777,
          -0.0163541492074728,
          0.06598339229822159,
          -0.6498931646347046,
          -0.06289675086736679,
          0.1988038718700409,
          -0.16977852582931519,
          0.6228495240211487,
          0.3478432893753052,
          0.03840915486216545,
          -1.263048768043518,
          -0.10408537089824677,
          1.0701086521148682,
          -0.01884097047150135,
          -0.06429196149110794,
          0.026214005425572395,
          -0.2469642460346222,
          -0.08813215047121048,
          -1.91753089427948,
          -0.16658037900924683,
          -0.13324278593063354,
          -0.12856003642082214,
          -1.7241449356079102,
          1.4448307752609253,
          0.02067340537905693,
          -0.09472674876451492,
          1.5889159440994263,
          -0.17541541159152985,
          -0.18595877289772034,
          -0.11788114905357361
        ],
        [
          0.10236811637878418,
          0.055700380355119705,
          0.11141585558652878,
          0.10338550060987473,
          0.12326622009277344,
          -0.06316594034433365,
          0.08233699202537537,
          -0.05588243901729584,
          0.10611338913440704,
          0.05533057078719139,
          -0.018498780205845833,
          0.15149199962615967,
          -0.16915583610534668,
          0.034750815480947495,
          -0.005125460680574179,
          0.1035870611667633,
          0.06548696011304855,
          0.17199568450450897,
          -0.15278129279613495,
          0.0898691862821579,
          0.019259018823504448,
          -0.11603499203920364,
          -0.08063620328903198,
          -0.006363558117300272,
          -0.004139613825827837,
          0.1786152869462967,
          0.1123616173863411,
          -0.10278722643852234,
          -0.08343128859996796,
          0.03852718323469162,
          -0.029831035062670708,
          0.03715529292821884,
          -0.16347773373126984,
          0.03705722838640213,
          0.09783066064119339,
          0.1608654111623764,
          -0.008140046149492264,
          0.10666372627019882,
          -0.13850519061088562,
          0.11940065771341324,
          -0.09827384352684021,
          -0.0717344656586647,
          0.12675447762012482,
          -0.016398290172219276,
          -0.023467442020773888,
          -0.07117021828889847,
          0.1245766431093216,
          -0.0018797751981765032,
          0.0975765660405159,
          0.18032827973365784,
          -0.003942694049328566,
          -0.1489393711090088,
          0.09606160968542099,
          0.186228945851326,
          -0.15914824604988098,
          -0.07677990943193436,
          0.17872674763202667,
          -0.0065660965628921986,
          -0.10256294906139374,
          0.08716120570898056,
          -0.12394194304943085,
          0.0357656255364418,
          0.1656176894903183,
          0.10992744565010071
        ],
        [
          0.16540637612342834,
          -0.16313223540782928,
          0.05470489338040352,
          0.12058132886886597,
          -0.01174886990338564,
          -0.09557037055492401,
          0.1008407399058342,
          0.18634407222270966,
          0.15007272362709045,
          0.17545831203460693,
          0.15045130252838135,
          -0.08467618376016617,
          -0.09955087304115295,
          0.060817644000053406,
          -0.08240880072116852,
          -0.046107903122901917,
          0.12059339135885239,
          0.07000059634447098,
          -0.06587553024291992,
          0.13768629729747772,
          -0.16053053736686707,
          0.13389232754707336,
          0.1302792876958847,
          0.15502293407917023,
          0.13484160602092743,
          0.04342202469706535,
          -0.07225301116704941,
          0.094905324280262,
          0.10805044323205948,
          -0.14703308045864105,
          -0.17486153542995453,
          -0.04619676247239113,
          -0.17897050082683563,
          0.18705309927463531,
          0.1960863471031189,
          0.033464740961790085,
          0.10145211219787598,
          -0.07980076223611832,
          -0.004743139259517193,
          0.09629447013139725,
          0.11137695610523224,
          -0.1268310397863388,
          -0.15253791213035583,
          0.023927628993988037,
          0.08095842599868774,
          0.17728623747825623,
          0.05804949253797531,
          0.12309402972459793,
          0.05970584601163864,
          0.03293559327721596,
          -0.16817156970500946,
          -0.1955551952123642,
          0.11448399722576141,
          0.08221461623907089,
          -0.17714732885360718,
          -0.13278231024742126,
          -0.13723252713680267,
          0.0945010706782341,
          0.008127681910991669,
          -0.10238368809223175,
          -0.10681468993425369,
          -0.009612043388187885,
          -0.012570885941386223,
          -0.0715310126543045
        ],
        [
          -0.058220621198415756,
          0.00782806146889925,
          0.16969741880893707,
          0.10416322946548462,
          -2.0454046726226807,
          0.19612835347652435,
          0.14381751418113708,
          1.0530815124511719,
          0.7842035293579102,
          0.9522688388824463,
          -0.057918768376111984,
          -0.14090169966220856,
          -0.025283707305788994,
          -0.0912078320980072,
          0.052526965737342834,
          -0.07157595455646515,
          0.9300700426101685,
          -0.03336893022060394,
          -0.17950163781642914,
          -0.16754946112632751,
          0.1165655106306076,
          0.6883138418197632,
          -0.003378955414518714,
          0.007075704168528318,
          0.008609367534518242,
          0.07195944339036942,
          -0.19264540076255798,
          0.15479826927185059,
          -0.013895758427679539,
          0.08715328574180603,
          -0.17170803248882294,
          -0.15218645334243774,
          -1.095539927482605,
          -0.013916799798607826,
          -0.14655879139900208,
          -0.04289207607507706,
          -0.09230008721351624,
          0.21054649353027344,
          -0.12589849531650543,
          3.0386545658111572,
          -0.1626473218202591,
          -0.17370286583900452,
          -0.147133931517601,
          -0.18588896095752716,
          2.148254156112671,
          0.19559240341186523,
          -0.10212753713130951,
          0.1321088820695877,
          0.07536663860082626,
          -0.17920805513858795,
          0.14652960002422333,
          -0.008477534167468548,
          0.718272864818573,
          0.07296226918697357,
          0.14660051465034485,
          -0.10369880497455597,
          -0.37803032994270325,
          0.03647616133093834,
          0.16442467272281647,
          -0.051281414926052094,
          0.11876679956912994,
          0.024663932621479034,
          -0.05225864052772522,
          0.018485404551029205
        ],
        [
          -0.004039358347654343,
          0.1466829478740692,
          -0.07647579908370972,
          -0.1371007114648819,
          -1.8989448547363281,
          0.0849757045507431,
          0.1812189668416977,
          1.0828461647033691,
          0.7138344645500183,
          0.6880302429199219,
          0.1577570140361786,
          -0.08175346255302429,
          0.1225399300456047,
          -0.04300982132554054,
          -0.14756110310554504,
          0.13800151646137238,
          0.7704647183418274,
          -0.06384909898042679,
          -0.17615137994289398,
          -0.13019923865795135,
          -0.046896230429410934,
          0.8539036512374878,
          0.1792060136795044,
          0.1835920810699463,
          0.04814606159925461,
          -0.015642063692212105,
          -0.2137323021888733,
          0.021713986992836,
          0.035901524126529694,
          -0.05706288293004036,
          0.17618492245674133,
          -0.08014412224292755,
          -0.95916748046875,
          0.02529268153011799,
          0.05494191497564316,
          -0.1272822916507721,
          0.05036667734384537,
          0.1895630657672882,
          -0.16678054630756378,
          2.6650586128234863,
          0.19578610360622406,
          -0.09702193737030029,
          -0.15440885722637177,
          -0.05364031344652176,
          2.151843547821045,
          0.1430741548538208,
          0.0164320170879364,
          -0.06391755491495132,
          -0.1388796865940094,
          -0.015452640131115913,
          0.011573144234716892,
          0.06872046738862991,
          0.5538660883903503,
          0.176486536860466,
          0.005225253291428089,
          -0.19297823309898376,
          -0.3684820532798767,
          0.005954712629318237,
          0.19161246716976166,
          -0.17042893171310425,
          0.18933115899562836,
          -0.10875909775495529,
          0.026978159323334694,
          0.1512552946805954
        ],
        [
          0.046340566128492355,
          0.217468723654747,
          -0.09101971983909607,
          -0.16262668371200562,
          0.048078082501888275,
          -0.26602357625961304,
          2.8032724857330322,
          -3.0271847248077393,
          -6.961230278015137,
          6.128676891326904,
          0.08055388927459717,
          -0.5469906330108643,
          0.04628724977374077,
          -0.2743980288505554,
          0.09478282183408737,
          -1.4148602485656738,
          -8.531529426574707,
          -0.2529425024986267,
          0.11279583722352982,
          0.04599865898489952,
          -0.005687373224645853,
          -6.73208475112915,
          -0.08584072440862656,
          -0.2806752026081085,
          -0.1383483111858368,
          -0.09973940253257751,
          0.07209667563438416,
          0.10807441174983978,
          -0.2268410325050354,
          -0.016032636165618896,
          -0.09485886991024017,
          -0.17379769682884216,
          -3.38308048248291,
          0.012029716745018959,
          -0.06812313199043274,
          -0.014068211428821087,
          -0.06883420795202255,
          -0.09784956276416779,
          0.09135104715824127,
          1.0197007656097412,
          0.06210549920797348,
          -4.263782501220703,
          4.3608622550964355,
          -0.21195152401924133,
          -2.299421548843384,
          -0.07930675894021988,
          1.640559434890747,
          -0.2281765639781952,
          -0.65993332862854,
          0.0082238232716918,
          -0.22282545268535614,
          -0.26573702692985535,
          11.308253288269043,
          -0.15759731829166412,
          -0.09726806730031967,
          -0.22616924345493317,
          -1.4511594772338867,
          -2.0047428607940674,
          -0.2494102120399475,
          0.02216883935034275,
          0.1545325219631195,
          -0.1403917819261551,
          0.009482618421316147,
          0.025252914056181908
        ],
        [
          0.12028880417346954,
          -0.05933953821659088,
          -0.09413168579339981,
          -0.11856772005558014,
          -1.5070439577102661,
          -0.17054733633995056,
          0.564175009727478,
          4.77345609664917,
          5.410684108734131,
          1.1419793367385864,
          -0.2279585301876068,
          -0.600854218006134,
          -0.02626550756394863,
          -0.3175490200519562,
          -0.17957119643688202,
          -0.5246474146842957,
          1.1310926675796509,
          -0.2922213673591614,
          0.05384422466158867,
          -0.1262749433517456,
          -0.12244705110788345,
          -6.675413608551025,
          0.04341627657413483,
          -0.47128552198410034,
          -0.014569934457540512,
          -0.4136807918548584,
          0.4455726146697998,
          0.03780294209718704,
          -0.031719889491796494,
          -0.02062821015715599,
          -0.08810904622077942,
          0.10340192914009094,
          -2.4470407962799072,
          -0.1499902456998825,
          -0.3494838774204254,
          -0.055012140423059464,
          -0.10613293945789337,
          4.134207725524902,
          0.012180694378912449,
          -2.4702141284942627,
          -0.1849847137928009,
          1.8191297054290771,
          7.922112941741943,
          -0.06843625754117966,
          4.006012916564941,
          0.00716087780892849,
          -2.224252223968506,
          -0.013944058679044247,
          -0.4031227231025696,
          -0.020841965451836586,
          -0.07135941833257675,
          0.06499194353818893,
          2.4959375858306885,
          0.12018381059169769,
          -0.08897814154624939,
          -0.240152969956398,
          -7.467136859893799,
          7.390282154083252,
          0.07587284594774246,
          0.08713650703430176,
          0.5658323168754578,
          -0.16718104481697083,
          -0.02552277222275734,
          -0.2199735939502716
        ],
        [
          -0.05336450785398483,
          0.13563551008701324,
          -0.07827090471982956,
          0.03838231787085533,
          0.09375511854887009,
          0.10710727423429489,
          -0.1787206381559372,
          -0.1575137972831726,
          0.16602833569049835,
          0.0888218954205513,
          -0.03771990165114403,
          0.14503365755081177,
          -0.056804753839969635,
          -0.17343197762966156,
          0.1659208983182907,
          0.14083348214626312,
          0.13186033070087433,
          0.12725135684013367,
          0.09267998486757278,
          0.061320338398218155,
          0.0028865195345133543,
          -0.13285516202449799,
          0.1524210423231125,
          0.1553094983100891,
          -0.0874052569270134,
          0.12412754446268082,
          0.016268009319901466,
          0.125798299908638,
          0.1076875850558281,
          0.06541384756565094,
          0.08561345934867859,
          0.0453609861433506,
          -0.16472721099853516,
          0.11744203418493271,
          -0.03990769386291504,
          -0.08997982740402222,
          0.08790997415781021,
          0.10243517905473709,
          0.037044305354356766,
          -0.18570464849472046,
          -0.09911231696605682,
          0.11663811653852463,
          -0.19440793991088867,
          0.009475456550717354,
          -0.021754486486315727,
          -0.06909671425819397,
          0.04579667001962662,
          0.10533115267753601,
          0.0014689487870782614,
          -0.07921382039785385,
          0.15399399399757385,
          0.09779819846153259,
          0.07018588483333588,
          0.16410788893699646,
          -0.11452687531709671,
          -0.18622207641601562,
          0.06726029515266418,
          0.16740231215953827,
          0.03429565206170082,
          0.16305527091026306,
          -0.07462755590677261,
          -0.10821401327848434,
          -0.015600563026964664,
          -0.14960120618343353
        ],
        [
          -0.12935760617256165,
          -0.1311415135860443,
          -0.17025107145309448,
          0.062408238649368286,
          -0.1009209081530571,
          0.19160664081573486,
          0.06308585405349731,
          0.16542573273181915,
          -0.09514066576957703,
          0.019853468984365463,
          0.08721622079610825,
          0.18791332840919495,
          -0.07632525265216827,
          -0.06592990458011627,
          -0.07586111128330231,
          0.1918526291847229,
          0.11600242555141449,
          -0.14960728585720062,
          0.10873687267303467,
          -0.03832840919494629,
          0.0952480286359787,
          -0.1427498161792755,
          0.006799954921007156,
          0.08410260081291199,
          0.1525849550962448,
          0.15640491247177124,
          0.11073929071426392,
          -0.15383121371269226,
          -0.10281805694103241,
          -0.182477667927742,
          -0.052611373364925385,
          0.02508901059627533,
          -0.1349819302558899,
          0.16214467585086823,
          -0.19583721458911896,
          -0.058428239077329636,
          -0.1271703541278839,
          0.1838494837284088,
          -0.13218432664871216,
          -0.1735040843486786,
          0.1250842809677124,
          -0.15940773487091064,
          0.017118066549301147,
          -0.06982851028442383,
          -0.13483302295207977,
          -0.12702026963233948,
          0.05038060247898102,
          0.1523580700159073,
          0.127475306391716,
          -0.062409769743680954,
          -0.13794931769371033,
          0.16566909849643707,
          -0.1140454038977623,
          -0.14272594451904297,
          -0.07461573928594589,
          -0.12537652254104614,
          0.1255505084991455,
          0.17493577301502228,
          -0.11271355301141739,
          0.02827327512204647,
          0.07742533832788467,
          0.07559270411729813,
          -0.16811777651309967,
          0.032081011682748795
        ],
        [
          -0.13792645931243896,
          0.060806769877672195,
          -0.10243450105190277,
          0.03205810487270355,
          -0.23337893187999725,
          -0.05768315866589546,
          0.19319310784339905,
          3.7908473014831543,
          -1.6047229766845703,
          1.971199631690979,
          0.09604248404502869,
          -0.12877443432807922,
          -0.13592529296875,
          0.6361064314842224,
          -0.004109225235879421,
          1.0789194107055664,
          -11.020227432250977,
          0.10630416870117188,
          -0.050831522792577744,
          -0.18688200414180756,
          0.190693661570549,
          0.6718833446502686,
          0.08225585520267487,
          0.13139493763446808,
          0.00998898409307003,
          -0.4011611342430115,
          0.1299460530281067,
          -0.08263280242681503,
          0.12523353099822998,
          -0.11124870181083679,
          0.18152272701263428,
          0.08168165385723114,
          -1.3833861351013184,
          0.1372237205505371,
          -0.4506714642047882,
          0.14056596159934998,
          0.18105363845825195,
          -3.566868305206299,
          0.09156531095504761,
          4.795785903930664,
          0.16836488246917725,
          -3.218468427658081,
          -0.5355515480041504,
          0.15661360323429108,
          -0.03056207112967968,
          0.16257724165916443,
          -0.25188085436820984,
          -0.1268395632505417,
          -0.1588386595249176,
          -0.18738162517547607,
          -0.0543910413980484,
          -0.15354035794734955,
          0.3491796553134918,
          -0.18653368949890137,
          -0.030132174491882324,
          0.08826552331447601,
          5.354918479919434,
          4.117823600769043,
          0.17712432146072388,
          -0.06402593851089478,
          -0.680283784866333,
          0.18979105353355408,
          -0.03621120750904083,
          -0.18953746557235718
        ],
        [
          -0.02781619317829609,
          0.02737102471292019,
          0.011259262450039387,
          0.024421483278274536,
          -0.07164999097585678,
          0.0003654698666650802,
          0.14922860264778137,
          4.391317367553711,
          1.8535969257354736,
          6.229506015777588,
          -0.08174239844083786,
          0.06717629730701447,
          0.12340889126062393,
          0.7734752893447876,
          -0.016931770369410515,
          -0.24387265741825104,
          -11.73580265045166,
          -0.16413742303848267,
          0.13239958882331848,
          -0.11361172795295715,
          -0.058255381882190704,
          -2.7619993686676025,
          -0.03155893832445145,
          0.3507309556007385,
          -0.014694884419441223,
          -0.26840901374816895,
          -0.09888118505477905,
          -0.06600712984800339,
          -0.17853716015815735,
          -0.1463625133037567,
          -0.0694262906908989,
          -0.1742626577615738,
          -2.7601287364959717,
          0.05915776640176773,
          -0.40953975915908813,
          0.1074385941028595,
          0.06366553157567978,
          -3.6821579933166504,
          -0.1633203625679016,
          -1.7411173582077026,
          -0.03601052984595299,
          -2.9558939933776855,
          0.06086179241538048,
          -0.08948277682065964,
          -0.6285302042961121,
          0.19135889410972595,
          -0.22386403381824493,
          -0.0974065363407135,
          -0.2739187479019165,
          0.18646173179149628,
          0.07255913317203522,
          0.15407434105873108,
          0.9545679688453674,
          -0.16462203860282898,
          -0.18311849236488342,
          0.1862720251083374,
          1.5035024881362915,
          3.705883026123047,
          0.17377369105815887,
          -0.04979233071208,
          -0.8912831544876099,
          0.04950159415602684,
          0.056016482412815094,
          -0.10140610486268997
        ],
        [
          0.1753746122121811,
          -0.14160703122615814,
          0.020696943625807762,
          -0.1769777536392212,
          -0.2699313163757324,
          0.25800880789756775,
          -13.220083236694336,
          1.7820590734481812,
          1.7630579471588135,
          6.265922546386719,
          0.007065912242978811,
          0.400714248418808,
          -0.10125209391117096,
          0.17762228846549988,
          -0.00769557012245059,
          1.1400855779647827,
          -7.14365816116333,
          -0.04433774575591087,
          0.042065490037202835,
          -0.17067395150661469,
          0.07074924558401108,
          2.5555427074432373,
          0.022384852170944214,
          -0.3055470287799835,
          -0.1568337380886078,
          -0.0179255660623312,
          -0.22275467216968536,
          -0.11959724128246307,
          -0.14661253988742828,
          -0.13871024549007416,
          0.07106413692235947,
          -0.021548371762037277,
          -4.768940448760986,
          -0.04128246381878853,
          -1.3912461996078491,
          -0.13735361397266388,
          -0.14609409868717194,
          -2.533388376235962,
          -0.009467852301895618,
          1.0464444160461426,
          -0.2232857346534729,
          -4.383480072021484,
          3.191962242126465,
          -0.029072316363453865,
          -1.8240556716918945,
          0.03855254873633385,
          -0.7376284599304199,
          -0.1739194244146347,
          -0.6941692233085632,
          0.10549663007259369,
          0.10338230431079865,
          -0.004837929271161556,
          -2.3313241004943848,
          -0.05418628081679344,
          -0.026287006214261055,
          0.0391075573861599,
          -2.5397846698760986,
          -0.7897078990936279,
          -0.12463024258613586,
          0.004013384226709604,
          -0.3413316011428833,
          -0.20154708623886108,
          0.05190243944525719,
          0.05577944219112396
        ],
        [
          0.15766000747680664,
          -0.0371648371219635,
          -0.26524582505226135,
          0.020585456863045692,
          0.05893950164318085,
          0.028321092948317528,
          -1.2918100357055664,
          1.7539457082748413,
          2.341458320617676,
          -1.9720927476882935,
          -0.0991753414273262,
          0.12273464351892471,
          0.012825359590351582,
          0.3786897361278534,
          0.06566038727760315,
          -1.5387979745864868,
          -1.9020270109176636,
          -0.057761743664741516,
          -0.10432808846235275,
          0.14686143398284912,
          -0.1618516892194748,
          1.743687391281128,
          0.12001828849315643,
          0.17279349267482758,
          -0.12233445793390274,
          0.35438072681427,
          -0.28202715516090393,
          -0.15428684651851654,
          -0.2019525170326233,
          -0.2148849368095398,
          0.026937156915664673,
          -0.15389099717140198,
          0.9794038534164429,
          0.15403948724269867,
          -1.1446647644042969,
          0.13630490005016327,
          0.1005755364894867,
          -2.8179657459259033,
          -0.0392034649848938,
          -0.726516604423523,
          -0.19949638843536377,
          -1.6302213668823242,
          -2.523219585418701,
          0.05234329774975777,
          0.6593636870384216,
          0.041646216064691544,
          -2.3563921451568604,
          0.10057298094034195,
          -0.15166188776493073,
          0.1426125466823578,
          0.06768333166837692,
          -0.052025504410266876,
          2.506422281265259,
          -0.10843390226364136,
          0.03949926793575287,
          0.20293831825256348,
          -2.147083282470703,
          -0.48930269479751587,
          0.10866457223892212,
          -0.06906317174434662,
          -0.020463142544031143,
          0.06755256652832031,
          0.06264594942331314,
          0.13100893795490265
        ],
        [
          0.0887984111905098,
          0.17175529897212982,
          -0.13739727437496185,
          0.015168554149568081,
          0.08780111372470856,
          0.014588838443160057,
          -0.00987307634204626,
          -0.049896012991666794,
          0.1883014589548111,
          0.12664690613746643,
          0.0007921261130832136,
          -0.01595325581729412,
          -0.0007830514805391431,
          -0.16749903559684753,
          -0.03178290277719498,
          -0.13263781368732452,
          0.012678937055170536,
          -0.046012766659259796,
          0.051957868039608,
          0.12980128824710846,
          -0.18394650518894196,
          -0.061538320034742355,
          0.10628806799650192,
          -0.002370437141507864,
          -0.033221323043107986,
          -0.029166024178266525,
          -0.055513862520456314,
          -0.03482738137245178,
          -0.003767754416912794,
          0.05721002817153931,
          -0.062151309102773666,
          0.1460500806570053,
          -0.040588874369859695,
          -0.17651763558387756,
          0.09341828525066376,
          0.1726021021604538,
          0.13448520004749298,
          0.05102613568305969,
          0.1870100200176239,
          -0.10231835395097733,
          0.0736863911151886,
          0.09603311866521835,
          0.09404434263706207,
          -0.17390193045139313,
          0.14322414994239807,
          -0.008337902836501598,
          0.08673796057701111,
          -0.007425263524055481,
          -0.16148661077022552,
          -0.13652849197387695,
          -0.09628232568502426,
          0.11481138318777084,
          0.011002413928508759,
          -0.017482759431004524,
          -0.03605285659432411,
          -0.11356630176305771,
          -0.08551681041717529,
          -0.08274521678686142,
          0.1552162915468216,
          0.16803397238254547,
          -0.036313608288764954,
          -0.14941608905792236,
          0.1603522002696991,
          -0.09576259553432465
        ],
        [
          -0.14757423102855682,
          -0.12546291947364807,
          -0.16003012657165527,
          0.011600866913795471,
          0.18352654576301575,
          0.12545543909072876,
          -0.07345221191644669,
          -0.1121007427573204,
          -0.11511211842298508,
          0.08643650263547897,
          -0.14808860421180725,
          -0.18385539948940277,
          0.08781234174966812,
          -0.03773685544729233,
          0.08993300050497055,
          -0.1712723672389984,
          0.1702040284872055,
          -0.004869488067924976,
          -0.09530513733625412,
          0.16370175778865814,
          0.026488905772566795,
          0.09715691953897476,
          0.1574835479259491,
          -0.11704110354185104,
          -0.015187585726380348,
          0.11243072897195816,
          -0.02392660826444626,
          -0.053834911435842514,
          0.1725635826587677,
          0.11325137317180634,
          -0.13747823238372803,
          -0.11369535326957703,
          -0.15606632828712463,
          -0.1166820302605629,
          0.15363650023937225,
          0.006951791699975729,
          -0.1512731909751892,
          0.050099749118089676,
          0.1931184083223343,
          0.03485146164894104,
          -0.015053543262183666,
          -0.16140253841876984,
          0.0647207722067833,
          0.1441250592470169,
          0.0759262889623642,
          -0.19472292065620422,
          -0.10905052721500397,
          -0.07266596704721451,
          -0.1754303127527237,
          0.0504901148378849,
          -0.1922241598367691,
          0.02594483457505703,
          -0.012537119910120964,
          -0.07808646559715271,
          -0.12852910161018372,
          -0.19444766640663147,
          -0.12779337167739868,
          0.0314561203122139,
          -0.12383610755205154,
          -0.0522470697760582,
          0.04036723077297211,
          -0.057980727404356,
          -0.04744962975382805,
          0.16015735268592834
        ],
        [
          0.17235732078552246,
          -0.06004028394818306,
          0.0030385043937712908,
          0.13832427561283112,
          -0.7018791437149048,
          0.1085752621293068,
          0.05557342991232872,
          -0.8632479906082153,
          -1.0650594234466553,
          6.975062847137451,
          0.009776424616575241,
          -0.17296823859214783,
          -0.08752790838479996,
          -0.029829857870936394,
          0.1274815946817398,
          2.562819004058838,
          -7.456753730773926,
          -0.047998812049627304,
          -0.17876556515693665,
          -0.0463966503739357,
          -0.13511981070041656,
          1.6645067930221558,
          -0.0019370779627934098,
          -0.034434739500284195,
          -0.16136294603347778,
          -0.2564295828342438,
          0.15016010403633118,
          -0.11972381919622421,
          -0.11015231907367706,
          -0.13864092528820038,
          -0.048727311193943024,
          -0.1814303696155548,
          -6.31211519241333,
          0.11259562522172928,
          -0.5197281837463379,
          0.0775800570845604,
          -0.014684516936540604,
          1.2654407024383545,
          0.18852265179157257,
          3.738816022872925,
          -0.15054979920387268,
          -13.847099304199219,
          9.377269744873047,
          0.11086995899677277,
          0.011097093112766743,
          -0.025007139891386032,
          -3.1915571689605713,
          0.18408267199993134,
          -0.5948226451873779,
          -0.10565406084060669,
          -0.06080496311187744,
          0.07712884992361069,
          1.9791656732559204,
          0.04225762560963631,
          0.032653797417879105,
          -0.09098874777555466,
          -1.3443810939788818,
          0.18211804330348969,
          0.055162541568279266,
          0.06751401722431183,
          2.1251327991485596,
          0.15832482278347015,
          0.03844492882490158,
          -0.16051575541496277
        ],
        [
          0.0268859826028347,
          0.1366034597158432,
          -0.026967965066432953,
          0.14576978981494904,
          -1.14852774143219,
          -0.058872971683740616,
          0.07875014841556549,
          -0.6400846242904663,
          0.25331711769104004,
          3.860097885131836,
          -0.010841920040547848,
          -0.18087466061115265,
          0.11538872867822647,
          0.1560521125793457,
          0.18302081525325775,
          1.3201435804367065,
          -4.884775161743164,
