{
  "version": 1,
  "kind": "legal_action_mlp",
  "feature_schema_version": "goat_state_features_v1",
  "action_schema_version": "goat_action_features_v1",
  "input_size": 91,
  "seed": 606,
  "dataset_hash": "46b1ebc9",
  "training_config": {
    "algorithm": "ladder_supervised_policy_v1",
    "target_tier": "mid",
    "tiers": [
      "mid"
    ],
    "episodes": 2000,
    "iterations": 3,
    "epochs_per_iteration": 8,
    "batch_size": 64,
    "learning_rate": 0.01,
    "max_ticks": 900,
    "max_negatives_per_decision": 8,
    "dataset_sources": [
      {
        "path": "/home/runner/work/edge_royale/edge_royale/artifacts/training/runs/daily-25276131849/datasets/mid/shard-001.json",
        "dataset_hash": "b55541a2",
        "episode_count": 500,
        "sample_count": 6146,
        "row_summary": {
          "rows": 45904,
          "positives": 6146,
          "negatives": 39758
        }
      },
      {
        "path": "/home/runner/work/edge_royale/edge_royale/artifacts/training/runs/daily-25276131849/datasets/mid/shard-002.json",
        "dataset_hash": "a76f14ad",
        "episode_count": 500,
        "sample_count": 6176,
        "row_summary": {
          "rows": 45825,
          "positives": 6176,
          "negatives": 39649
        }
      },
      {
        "path": "/home/runner/work/edge_royale/edge_royale/artifacts/training/runs/daily-25276131849/datasets/mid/shard-003.json",
        "dataset_hash": "4c7c8946",
        "episode_count": 500,
        "sample_count": 6161,
        "row_summary": {
          "rows": 45901,
          "positives": 6161,
          "negatives": 39740
        }
      },
      {
        "path": "/home/runner/work/edge_royale/edge_royale/artifacts/training/runs/daily-25276131849/datasets/mid/shard-004.json",
        "dataset_hash": "d3b2c97a",
        "episode_count": 500,
        "sample_count": 6181,
        "row_summary": {
          "rows": 46030,
          "positives": 6181,
          "negatives": 39849
        }
      }
    ],
    "row_summary": {
      "rows": 183660,
      "positives": 24664,
      "negatives": 158996
    },
    "iteration_summaries": [
      {
        "iteration": 1,
        "loss": 0.15356746315956116,
        "accuracy": 0.8990471363067627,
        "evaluation": [
          {
            "tier": "noob",
            "rounds": 50,
            "wins": 0,
            "losses": 0,
            "draws": 50,
            "win_rate": 0
          },
          {
            "tier": "mid",
            "rounds": 50,
            "wins": 0,
            "losses": 0,
            "draws": 50,
            "win_rate": 0
          },
          {
            "tier": "top",
            "rounds": 50,
            "wins": 0,
            "losses": 0,
            "draws": 50,
            "win_rate": 0
          }
        ]
      },
      {
        "iteration": 2,
        "loss": 0.15025313198566437,
        "accuracy": 0.9002450108528137,
        "evaluation": [
          {
            "tier": "noob",
            "rounds": 50,
            "wins": 0,
            "losses": 0,
            "draws": 50,
            "win_rate": 0
          },
          {
            "tier": "mid",
            "rounds": 50,
            "wins": 0,
            "losses": 0,
            "draws": 50,
            "win_rate": 0
          },
          {
            "tier": "top",
            "rounds": 50,
            "wins": 0,
            "losses": 0,
            "draws": 50,
            "win_rate": 0
          }
        ]
      },
      {
        "iteration": 3,
        "loss": 0.1483665406703949,
        "accuracy": 0.9013122320175171,
        "evaluation": [
          {
            "tier": "noob",
            "rounds": 50,
            "wins": 0,
            "losses": 0,
            "draws": 50,
            "win_rate": 0
          },
          {
            "tier": "mid",
            "rounds": 50,
            "wins": 0,
            "losses": 0,
            "draws": 50,
            "win_rate": 0
          },
          {
            "tier": "top",
            "rounds": 50,
            "wins": 0,
            "losses": 0,
            "draws": 50,
            "win_rate": 0
          }
        ]
      }
    ]
  },
  "layers": [
    {
      "type": "dense",
      "activation": "relu",
      "weights": [
        [
          -0.11566225439310074,
          -0.22266630828380585,
          -0.021212631836533546,
          -0.10413804650306702,
          0.17513374984264374,
          -0.1252470761537552,
          -0.27081751823425293,
          -0.859427809715271,
          -1.5257512331008911,
          -0.43266502022743225,
          -0.11821011453866959,
          -0.08171290159225464,
          0.11728029698133469,
          -0.7191807627677917,
          0.1016940101981163,
          -0.24300327897071838,
          -0.45682552456855774,
          -1.2159117460250854,
          0.07410119473934174,
          -0.025032753124833107,
          -0.1015106588602066,
          -0.20330668985843658,
          -0.13318338990211487,
          -0.018199479207396507,
          -0.17978152632713318,
          -0.637690544128418,
          -0.2545574903488159,
          -0.010292147286236286,
          0.016139090061187744,
          -0.06971132010221481,
          -0.05382104590535164,
          -0.26742786169052124,
          0.009622734971344471,
          -0.013131772167980671,
          -0.5456546545028687,
          -0.24158506095409393,
          -0.19436998665332794,
          -0.028582420200109482,
          -0.13448339700698853,
          -1.0545880794525146,
          -1.2423169612884521,
          -0.2674882709980011,
          -0.16089336574077606,
          0.4560841917991638,
          -0.1534113585948944,
          -0.15996910631656647,
          -0.07697305083274841,
          -0.16663524508476257,
          0.05169256031513214,
          -0.1690569519996643,
          0.5045604705810547,
          0.039966192096471786,
          -1.0148218870162964,
          -0.2544028162956238,
          0.042516570538282394,
          -0.3787809908390045,
          0.048625826835632324,
          -0.26424217224121094,
          -0.1790945827960968,
          0.7598084211349487,
          -0.022133314982056618,
          0.04327856004238129,
          -0.15578854084014893,
          -1.2137411832809448
        ],
        [
          0.17636801302433014,
          0.006419470068067312,
          -0.1152692437171936,
          0.11726316064596176,
          -0.032443009316921234,
          0.13770434260368347,
          0.15145571529865265,
          0.023210810497403145,
          0.08234824985265732,
          0.02998274378478527,
          -0.04982486739754677,
          -0.0057345423847436905,
          0.1253572404384613,
          0.07009851187467575,
          -0.062361061573028564,
          -0.07769336551427841,
          0.03283758834004402,
          -0.15375572443008423,
          0.08213777840137482,
          0.133263498544693,
          0.027339603751897812,
          0.08948500454425812,
          -0.10188764333724976,
          -0.15378445386886597,
          -0.1402083784341812,
          -0.12051006406545639,
          0.16599419713020325,
          -0.19222374260425568,
          -0.17558683454990387,
          -0.03526689484715462,
          0.02319025620818138,
          0.02820894680917263,
          -0.16249439120292664,
          -0.15255746245384216,
          -0.14216047525405884,
          0.15544980764389038,
          -0.17686748504638672,
          0.02007206529378891,
          -0.05073421448469162,
          -0.11342033743858337,
          -0.09312358498573303,
          -0.18814226984977722,
          0.10388414561748505,
          0.13773606717586517,
          0.08512184768915176,
          -0.08779419213533401,
          -0.049860551953315735,
          0.05748128145933151,
          -0.024547100067138672,
          -0.19398510456085205,
          -0.10267806798219681,
          0.015595261007547379,
          0.17971397936344147,
          0.06395211815834045,
          0.05901288986206055,
          -0.046283330768346786,
          -0.11960145086050034,
          0.02558845467865467,
          0.13776618242263794,
          0.13090777397155762,
          0.12679198384284973,
          -0.03968026116490364,
          -0.07532025128602982,
          0.08832786232233047
        ],
        [
          0.07711431384086609,
          -0.15595483779907227,
          -0.06686918437480927,
          -0.08040423691272736,
          -0.1476021409034729,
          -0.18380291759967804,
          0.1896180957555771,
          -0.12274423986673355,
          0.07919494062662125,
          -0.1747768372297287,
          -0.10387066751718521,
          0.17584729194641113,
          -0.13755393028259277,
          -0.04894952103495598,
          0.15392598509788513,
          0.10839760303497314,
          0.044185467064380646,
          -0.01971501298248768,
          0.09022144228219986,
          0.15230442583560944,
          0.06654395163059235,
          0.08461154997348785,
          0.18014410138130188,
          -0.12267336249351501,
          -0.14083059132099152,
          0.0752866119146347,
          0.1920725256204605,
          0.051262058317661285,
          -0.15498977899551392,
          0.07657084614038467,
          0.10014691203832626,
          0.1819460690021515,
          -0.008706539869308472,
          0.15288127958774567,
          -0.1334390789270401,
          0.03285402059555054,
          -0.10746661573648453,
          -0.02939673140645027,
          -0.12547028064727783,
          0.18635499477386475,
          -0.13776908814907074,
          0.15992167592048645,
          0.16814695298671722,
          -0.13230732083320618,
          0.0970219150185585,
          -0.02403046004474163,
          -0.053198233246803284,
          0.14565737545490265,
          0.09900269657373428,
          -0.01957935094833374,
          -0.07356824725866318,
          0.11200354248285294,
          0.11008188128471375,
          0.1679152250289917,
          -0.11310810595750809,
          0.02790002152323723,
          0.07833592593669891,
          -0.024717755615711212,
          -0.18237708508968353,
          0.1314954161643982,
          -0.03269197419285774,
          0.11752644181251526,
          0.16255123913288116,
          -0.12960319221019745
        ],
        [
          -0.04821675270795822,
          -0.1996365338563919,
          -0.1775481104850769,
          -0.4438965320587158,
          5.486123085021973,
          0.014016970992088318,
          -0.28852829337120056,
          0.7441970705986023,
          -0.601322591304779,
          -0.0736026018857956,
          0.07935906201601028,
          -0.04538113251328468,
          -0.11014911532402039,
          0.5050634145736694,
          -3.9447221755981445,
          -0.08469060063362122,
          -11.713578224182129,
          1.6246819496154785,
          -0.09943687915802002,
          0.03890533745288849,
          -0.377921462059021,
          0.026753347367048264,
          -0.15342508256435394,
          -0.041662272065877914,
          -0.046977318823337555,
          -0.4368375539779663,
          -0.18224294483661652,
          0.08164152503013611,
          -0.22392910718917847,
          -0.774773359298706,
          -0.46792280673980713,
          -0.8049023747444153,
          -0.04618107154965401,
          -0.21673451364040375,
          -5.4413676261901855,
          -0.0921080932021141,
          -0.13185887038707733,
          -0.49069762229919434,
          -0.03523702919483185,
          0.3285273611545563,
          1.500962257385254,
          -6.106881618499756,
          0.0902039185166359,
          4.467128276824951,
          -0.13206274807453156,
          -0.18791066110134125,
          -0.1961953490972519,
          -1.190033197402954,
          2.9519760608673096,
          -0.14462441205978394,
          -1.3829714059829712,
          -5.755374908447266,
          0.5139384865760803,
          -0.03879144787788391,
          -0.01680230163037777,
          -0.0661078467965126,
          0.002116511343047023,
          -0.14276783168315887,
          0.12940479815006256,
          -0.7690591812133789,
          -0.0176107008010149,
          -0.17346590757369995,
          0.13249443471431732,
          -4.572861671447754
        ],
        [
          -0.18152351677417755,
          0.06995602697134018,
          -0.15922462940216064,
          0.004718835465610027,
          -0.4301813244819641,
          0.025425154715776443,
          0.06502977013587952,
          -0.7218214273452759,
          -1.2351124286651611,
          -0.37747639417648315,
          -0.07191850244998932,
          -0.07486090809106827,
          0.07197602838277817,
          -0.667182207107544,
          0.769809365272522,
          0.002632254036143422,
          0.9958263635635376,
          -1.8893868923187256,
          -0.15029583871364594,
          -0.14363935589790344,
          -0.09841805696487427,
          -0.0031440339516848326,
          -0.05893910303711891,
          -0.02450481429696083,
          0.11883395165205002,
          -0.6029008030891418,
          -0.16458936035633087,
          -0.2564183473587036,
          -0.2111549824476242,
          -0.2315961718559265,
          -0.24136334657669067,
          -0.19802716374397278,
          0.04215274378657341,
          0.08230666816234589,
          0.1549815535545349,
          -0.3916252851486206,
          -0.018749799579381943,
          0.033111218363046646,
          -0.11781851947307587,
          -1.1699961423873901,
          -1.485793113708496,
          0.015537281520664692,
          0.08663558959960938,
          -0.11321716755628586,
          0.12158660590648651,
          -0.24694523215293884,
          -0.25031518936157227,
          -0.42084741592407227,
          -0.3724496364593506,
          -0.19627384841442108,
          0.7445555925369263,
          0.7996731400489807,
          -1.4757598638534546,
          -0.0854262262582779,
          -0.0809984803199768,
          -0.17905819416046143,
          -0.07881330698728561,
          0.039314769208431244,
          -0.20192381739616394,
          1.2390592098236084,
          -0.10794207453727722,
          0.10696794092655182,
          0.06172630190849304,
          -0.6597474217414856
        ],
        [
          0.04334079101681709,
          0.08486437052488327,
          -0.16554486751556396,
          -0.019103311002254486,
          0.2624472975730896,
          -0.09541286528110504,
          -0.20585370063781738,
          -0.7398004531860352,
          -1.286584734916687,
          -0.2294086068868637,
          -0.001400474226102233,
          -0.1855633705854416,
          -0.2401847094297409,
          -0.7452828288078308,
          0.12415634095668793,
          0.12353821098804474,
          -0.4424680769443512,
          -1.4333902597427368,
          -0.16138653457164764,
          0.01776738278567791,
          -0.34303128719329834,
          -0.11905926465988159,
          0.11002050340175629,
          -0.19352243840694427,
          0.08549410849809647,
          -0.683509111404419,
          -0.19307371973991394,
          -0.12639692425727844,
          0.025440840050578117,
          -0.07743535935878754,
          -0.1933945119380951,
          -0.3373715579509735,
          -0.013746106997132301,
          -0.21185390651226044,
          -0.6084388494491577,
          -0.18083374202251434,
          0.03931153193116188,
          -0.13598215579986572,
          -0.022271238267421722,
          -1.0284442901611328,
          -1.3763773441314697,
          -0.343218594789505,
          -0.0861625149846077,
          0.3703170418739319,
          0.04156117886304855,
          0.1272677630186081,
          0.09978112578392029,
          -0.23362669348716736,
          0.26995229721069336,
          -0.17498299479484558,
          0.19095653295516968,
          0.02034040354192257,
          -1.0723274946212769,
          -0.05735332518815994,
          -0.04038272053003311,
          -0.20841197669506073,
          0.07599005103111267,
          0.11213383078575134,
          0.08676474541425705,
          0.9242995381355286,
          0.07758927345275879,
          0.08459360897541046,
          -0.1446610987186432,
          -1.1578680276870728
        ],
        [
          -0.0294007807970047,
          0.15309913456439972,
          0.19071845710277557,
          0.049491915851831436,
          -0.10438376665115356,
          -0.17322935163974762,
          -0.0007309771026484668,
          0.18393194675445557,
          0.14225736260414124,
          0.18331597745418549,
          -0.1423165500164032,
          -0.014683314599096775,
          0.1784256398677826,
          0.18107622861862183,
          0.13000689446926117,
          -0.13667869567871094,
          -0.007066776044666767,
          0.07875768840312958,
          -0.12326828390359879,
          0.12108164280653,
          0.08428540080785751,
          0.05968453362584114,
          -0.12146646529436111,
          -0.006452011410146952,
          0.07967940717935562,
          -0.07826977223157883,
          0.04278917610645294,
          -0.13725905120372772,
          0.1244441494345665,
          0.1379949003458023,
          -0.11454053968191147,
          0.07512446492910385,
          -0.11378250271081924,
          -0.08103089034557343,
          -0.11759770661592484,
          0.05414238199591637,
          -0.19399885833263397,
          0.11347588896751404,
          -0.11529426276683807,
          0.14507707953453064,
          0.010514842346310616,
          0.13621024787425995,
          0.09154294431209564,
          0.003259711666032672,
          0.12582187354564667,
          -0.11687126755714417,
          0.043489884585142136,
          -0.17618921399116516,
          -0.10909827798604965,
          -0.00449662609025836,
          0.04563374072313309,
          0.11835327744483948,
          0.011253301985561848,
          -0.10416150093078613,
          -0.02213953621685505,
          0.12434456497430801,
          -0.029642902314662933,
          -0.18671952188014984,
          -0.05330236628651619,
          0.050133924931287766,
          -0.03747548535466194,
          0.1624833196401596,
          -0.15267999470233917,
          -0.09621859341859818
        ],
        [
          -0.1055380329489708,
          0.02655269019305706,
          -0.16483290493488312,
          -0.0781824141740799,
          -0.2782544195652008,
          0.025697939097881317,
          0.07259388267993927,
          0.025093577802181244,
          0.7798440456390381,
          -0.39826303720474243,
          -0.18427525460720062,
          -0.1373995691537857,
          0.09411599487066269,
          1.1436220407485962,
          0.923470139503479,
          0.058244671672582626,
          3.683058500289917,
          -1.3894051313400269,
          0.027731619775295258,
          0.002157566137611866,
          -0.3157282769680023,
          -0.1060333177447319,
          -0.018167227506637573,
          -0.17779725790023804,
          -0.18210092186927795,
          -0.260537326335907,
          -0.0723092332482338,
          -0.10979155451059341,
          -0.18792326748371124,
          0.23889993131160736,
          0.06893807649612427,
          0.16193126142024994,
          -0.2835717797279358,
          -0.00990261323750019,
          3.3229598999023438,
          -0.28919291496276855,
          0.06821303069591522,
          0.14287851750850677,
          -0.16971555352210999,
          -0.610431969165802,
          -0.698928713798523,
          -1.6388869285583496,
          0.04946373775601387,
          0.774080216884613,
          -0.025818342342972755,
          -0.23413045704364777,
          0.03931459039449692,
          -0.03203080594539642,
          -3.73403000831604,
          -0.25179731845855713,
          -0.6679012179374695,
          -2.810352325439453,
          0.054276369512081146,
          -0.10974344611167908,
          -0.008550859056413174,
          -0.3461795449256897,
          -0.05883336812257767,
          -0.03365079686045647,
          0.13278445601463318,
          0.10774536430835724,
          0.04532400891184807,
          -0.10931937396526337,
          0.0022249745670706034,
          1.8772122859954834
        ],
        [
          0.09076476097106934,
          -0.2274928092956543,
          -0.07004442811012268,
          -0.1545727401971817,
          -1.24859619140625,
          -0.13943922519683838,
          -0.167810320854187,
          -1.1675517559051514,
          -1.005813479423523,
          -0.4323418438434601,
          -0.1289600431919098,
          0.0036703587975353003,
          0.15909096598625183,
          -0.352282851934433,
          -0.39882633090019226,
          0.04867741838097572,
          -0.19431084394454956,
          -0.2594170868396759,
          -0.07274547219276428,
          -0.2175743579864502,
          -0.25531095266342163,
          -0.1605222374200821,
          -0.07273493707180023,
          -0.14811763167381287,
          -0.029923323541879654,
          -0.5101584792137146,
          0.02040078490972519,
          -0.24226106703281403,
          0.13327208161354065,
          -0.19374984502792358,
          -0.23561033606529236,
          -0.2833191454410553,
          -0.07421744614839554,
          -0.1731977015733719,
          -1.1744638681411743,
          -0.29479989409446716,
          -0.20491722226142883,
          -0.0884552076458931,
          -0.057919275015592575,
          0.023800015449523926,
          -0.7848433256149292,
          0.2023303508758545,
          -0.061820559203624725,
          -0.7893795967102051,
          -0.09066347777843475,
          0.06735341250896454,
          -0.03882854804396629,
          -0.3232448101043701,
          0.6585021615028381,
          -0.09575623273849487,
          0.9259845614433289,
          -0.4836684465408325,
          -1.379058837890625,
          -0.03057003580033779,
          -0.26678818464279175,
          -0.4031071662902832,
          0.0012560284230858088,
          0.10766071826219559,
          0.057080309838056564,
          0.6813010573387146,
          -0.06502535194158554,
          -0.06924707442522049,
          -0.13122276961803436,
          1.3535563945770264
        ],
        [
          -0.06087129935622215,
          0.0699785128235817,
          -0.18961136043071747,
          0.03905000537633896,
          0.11554666608572006,
          -0.09045922011137009,
          -0.3152637779712677,
          -0.7615882158279419,
          0.38845667243003845,
          -0.11886660009622574,
          -0.1780562549829483,
          -0.15606097877025604,
          0.12287415564060211,
          -1.2134543657302856,
          -0.4721551537513733,
          -0.14839981496334076,
          0.59605473279953,
          -1.2397749423980713,
          0.07499124854803085,
          0.03024504892528057,
          -0.08493878692388535,
          -0.1920205056667328,
          -0.011903028003871441,
          -0.15391787886619568,
          0.0876542255282402,
          -0.27927330136299133,
          0.08213882893323898,
          -0.0657365471124649,
          -0.1920730173587799,
          0.06667788326740265,
          -0.04997510462999344,
          -0.6015064120292664,
          -0.11801676452159882,
          -0.13761496543884277,
          -1.9739294052124023,
          0.035911355167627335,
          -0.055369146168231964,
          -0.314054012298584,
          0.09261105954647064,
          -0.4983783960342407,
          0.12984663248062134,
          0.3745366632938385,
          -0.12058057636022568,
          1.5665042400360107,
          0.06992359459400177,
          0.008151953108608723,
          -0.138467937707901,
          -0.051938384771347046,
          -0.09196042269468307,
          0.07442312687635422,
          -0.08079705387353897,
          -0.3729909360408783,
          0.004809639882296324,
          -0.050331469625234604,
          0.06383991986513138,
          -0.526208758354187,
          -0.05385611951351166,
          -0.278548926115036,
          -0.12404964864253998,
          0.3820165991783142,
          -0.10469686985015869,
          -0.22242294251918793,
          -0.010849114507436752,
          -0.8527602553367615
        ],
        [
          0.04816759377717972,
          -0.11805636435747147,
          -0.121737539768219,
          -0.14218273758888245,
          1.7046914100646973,
          -0.11398985236883163,
          0.20070773363113403,
          2.4814023971557617,
          -0.36902955174446106,
          -0.14851468801498413,
          0.11054878681898117,
          -0.17712950706481934,
          0.013394579291343689,
          -0.4856308102607727,
          -0.6616237759590149,
          0.06653983891010284,
          0.6845390796661377,
          -2.498643398284912,
          0.1039634495973587,
          0.07412511110305786,
          -0.1012505292892456,
          -0.053823187947273254,
          -0.20707020163536072,
          -0.034743037074804306,
          -0.05817291513085365,
          -0.8064211010932922,
          0.09005305171012878,
          -0.11356749385595322,
          0.00974643137305975,
          -0.35244351625442505,
          0.021791571751236916,
          -0.40589845180511475,
          -0.06086472421884537,
          -0.09317295253276825,
          -1.6573184728622437,
          -0.29353293776512146,
          0.03128862753510475,
          0.061277177184820175,
          -0.0838724672794342,
          0.36755502223968506,
          2.7456274032592773,
          0.2855667769908905,
          0.12605229020118713,
          2.1353254318237305,
          0.10649218410253525,
          -0.22492749989032745,
          -0.06917759776115417,
          -0.06491748243570328,
          -3.685253143310547,
          0.12114432454109192,
          1.0267457962036133,
          0.6168336272239685,
          -1.989197850227356,
          -0.09637720882892609,
          0.02795419655740261,
          -0.6275457739830017,
          -0.13046514987945557,
          0.12140573561191559,
          -0.1125136986374855,
          0.34149086475372314,
          0.04830050840973854,
          0.0626387819647789,
          0.0469183586537838,
          -0.4747888445854187
        ],
        [
          -0.01646455191075802,
          -0.0054638502188026905,
          0.12353675812482834,
          -0.24741601943969727,
          -0.5226811170578003,
          -0.06699476391077042,
          -0.07220958918333054,
          -0.6666229367256165,
          0.025662949308753014,
          -0.3394235074520111,
          0.11314444243907928,
          0.041619475930929184,
          0.010869228281080723,
          -0.4448477327823639,
          0.3655795454978943,
          -0.07268635183572769,
          -0.25762939453125,
          -0.5162038207054138,
          0.03243517875671387,
          0.056445494294166565,
          -0.29076364636421204,
          0.028377028182148933,
          0.07401379942893982,
          -0.24282076954841614,
          -0.005276516545563936,
          -0.5063591599464417,
          0.08666279166936874,
          -0.23667946457862854,
          -0.018692247569561005,
          -0.3608739376068115,
          -0.011770674958825111,
          -0.2673718333244324,
          0.08716624975204468,
          -0.0419473797082901,
          -1.041618824005127,
          -0.38711485266685486,
          0.036560218781232834,
          -0.24614909291267395,
          -0.12728679180145264,
          -0.7860832214355469,
          -0.3592880070209503,
          0.08538606762886047,
          -0.21547281742095947,
          1.3313134908676147,
          -0.22233699262142181,
          0.10843074321746826,
          -0.08802051097154617,
          -0.6612954139709473,
          0.589145839214325,
          -0.1446468085050583,
          0.5509107112884521,
          0.7035722136497498,
          -1.170407772064209,
          -0.07589396089315414,
          -0.054154250770807266,
          -0.2787027060985565,
          -0.1398959457874298,
          -0.11383974552154541,
          -0.1296011060476303,
          0.38620179891586304,
          -0.22398221492767334,
          -0.25439339876174927,
          0.036625370383262634,
          -0.6963047385215759
        ],
        [
          0.005430416204035282,
          0.01361690554767847,
          0.06678596884012222,
          -0.3329949676990509,
          -0.32338330149650574,
          0.011331234127283096,
          -0.2791571617126465,
          -0.9394217729568481,
          0.19002224504947662,
          -0.15152445435523987,
          0.033279240131378174,
          -0.07049083709716797,
          -0.1845950037240982,
          0.020088177174329758,
          -0.44561272859573364,
          -0.12850213050842285,
          0.00902738980948925,
          -0.4926311671733856,
          -0.04990917816758156,
          0.060796428471803665,
          -0.017092730849981308,
          -0.050036266446113586,
          0.04071361571550369,
          -0.04689827933907509,
          -0.17514625191688538,
          1.0233290195465088,
          -0.09815393388271332,
          -0.037891581654548645,
          0.10676109790802002,
          -0.14400966465473175,
          -0.32987192273139954,
          -0.23869353532791138,
          -0.1921970099210739,
          -0.12183833122253418,
          -0.8631184697151184,
          -0.06475703418254852,
          -0.06589184701442719,
          -0.0665622428059578,
          -0.061332475394010544,
          5.364349365234375,
          -0.23994824290275574,
          0.1962154060602188,
          -0.07512791454792023,
          1.1807150840759277,
          -0.0011659878073260188,
          -0.08819521963596344,
          -0.19801615178585052,
          -0.21806639432907104,
          0.7297581434249878,
          -0.1775456666946411,
          0.7022262215614319,
          0.12160564959049225,
          -0.9231276512145996,
          -0.1448955237865448,
          -0.06739436835050583,
          -0.1001250371336937,
          0.016970481723546982,
          -0.06741689890623093,
          -0.11519908905029297,
          -0.3356965482234955,
          0.01430418435484171,
          -0.07265619188547134,
          -0.10754548758268356,
          -0.4596439599990845
        ],
        [
          -0.09766966849565506,
          0.09253189712762833,
          0.07445623725652695,
          -0.04014308378100395,
          -0.6734943985939026,
          -0.1272905021905899,
          -0.13426567614078522,
          -1.9299119710922241,
          1.0823719501495361,
          -0.09741978347301483,
          0.1197233721613884,
          -0.12915769219398499,
          -0.14901360869407654,
          -1.9049452543258667,
          1.389163851737976,
          -0.1339958906173706,
          0.8520152568817139,
          1.6029282808303833,
          -0.14033085107803345,
          -0.04176034778356552,
          -0.5524051785469055,
          -0.15818652510643005,
          0.03466525673866272,
          0.09944606572389603,
          -0.02565426006913185,
          -0.513703465461731,
          -0.082036092877388,
          -0.01823415793478489,
          -0.10099533945322037,
          -0.2838488221168518,
          -0.3779986500740051,
          -0.7024237513542175,
          -0.2280648946762085,
          0.1432936191558838,
          -1.0198322534561157,
          -0.45581188797950745,
          -0.09034094959497452,
          -0.2505701780319214,
          -0.1705743968486786,
          -0.2891114056110382,
          0.18993321061134338,
          0.5581846833229065,
          -0.11929675191640854,
          2.1616628170013428,
          -0.06552936881780624,
          0.06122257560491562,
          0.05531231313943863,
          -0.01960931345820427,
          0.39303386211395264,
          -0.15035638213157654,
          -0.533984363079071,
          -0.4821326434612274,
          0.33887138962745667,
          -0.016625285148620605,
          -0.04561738297343254,
          -0.5245629549026489,
          0.10582808405160904,
          -0.08480031788349152,
          0.040106117725372314,
          -1.1608740091323853,
          -0.27300572395324707,
          0.060340236872434616,
          0.07619243860244751,
          -0.6268032193183899
        ],
        [
          -0.12214015424251556,
          -0.18644346296787262,
          -0.22470612823963165,
          -0.3056522607803345,
          -0.17599622905254364,
          -0.12248978018760681,
          -0.4046348035335541,
          2.5813238620758057,
          -1.5178910493850708,
          -0.43075498938560486,
          -0.11668220162391663,
          0.036080554127693176,
          -0.18991824984550476,
          0.6422892212867737,
          -1.3326300382614136,
          -0.08105430006980896,
          0.5618560910224915,
          -0.9294282793998718,
          -0.18446356058120728,
          -0.17290468513965607,
          0.39098361134529114,
          -0.026743987575173378,
          -0.204256072640419,
          0.08329160511493683,
          0.17728836834430695,
          -0.18811661005020142,
          -0.1886298805475235,
          0.1260630488395691,
          -0.22454021871089935,
          -0.03170257806777954,
          0.033211737871170044,
          -0.11069460213184357,
          -0.1492912769317627,
          0.01938052661716938,
          2.8146402835845947,
          0.8367483019828796,
          -0.08691287040710449,
          0.12410019338130951,
          -0.10065838694572449,
          0.18789106607437134,
          -3.2798516750335693,
          0.41159510612487793,
          -0.023870818316936493,
          -2.4552505016326904,
          0.07022196799516678,
          -0.21355660259723663,
          -0.04332593083381653,
          -0.06898090988397598,
          -3.7950994968414307,
          -0.14009754359722137,
          0.7267371416091919,
          -0.1575188934803009,
          -0.2593786418437958,
          -0.06988626718521118,
          -0.1311662197113037,
          -0.18852666020393372,
          -0.08293204754590988,
          -0.25277748703956604,
          -0.0695028156042099,
          1.5757508277893066,
          0.08063814043998718,
          -0.1023271307349205,
          -0.23241816461086273,
          0.008787487633526325
        ],
        [
          -0.04791795089840889,
          0.05889659747481346,
          0.17842207849025726,
          0.08380255103111267,
          -0.060413070023059845,
          -0.2258782535791397,
          0.027744702994823456,
          -1.3222888708114624,
          -0.6104477047920227,
          -0.09065193682909012,
          -0.04313798248767853,
          -0.10070287436246872,
          -0.07242874801158905,
          0.837373673915863,
          2.9451818466186523,
          -0.2168474644422531,
          -0.4816628694534302,
          0.47870388627052307,
          -0.0778547003865242,
          0.09588928520679474,
          -0.2495294064283371,
          -0.010420114733278751,
          -0.09659653902053833,
          -0.21633142232894897,
          -0.18935994803905487,
          -0.6030778288841248,
          0.12675638496875763,
          -0.21301475167274475,
          -0.052751313894987106,
          -0.01241843681782484,
          -0.20406001806259155,
          0.23435185849666595,
          0.03296627476811409,
          -0.042369939386844635,
          1.9096688032150269,
          -0.046481482684612274,
          -0.14210951328277588,
          -0.0759727954864502,
          -0.17587675154209137,
          -1.04761803150177,
          -0.2749703824520111,
          -4.422398090362549,
          -0.12006688863039017,
          -4.017852306365967,
          0.04608514904975891,
          -0.0183942262083292,
          0.14725324511528015,
          0.1790148913860321,
          1.7141867876052856,
          -0.034852780401706696,
          -1.5346314907073975,
          -0.10621045529842377,
          1.3901978731155396,
          -0.1687237024307251,
          -0.23169508576393127,
          0.06346944719552994,
          -0.14084863662719727,
          -0.008593759499490261,
          -0.05111559107899666,
          -0.483792245388031,
          0.14052890241146088,
          -0.20674648880958557,
          0.025338295847177505,
          -1.0409313440322876
        ],
        [
          0.12364520877599716,
          0.13051524758338928,
          0.11831916123628616,
          0.13949494063854218,
          0.4483760893344879,
          -0.22709545493125916,
          -0.3453848361968994,
          1.593390703201294,
          -0.04209832102060318,
          -0.18787094950675964,
          0.11050708591938019,
          0.14745983481407166,
          0.11936325579881668,
          -3.4210400581359863,
          0.31466779112815857,
          -0.24870195984840393,
          0.9267352223396301,
          -2.115406036376953,
          0.06975683569908142,
          -0.05248658359050751,
          -0.08292991667985916,
          -0.11780556291341782,
          -0.13676443696022034,
          -0.011423029005527496,
          0.12459827214479446,
          -0.028862062841653824,
          -0.1547987014055252,
          0.09645899385213852,
          0.07086947560310364,
          -0.2636568248271942,
          -0.18495741486549377,
          -0.3099159598350525,
          -0.04291040450334549,
          0.09436032921075821,
          -1.662470817565918,
          0.23951956629753113,
          -0.0638083666563034,
          0.1832408308982849,
          -0.027422133833169937,
          1.653457522392273,
          0.5930966734886169,
          -0.09701191633939743,
          -0.2009359896183014,
          -1.0992685556411743,
          0.018896931782364845,
          -0.035919420421123505,
          -0.23423030972480774,
          -0.1000804454088211,
          -0.8331266045570374,
          -0.1583985835313797,
          0.4691588878631592,
          0.19726967811584473,
          0.335391640663147,
          0.04871223121881485,
          0.06903636455535889,
          -0.4385360777378082,
          -0.1280018538236618,
          0.020341254770755768,
          -0.10870124399662018,
          2.82554030418396,
          0.04765835404396057,
          0.13091027736663818,
          -0.14813831448554993,
          -2.8009893894195557
        ],
        [
          0.10966219753026962,
          0.13373561203479767,
          0.036179009824991226,
          -0.04794923961162567,
          -1.5942991971969604,
          -0.22971178591251373,
          -0.040213704109191895,
          1.2048075199127197,
          -0.9044771194458008,
          -0.11633674055337906,
          -0.1806434839963913,
          -0.19382967054843903,
          0.055101726204156876,
          -1.2989380359649658,
          0.7203236222267151,
          -0.042735062539577484,
          -0.12571090459823608,
          -0.7181612253189087,
          -0.21398895978927612,
          0.10453806817531586,
          -0.05337400734424591,
          -0.15851469337940216,
          -0.2023768573999405,
          -0.09554553031921387,
          -0.1417960226535797,
          -0.453660786151886,
          -0.048601943999528885,
          0.13531476259231567,
          -0.11750749498605728,
          0.12776519358158112,
          0.1451909840106964,
          -0.04141640290617943,
          -0.27799421548843384,
          -0.09717122465372086,
          0.24870924651622772,
          -0.27614569664001465,
          0.14537018537521362,
          -0.12265635281801224,
          0.02584952302277088,
          1.1740227937698364,
          0.24099503457546234,
          -1.15117347240448,
          -0.11993902176618576,
          -1.144497036933899,
          -0.19699788093566895,
          -0.22482334077358246,
          -0.10220485180616379,
          -0.31401851773262024,
          -0.8965938687324524,
          0.037994980812072754,
          -0.28958120942115784,
          0.5501505136489868,
          -1.2273820638656616,
          -0.12915898859500885,
          -0.15786050260066986,
          -0.15365810692310333,
          0.12104139477014542,
          0.1150524765253067,
          -0.0062611522153019905,
          0.22073614597320557,
          -0.09140285104513168,
          0.048774562776088715,
          0.06951501965522766,
          -0.6355348825454712
        ],
        [
          -0.000625666172709316,
          -0.016696203500032425,
          -0.06903091818094254,
          -0.17547348141670227,
          -0.6824094653129578,
          -0.2461513876914978,
          -0.1707203984260559,
          -0.07553162425756454,
          1.0849319696426392,
          -0.35853928327560425,
          -0.06995122134685516,
          -0.1053517758846283,
          0.12031883746385574,
          2.0018463134765625,
          0.5933530926704407,
          -0.034951962530612946,
          -1.2833549976348877,
          -0.15224948525428772,
          -0.07998038828372955,
          -0.029428821057081223,
          0.014138254337012768,
          -0.218027263879776,
          0.03372364491224289,
          0.10785940289497375,
          0.15928107500076294,
          -0.028336746618151665,
          -0.016838988289237022,
          -0.022634660825133324,
          -0.07241635024547577,
          -0.2547958195209503,
          -0.23737962543964386,
          0.12076475471258163,
          -0.22475264966487885,
          0.07110350579023361,
          -0.29757747054100037,
          0.0644654706120491,
          0.09157406538724899,
          -0.2595266103744507,
          -0.13068345189094543,
          0.7783492803573608,
          -1.1087929010391235,
          -2.6555235385894775,
          -0.0936165526509285,
          -1.0838768482208252,
          -0.0401093028485775,
          0.04830057919025421,
          -0.17231576144695282,
          -0.23249730467796326,
          -0.4698328375816345,
          0.04648933187127113,
          0.728230357170105,
          1.9206383228302002,
          -0.398513525724411,
          0.014266668818891048,
          -0.22618545591831207,
          -0.1625826060771942,
          0.1773541122674942,
          -0.22668112814426422,
          -0.04533429816365242,
          0.5418025851249695,
          -0.1813838928937912,
          0.03281738981604576,
          -0.0320366770029068,
          1.0258222818374634
        ],
        [
          -0.011918827891349792,
          -0.06681234389543533,
          0.22174468636512756,
          0.14611107110977173,
          -0.9038283824920654,
          -0.13227586448192596,
          -0.32825618982315063,
          0.5243030190467834,
          -0.5052205324172974,
          -0.04015049710869789,
          0.12786205112934113,
          -0.04475546255707741,
          -0.14290118217468262,
          -0.1127963736653328,
          2.2625725269317627,
          -0.035589735954999924,
          1.4037864208221436,
          0.7174081206321716,
          -0.035297099500894547,
          0.07848717272281647,
          -0.24209174513816833,
          -0.001723310211673379,
          0.10636250674724579,
          0.12439828366041183,
          -0.1239631250500679,
          0.26564401388168335,
          0.08361328393220901,
          -0.18260851502418518,
          -0.003046498168259859,
          0.13020050525665283,
          -0.03247904032468796,
          -0.4440975487232208,
          0.004873466212302446,
          -0.06435955315828323,
          1.702678918838501,
          0.02981339767575264,
          -0.1760236769914627,
          -0.07200516015291214,
          0.17370323836803436,
          0.1583903282880783,
          1.1742466688156128,
          -0.9745445847511292,
          -0.25264236330986023,
          -1.4525593519210815,
          -0.06344147771596909,
          0.11091430485248566,
          -0.04450375586748123,
          0.6358818411827087,
          0.41276195645332336,
          -0.10691682249307632,
          0.48353907465934753,
          -0.9975532293319702,
          0.5406399965286255,
          0.11707886308431625,
          -0.050418704748153687,
          -0.5777000188827515,
          0.062131986021995544,
          0.21892043948173523,
          0.10305942595005035,
          1.43095064163208,
          -0.06763856112957001,
          0.02037358470261097,
          0.021411029621958733,
          0.9758824706077576
        ],
        [
          -0.014040457084774971,
          0.044889722019433975,
          0.13079360127449036,
          -0.24894097447395325,
          -0.5633911490440369,
          0.027052082121372223,
          0.06651365756988525,
          0.7309399247169495,
          0.5758357644081116,
          -0.06100161746144295,
          0.03117351233959198,
          0.0178856048732996,
          -0.025478608906269073,
          -1.7311136722564697,
          -2.5056674480438232,
          -0.028522221371531487,
          0.5376067161560059,
          0.5528817772865295,
          -0.0650218054652214,
          0.01779543049633503,
          -0.4616329073905945,
          0.08628074824810028,
          -0.15524683892726898,
          0.13102877140045166,
          0.0740865170955658,
          -2.251103401184082,
          -0.015341863967478275,
          -0.04084591940045357,
          0.010461281053721905,
          -1.218809723854065,
          0.015078064054250717,
          -0.21083764731884003,
          -0.2755276560783386,
          -0.011850036680698395,
          -0.18855313956737518,
          -0.5674160718917847,
          -0.11089163273572922,
          -0.524681568145752,
          0.025191502645611763,
          -4.244460105895996,
          -0.02057071030139923,
          -1.0004373788833618,
          -0.02034931629896164,
          -0.07322248816490173,
          -0.06629396975040436,
          -0.24827398359775543,
          0.13407962024211884,
          -0.07311535626649857,
          0.2191794365644455,
          0.16080810129642487,
          2.198169469833374,
          -1.1796427965164185,
          0.9131588339805603,
          -0.29952433705329895,
          0.06049048528075218,
          -0.18212002515792847,
          -0.026912951841950417,
          0.0324469618499279,
          -0.13158409297466278,
          -0.9796407222747803,
          0.03626486659049988,
          -0.12766730785369873,
          -0.01726488210260868,
          0.37472179532051086
        ],
        [
          -0.15885238349437714,
          0.026013199239969254,
          -0.25606870651245117,
          -0.27221596240997314,
          -0.360516220331192,
          -0.1382470726966858,
          -0.17069828510284424,
          -1.2750767469406128,
          -0.3602837026119232,
          -0.1725718379020691,
          -0.16322444379329681,
          -0.19883432984352112,
          0.00008651838288642466,
          -0.41836920380592346,
          -0.33411699533462524,
          -0.1249612346291542,
          1.2986186742782593,
          -1.2946759462356567,
          -0.2563287317752838,
          -0.11128798127174377,
          -0.16180764138698578,
          -0.0174787025898695,
          -0.09029272943735123,
          -0.15761040151119232,
          -0.04946294054389,
          -0.06541214138269424,
          -0.14698661863803864,
          -0.054923273622989655,
          -0.0067960964515805244,
          -0.17623461782932281,
          -0.39672309160232544,
          -0.42555829882621765,
          -0.06771352887153625,
          -0.014664969407022,
          -0.4181532561779022,
          0.14639438688755035,
          0.061942990869283676,
          -0.01118434127420187,
          -0.1367066353559494,
          0.7068341374397278,
          -0.5007448792457581,
          0.8523386716842651,
          0.09173749387264252,
          0.553474485874176,
          -0.2580737769603729,
          -0.09535325318574905,
          -0.07466663420200348,
          -0.10130420327186584,
          -0.8281853795051575,
          -0.13979379832744598,
          -0.9240781664848328,
          -0.5492568612098694,
          0.6799546480178833,
          -0.17594894766807556,
          -0.07948048412799835,
          -0.13299909234046936,
          -0.04100797325372696,
          -0.18048027157783508,
          0.02420615404844284,
          -0.3822794258594513,
          0.05718337744474411,
          -0.19691377878189087,
          -0.02919156476855278,
          -0.4427427053451538
        ],
        [
          0.15367968380451202,
          -0.2869569957256317,
          -0.2282242774963379,
          -0.3254258930683136,
          2.098789930343628,
          0.13007035851478577,
          -0.06241081655025482,
          -1.6412235498428345,
          1.1943330764770508,
          -0.16210098564624786,
          -0.06855104863643646,
          -0.14731073379516602,
          -0.20481763780117035,
          1.436998724937439,
          1.5452653169631958,
          0.01545983087271452,
          1.0459048748016357,
          0.041650041937828064,
          -0.23137344419956207,
          0.021174702793359756,
          -0.6900620460510254,
          -0.01626601070165634,
          0.03203820809721947,
          -0.04406686872243881,
          0.1297660768032074,
          -0.13664957880973816,
          0.09567607939243317,
          0.05110948160290718,
          -0.24821849167346954,
          -0.3397845923900604,
          -0.07300645858049393,
          -0.10746133327484131,
          -0.24847297370433807,
          -0.07007107138633728,
          -0.3341293931007385,
          -0.8585556745529175,
          -0.08478621393442154,
          -0.18893177807331085,
          -0.16657699644565582,
          -0.30080878734588623,
          1.9382158517837524,
          0.45269885659217834,
          0.010714691132307053,
          1.9143576622009277,
          0.10765858739614487,
          -0.11828242987394333,
          0.09541673213243484,
          -0.42426687479019165,
          0.8553510308265686,
          0.0060691130347549915,
          0.961164653301239,
          -1.3135792016983032,
          1.0706336498260498,
          -0.19162242114543915,
          0.05353779345750809,
          -0.33097997307777405,
          0.02005324512720108,
          -0.030422918498516083,
          -0.2062852680683136,
          -1.253163456916809,
          0.07797735184431076,
          0.1270570158958435,
          0.039435140788555145,
          1.6485135555267334
        ],
        [
          0.019561827182769775,
          -0.22361905872821808,
          -0.11200815439224243,
          -0.2824896275997162,
          0.6090773344039917,
          -0.06641777604818344,
          0.14631856977939606,
          0.9378200173377991,
          0.08539969474077225,
          -0.05603248253464699,
          -0.18308521807193756,
          -0.0900803804397583,
          0.1532793492078781,
          0.8897638916969299,
          0.3166457712650299,
          -0.19331422448158264,
          0.7405426502227783,
          1.0418988466262817,
          -0.04100461304187775,
          -0.08555737137794495,
          0.4347831606864929,
          -0.11825248599052429,
          -0.12846295535564423,
          -0.07845358550548553,
          -0.20806755125522614,
          -0.25449198484420776,
          -0.24846318364143372,
          -0.09702619165182114,
          -0.009905983693897724,
          0.1616094559431076,
          0.16840587556362152,
          -0.6378152966499329,
          -0.23736555874347687,
          0.12012246251106262,
          0.13552908599376678,
          0.2659342586994171,
          0.0500454381108284,
          0.002491358434781432,
          0.07564781606197357,
          1.927919864654541,
          -1.4420503377914429,
          1.693347692489624,
          -0.06586913764476776,
          0.6269251108169556,
          -0.2286747843027115,
          -0.02260303497314453,
          -0.15380048751831055,
          -0.18803749978542328,
          -0.8845853209495544,
          0.06450953334569931,
          0.11994088441133499,
          -0.029572080820798874,
          -1.0548089742660522,
          -0.19227063655853271,
          0.03787306323647499,
          -0.569593071937561,
          -0.13345128297805786,
          0.018080372363328934,
          0.040642544627189636,
          -1.3344051837921143,
          -0.09367401152849197,
          0.08232133835554123,
          -0.17611975967884064,
          -0.4845353662967682
        ],
        [
          -0.05605354160070419,
          0.05431941896677017,
          -0.2469261884689331,
          -0.021888552233576775,
          -0.43664172291755676,
          0.07935274392366409,
          0.07200494408607483,
          -0.09425134211778641,
          0.46753400564193726,
          -0.4266761243343353,
          0.07829423248767853,
          0.05145584046840668,
          -0.05060982331633568,
          -0.27493709325790405,
          -1.3526822328567505,
          0.004117607604712248,
          -0.09024235606193542,
          -1.5822585821151733,
          -0.041580792516469955,
          0.10904403030872345,
          -0.3033013641834259,
          -0.01232002954930067,
          -0.18275897204875946,
          0.12695683538913727,
          -0.06666284054517746,
          -0.21596045792102814,
          0.10502031445503235,
          0.11743135005235672,
          -0.17902232706546783,
          0.17275378108024597,
          -0.03323305770754814,
          -0.5067475438117981,
          0.04109581187367439,
          -0.02691148966550827,
          -0.9463279247283936,
          -0.286228209733963,
          -0.08306438475847244,
          -0.26073482632637024,
          -0.23883424699306488,
          -1.0304555892944336,
          0.6517276167869568,
          -0.104622483253479,
          -0.2053469717502594,
          -0.16504399478435516,
          0.05141422525048256,
          -0.1721232831478119,
          0.11148367822170258,
          -0.3745485544204712,
          -1.118557333946228,
          -0.023650124669075012,
          0.5024600028991699,
          0.7999322414398193,
          -4.270602226257324,
          0.04864025115966797,
          -0.025407496839761734,
          -0.36028528213500977,
          -0.25725021958351135,
          -0.26004043221473694,
          -0.20536045730113983,
          0.41118812561035156,
          -0.20597442984580994,
          -0.21638712286949158,
          -0.127362921833992,
          -0.27989962697029114
        ],
        [
          0.05170737951993942,
          -0.2846652567386627,
          0.05694514140486717,
          -0.06628240644931793,
          -0.4082801043987274,
          -0.007672424428164959,
          0.004316877573728561,
          -0.29551514983177185,
          0.12302378565073013,
          -0.26026999950408936,
          -0.20804019272327423,
          -0.1318277269601822,
          -0.19853605329990387,
          0.12724046409130096,
          -0.09244459122419357,
          0.09097790718078613,
          -0.42031118273735046,
          -0.5329748392105103,
          -0.0769091546535492,
          -0.2658655345439911,
          -0.2385774850845337,
          -0.05864330381155014,
          0.12123945355415344,
          -0.21254292130470276,
          -0.21796034276485443,
          -0.29070112109184265,
          0.06760115921497345,
          0.06249295175075531,
          -0.19103683531284332,
          -0.16481362283229828,
          -0.2085515260696411,
          -0.5573412179946899,
          0.018325265496969223,
          -0.25180622935295105,
          0.5847598910331726,
          -0.2612362205982208,
          0.00952125247567892,
          0.038321562111377716,
          -0.17835518717765808,
          -0.9676616787910461,
          0.48225337266921997,
          0.07032150775194168,
          0.033497154712677,
          -0.4699472486972809,
          -0.1950041651725769,
          0.09822790324687958,
          -0.021823210641741753,
          -0.4671747088432312,
          -0.44579628109931946,
          -0.024807211011648178,
          -0.04253437742590904,
          -0.09102604538202286,
          -2.383462429046631,
          -0.03430971875786781,
          -0.25322797894477844,
          -0.42258384823799133,
          -0.06398484110832214,
          -0.0032682104501873255,
          0.1260416954755783,
          -0.04891183227300644,
          -0.09064918756484985,
          -0.20893220603466034,
          -0.09529091417789459,
          -0.5375951528549194
        ],
        [
          -0.05071467161178589,
          -0.15614143013954163,
          0.0511409156024456,
          -0.0579630509018898,
          -0.5183440446853638,
          -0.23824642598628998,
          -0.09426883608102798,
          -0.2611382007598877,
          0.0327046662569046,
          -0.12844900786876678,
          -0.14756399393081665,
          -0.21672742068767548,
          -0.21845011413097382,
          0.257302850484848,
          -0.11179326474666595,
          0.10410153865814209,
          -0.37347719073295593,
          -0.41690725088119507,
          -0.002496073255315423,
          -0.22794823348522186,
          -0.020449912175536156,
          0.08059176802635193,
          -0.17175230383872986,
          -0.12009253352880478,
          0.08154026418924332,
          -0.35154756903648376,
          -0.02425127848982811,
          -0.02971614897251129,
          0.03573901578783989,
          -0.047104611992836,
          -0.04667430743575096,
          -0.5905694961547852,
          0.04421457648277283,
          -0.06277183443307877,
          0.3453948497772217,
          -0.4878261089324951,
          0.0009970273822546005,
          -0.04833312705159187,
          0.07417657971382141,
          -0.8875089287757874,
          0.4513242244720459,
          -0.14191702008247375,
          0.08741693943738937,
          -0.32085609436035156,
          -0.02383233979344368,
          -0.19910286366939545,
          -0.20476844906806946,
          -0.09821423143148422,
          -0.25168147683143616,
          -0.07214030623435974,
          -0.18031823635101318,
          -0.16761310398578644,
          -2.3829870223999023,
          -0.20729181170463562,
          0.06542126089334488,
          -0.28949397802352905,
          0.10698302090167999,
          0.11800084263086319,
          0.024428894743323326,
          -0.11515415459871292,
          0.08247135579586029,
          -0.06293380260467529,
          0.11420800536870956,
          -0.5519393682479858
        ],
        [
          -0.18186073005199432,
          -0.18015922605991364,
          -0.11623188853263855,
          -0.021045761182904243,
          0.1619509756565094,
          0.1396179497241974,
          -0.18803837895393372,
          0.0010709423804655671,
          0.01513329241424799,
          0.18858495354652405,
          -0.14500248432159424,
          -0.17951016128063202,
          -0.04231972619891167,
          0.11418991535902023,
          -0.18745683133602142,
          0.009252078831195831,
          0.182418555021286,
          -0.1192932054400444,
          -0.09957124292850494,
          0.06766713410615921,
          -0.0666080117225647,
          -0.15420836210250854,
          0.007333884481340647,
          -0.07415660470724106,
          0.043491341173648834,
          -0.18985237181186676,
          -0.004447698127478361,
          -0.10837526619434357,
          0.057139623910188675,
          0.04140078276395798,
          -0.1879495531320572,
          -0.13207782804965973,
          0.1169980987906456,
          -0.14763112366199493,
          -0.12150326371192932,
          0.17535407841205597,
          -0.1396479457616806,
          0.07206065952777863,
          -0.12239518016576767,
          0.18043303489685059,
          -0.022658370435237885,
          0.06695906817913055,
          0.01572331227362156,
          -0.14008599519729614,
          0.1054854691028595,
          -0.07236820459365845,
          0.002999634714797139,
          -0.12966135144233704,
          0.11073394119739532,
          -0.13269777595996857,
          -0.1597449779510498,
          0.043420180678367615,
          0.15415824949741364,
          0.021139930933713913,
          0.18436403572559357,
          -0.17920400202274323,
          0.016280844807624817,
          0.1607092320919037,
          -0.04232964664697647,
          0.15397946536540985,
          -0.19290636479854584,
          0.1175156682729721,
          0.07322443276643753,
          -0.18859340250492096
        ],
        [
          -0.14819513261318207,
          -0.001626124489121139,
          0.07568918913602829,
          -0.1321043223142624,
          0.10966227948665619,
          -0.18475432693958282,
          -0.05198225751519203,
          -0.13846027851104736,
          -0.0215581264346838,
          -0.19472019374370575,
          -0.14906160533428192,
          0.010690861381590366,
          0.00818715151399374,
          -0.06041942536830902,
          -0.13878822326660156,
          0.03465970605611801,
          0.1740673929452896,
          0.14529463648796082,
          -0.05376541242003441,
          0.10671455413103104,
          -0.13127197325229645,
          0.035483602434396744,
          -0.03878578171133995,
          0.09277962893247604,
          0.12546125054359436,
          -0.06998645514249802,
          0.140036940574646,
          -0.13764183223247528,
          -0.17206895351409912,
          0.08529159426689148,
          0.02173524536192417,
          -0.1912231594324112,
          0.16752280294895172,
          0.1789027899503708,
          -0.14893658459186554,
          0.1008371040225029,
          -0.008632977493107319,
          0.1535736620426178,
          0.056728485971689224,
          0.041895948350429535,
          0.06086936965584755,
          0.08957231044769287,
          0.1479499191045761,
          0.10007257014513016,
          -0.11483200639486313,
          -0.03896206617355347,
          0.09297408908605576,
          0.18893395364284515,
          -0.08770764619112015,
          -0.0035928981378674507,
          -0.004961908794939518,
          -0.016269898042082787,
          -0.06862597167491913,
          -0.07757341861724854,
          -0.08279814571142197,
          0.11036726832389832,
          -0.08533400297164917,
          -0.15956087410449982,
          0.02325686439871788,
          0.05204585939645767,
          -0.15736496448516846,
          -0.13113316893577576,
          -0.16905853152275085,
          0.026627013459801674
        ],
        [
          0.03330111503601074,
          -0.2895214259624481,
          -0.13778898119926453,
          0.05797842890024185,
          0.32124799489974976,
          -0.03769807517528534,
          -0.09160657972097397,
          4.136814117431641,
          2.7825028896331787,
          -0.1938699334859848,
          -0.23849719762802124,
          -0.19791115820407867,
          -0.2069728672504425,
          3.0533406734466553,
          -0.31403958797454834,
          -0.22659772634506226,
          -0.5064173340797424,
          -1.5071024894714355,
          -0.09849607944488525,
          0.044804658740758896,
          -0.2887311577796936,
          -0.01816784031689167,
          -0.05674432963132858,
          0.03719848021864891,
          -0.1427774727344513,
          0.34324273467063904,
          0.03994472697377205,
          -0.006896807812154293,
          -0.19909702241420746,
          0.09205476194620132,
          -0.07334568351507187,
          -0.18412628769874573,
          -0.12299712002277374,
          0.12582921981811523,
          0.617134153842926,
          -0.0663142204284668,
          -0.17926429212093353,
          -0.16602858901023865,
          -0.03448218107223511,
          0.15601718425750732,
          -0.0422695055603981,
          -0.4283636510372162,
          -0.10974236577749252,
          0.9396100640296936,
          -0.20321962237358093,
          -0.23826196789741516,
          -0.1893569976091385,
          -0.2684309184551239,
          0.029993411153554916,
          -0.16602206230163574,
          1.3686128854751587,
          1.1496529579162598,
          -1.0081018209457397,
          -0.07762445509433746,
          -0.14398637413978577,
          -0.46937018632888794,
          -0.21277444064617157,
          -0.07000914961099625,
          -0.1842922568321228,
          -0.28751954436302185,
          0.0902128592133522,
          0.07557827979326248,
          -0.09042342007160187,
          5.74247407913208
        ],
        [
          -0.1587880253791809,
          -0.16301535069942474,
          -0.2036965787410736,
          -0.12223725765943527,
          0.7876694202423096,
          0.09177868068218231,
          -0.20093494653701782,
          0.4770122170448303,
          0.33438214659690857,
          -0.16739031672477722,
          -0.16045990586280823,
          -0.1910569816827774,
          -0.07906845211982727,
          0.1882115751504898,
          0.7981696724891663,
          -0.05819958075881004,
          0.7337918281555176,
          -0.3041212558746338,
          0.022073477506637573,
          -0.011655531823635101,
          -0.13106508553028107,
          -0.24224001169204712,
          -0.04388394206762314,
          -0.07442790269851685,
          -0.1661662608385086,
          -0.1293046623468399,
          0.13426077365875244,
          -0.24295194447040558,
          -0.04085704684257507,
          0.13745516538619995,
          -0.0968414768576622,
          -0.22865727543830872,
          -0.10982246696949005,
          -0.09626290202140808,
          -0.04752790182828903,
          -0.3180750906467438,
          -0.014318767003715038,
          0.1576184332370758,
          0.1266242414712906,
          -0.07650533318519592,
          2.1502983570098877,
          2.5749990940093994,
          -0.17087973654270172,
          -1.2638999223709106,
          0.06415954977273941,
          -0.02300264686346054,
          -0.0395166240632534,
          -0.2961578965187073,
          0.9519574046134949,
          -0.18507060408592224,
          0.018883027136325836,
          0.18365366756916046,
          0.518777072429657,
          -0.2586594820022583,
          0.07047305256128311,
          -0.3339252769947052,
          -0.23042720556259155,
          -0.06539084017276764,
          0.15104170143604279,
          -0.20636191964149475,
          -0.14226371049880981,
          0.01895745098590851,
          -0.13759469985961914,
          0.9775607585906982
        ],
        [
          0.012726480141282082,
          -0.19183753430843353,
          0.11485525965690613,
          0.0077449483796954155,
          0.6377837657928467,
          -0.13531486690044403,
          -0.21516053378582,
          0.296040415763855,
          0.4202304780483246,
          0.00956644956022501,
          -0.14607428014278412,
          0.1307329684495926,
          -0.13043701648712158,
          -0.10176994651556015,
          1.0571492910385132,
          -0.012618456035852432,
          0.8056389093399048,
          -0.2067352831363678,
          0.0328148789703846,
          -0.016248973086476326,
          -0.05594761297106743,
          -0.12760192155838013,
          0.10625692456960678,
          -0.018310872837901115,
          -0.19963698089122772,
          0.14104746282100677,
          -0.24747931957244873,
          -0.14989042282104492,
          0.12505336105823517,
          0.21593892574310303,
          0.1477217674255371,
          -0.3254126310348511,
          0.07997351884841919,
          -0.15181785821914673,
          -0.15657293796539307,
          -0.2482091188430786,
          -0.11868925392627716,
          -0.051523394882678986,
          -0.06719891726970673,
          0.3076108992099762,
          2.0820159912109375,
          2.3769915103912354,
          0.02065346948802471,
          -0.9171922206878662,
          -0.08793597668409348,
          -0.0804944634437561,
          -0.24121886491775513,
          -0.33164843916893005,
          0.7658215761184692,
          0.11574000120162964,
          0.02227025479078293,
          0.1253615766763687,
          0.5373619198799133,
          -0.14227195084095,
          -0.2004775106906891,
          -0.35905274748802185,
          -0.11307504773139954,
          0.009876462630927563,
          -0.23578253388404846,
          -0.37529632449150085,
          -0.10444393008947372,
          -0.2399270087480545,
          0.041437678039073944,
          1.0714564323425293
        ],
        [
          -0.1317681521177292,
          -0.1515386998653412,
          0.11416836827993393,
          -0.07713431864976883,
          -0.09254579991102219,
          -0.029508111998438835,
          -0.05973571538925171,
          -0.16686204075813293,
          -0.1539347916841507,
          -0.1066247746348381,
          -0.0012541378382593393,
          0.11460255086421967,
          0.11556022614240646,
          -0.16266457736492157,
          -0.05770748853683472,
          0.15109020471572876,
          -0.09635473787784576,
          -0.06388199329376221,
          0.09835244715213776,
          0.01872655749320984,
          0.02450735867023468,
          -0.06546936929225922,
          -0.13124917447566986,
          -0.11042073369026184,
          0.11734440922737122,
          0.19193103909492493,
          -0.10345801711082458,
          0.10701356828212738,
          0.04119325801730156,
          0.12163371592760086,
          0.13013434410095215,
          0.07466632127761841,
          0.08870463073253632,
          -0.16135279834270477,
          0.16641904413700104,
          -0.17720504105091095,
          -0.16978363692760468,
          0.07650382816791534,
          0.16854621469974518,
          0.0758429691195488,
          -0.0946258082985878,
          0.11035602539777756,
          -0.03177817910909653,
          0.09181076288223267,
          0.10792893916368484,
          -0.003517236327752471,
          0.12386538833379745,
          0.016291692852973938,
          0.003141806460916996,
          -0.0941772311925888,
          0.02418511174619198,
          0.1499107927083969,
          -0.13840854167938232,
          -0.07948154211044312,
          0.02115187607705593,
          -0.1639956831932068,
          0.03606957197189331,
          -0.18360303342342377,
          0.11115551739931107,
          0.02278733253479004,
          -0.12845399975776672,
          0.0033675581216812134,
          -0.05485539138317108,
          0.1237194687128067
        ],
        [
          0.14647236466407776,
          0.10188987851142883,
          0.053704988211393356,
          -0.03746425732970238,
          0.07199358195066452,
          -0.1074642762541771,
          0.17542432248592377,
          0.14470066130161285,
          -0.031160863116383553,
          0.028723299503326416,
          0.14234353601932526,
          0.1372009962797165,
          -0.1178642064332962,
          0.006267945747822523,
          -0.13936182856559753,
          -0.10419949144124985,
          0.19062043726444244,
          0.13736268877983093,
          -0.008178451098501682,
          -0.16888059675693512,
          0.05538519099354744,
          0.062319040298461914,
          0.12415879219770432,
          -0.038676489144563675,
          0.005446122493594885,
          0.141091987490654,
          -0.08742503076791763,
          0.021136807277798653,
          0.1524246335029602,
          0.08589138835668564,
          0.17210623621940613,
          0.18062616884708405,
          -0.1403006911277771,
          -0.1355714648962021,
          -0.1141982227563858,
          -0.08620219677686691,
          0.057479389011859894,
          0.14305910468101501,
          0.08349328488111496,
          -0.12627029418945312,
          -0.1301429718732834,
          0.17367126047611237,
          -0.0634256899356842,
          -0.17785443365573883,
          -0.1421518474817276,
          -0.18433474004268646,
          -0.16338953375816345,
          -0.025224100798368454,
          0.12482262402772903,
          0.08838751167058945,
          0.16406477987766266,
          -0.010237661190330982,
          -0.04955544322729111,
          -0.001691840821877122,
          0.13961338996887207,
          0.12816119194030762,
          -0.015061882324516773,
          -0.060535114258527756,
          0.08919573575258255,
          0.017216825857758522,
          -0.19495712220668793,
          0.01498791016638279,
          -0.1429845690727234,
          -0.1535201370716095
        ],
        [
          -0.09516555070877075,
          -0.18754614889621735,
          0.14697183668613434,
          0.07575582712888718,
          0.09839297086000443,
          -0.030263906344771385,
          -0.10187510401010513,
          -3.7048299312591553,
          -1.6814470291137695,
          0.13923268020153046,
          0.14264732599258423,
          0.1577742099761963,
          0.05687246844172478,
          -1.944273591041565,
          4.870928764343262,
          -0.16181768476963043,
          -0.39400514960289,
          -0.2583482563495636,
          0.1762768179178238,
          -0.1808324009180069,
          0.18039508163928986,
          -0.17668628692626953,
          0.04100857675075531,
          0.11465173214673996,
          -0.04753567650914192,
          -0.1925259530544281,
          0.1069488674402237,
          0.18251009285449982,
          -0.14954395592212677,
          -0.24873356521129608,
          0.17120271921157837,
          -0.04175882786512375,
          0.06902486085891724,
          -0.14068704843521118,
          -0.3824080526828766,
          0.019010061398148537,
          0.04318076744675636,
          0.03082284890115261,
          -0.14150390028953552,
          -0.05427761375904083,
          1.5450400114059448,
          0.037881966680288315,
          0.18035094439983368,
          -0.46767666935920715,
          -0.03347527235746384,
          -0.11996583640575409,
          0.1289355754852295,
          0.013824453577399254,
          5.005261421203613,
          -0.17144985496997833,
          7.160019397735596,
          0.3634180724620819,
          0.30376389622688293,
          -0.09521202743053436,
          -0.009157063439488411,
          0.06406717747449875,
          0.06158267706632614,
          0.12243326753377914,
          0.12173043191432953,
          1.5364816188812256,
          -0.046893153339624405,
          0.129454106092453,
          0.04328717291355133,
          -1.089856743812561
        ],
        [
          -0.0772114172577858,
          0.1849592924118042,
          0.09154023230075836,
          0.017361268401145935,
          -0.0807393416762352,
          0.10831354558467865,
          0.16587843000888824,
          -3.4676809310913086,
          -1.5994397401809692,
          -0.173176571726799,
          -0.06022860109806061,
          -0.0016943744849413633,
          -0.0367574468255043,
          -1.987614393234253,
          3.0719120502471924,
          -0.18958497047424316,
          -0.315073698759079,
          -0.1564745008945465,
          0.1853131800889969,
          -0.034300435334444046,
          -0.19303084909915924,
          -0.14434026181697845,
          -0.06409214437007904,
          -0.06882689148187637,
          0.13932104408740997,
          -0.012013574130833149,
          0.09981228411197662,
          -0.04898180812597275,
          0.16852320730686188,
          -2.1918797492980957,
          0.4581274688243866,
          -0.007069064769893885,
          0.007062410935759544,
          -0.19266235828399658,
          -0.2618938982486725,
          0.19284623861312866,
          -0.1681947261095047,
          -0.2839568257331848,
          -0.03379717841744423,
          0.037058182060718536,
          1.4728598594665527,
          -0.03006003610789776,
          0.022394435480237007,
          -0.3611542880535126,
          -0.0646304339170456,
          0.1557513028383255,
          0.16660386323928833,
          -0.11743859201669693,
          4.166363716125488,
          -0.13571025431156158,
          5.754764556884766,
          0.2576572000980377,
          0.32225871086120605,
          -0.11137520521879196,
          0.13373340666294098,
          0.06809167563915253,
          0.08416659384965897,
          -0.16505779325962067,
          -0.13421393930912018,
          4.064336776733398,
          -0.2919670045375824,
          0.056735578924417496,
          -0.007307626772671938,
          -1.3919802904129028
        ],
        [
          -0.025390492752194405,
          0.05746423453092575,
          -0.1466301828622818,
          -0.0028114146552979946,
          6.984531879425049,
          -0.08778104186058044,
          0.017646897584199905,
          -1.7081025838851929,
          1.52141273021698,
          -0.10819199681282043,
          -0.06303203105926514,
          0.1902703195810318,
          -0.17406143248081207,
          1.3432539701461792,
          -6.486224174499512,
          -0.08884292095899582,
          2.5164122581481934,
          -1.1082556247711182,
          -0.0026049853768199682,
          -0.1089705377817154,
          0.25644218921661377,
          0.024874569848179817,
          0.07423646748065948,
          -0.15581673383712769,
          -0.1881633847951889,
          0.006052092649042606,
          0.10141832381486893,
          -0.04795477166771889,
          -0.23649533092975616,
          -2.2217278480529785,
          0.03160351142287254,
          -0.1536749303340912,
          -0.1424584537744522,
          -0.2470918595790863,
          1.9205503463745117,
          -0.0152960903942585,
          -0.24082185328006744,
          -0.015425100922584534,
          -0.0767851322889328,
          0.9226689338684082,
          0.28268006443977356,
          1.6576859951019287,
          -0.04299703240394592,
          6.565845966339111,
          -0.05248163267970085,
          -0.07001197338104248,
          0.08957355469465256,
          0.40881073474884033,
          0.85015469789505,
          -0.03428191319108009,
          -8.699889183044434,
          2.8903286457061768,
          -5.936193466186523,
          -0.21697303652763367,
          -0.280815452337265,
          -0.5871696472167969,
          -0.09603554755449295,
          0.11488601565361023,
          -0.03996869921684265,
          -0.43615850806236267,
          0.044790495187044144,
          -0.23943054676055908,
          -0.09557528793811798,
          1.4661000967025757
        ],
        [
          0.03064103052020073,
          0.022158395498991013,
          0.04976885765790939,
          0.2177516669034958,
          2.87911057472229,
          -0.033466458320617676,
          0.09125314652919769,
          -0.8579034209251404,
          0.06172768026590347,
          0.036655303090810776,
          -0.16556589305400848,
          -0.07342098653316498,
          -0.2315259575843811,
          -0.3446383476257324,
          3.4784960746765137,
          0.02575058303773403,
          6.016690731048584,
          -0.28395748138427734,
          -0.17476259171962738,
          0.033750083297491074,
          -0.4131157100200653,
          -0.11495201289653778,
          -0.08790431171655655,
          -0.1280650794506073,
          -0.2135629802942276,
          0.1647150069475174,
          -0.017597496509552002,
          -0.16043956577777863,
          0.03656664118170738,
          -1.4035611152648926,
          0.047475218772888184,
          -0.01774539053440094,
          0.004927146714180708,
          -0.06834342330694199,
          3.3759677410125732,
          -0.5237365961074829,
          -0.0860426127910614,
          -0.31729578971862793,
          -0.177687868475914,
          0.8284072875976562,
          -0.9213420748710632,
          1.090166687965393,
          -0.2355865240097046,
          0.33122074604034424,
          0.0421050563454628,
          0.028724495321512222,
          -0.16062532365322113,
          0.5703483819961548,
          0.8460714221000671,
          -0.14011788368225098,
          -0.2968778610229492,
          -3.454476833343506,
          0.362993061542511,
          -0.24466700851917267,
          0.06786451488733292,
          -0.6286672353744507,
          -0.26202651858329773,
          -0.06771310418844223,
          -0.09783966094255447,
          3.5146970748901367,
          -0.19629377126693726,
          -0.05359381437301636,
          0.042820509523153305,
          5.3929033279418945
        ],
        [
          0.11745108664035797,
          -0.01609690487384796,
          0.18885798752307892,
          0.12411446869373322,
          0.13711193203926086,
          0.08865126222372055,
          -0.09636867046356201,
          0.08304475992918015,
          -0.060466114431619644,
          -0.004404924344271421,
          0.12426374107599258,
          0.10410068184137344,
          0.18588845431804657,
          0.09160471707582474,
          -0.0759667456150055,
          -0.18193024396896362,
          0.024473942816257477,
          0.05008501186966896,
          -0.1951640546321869,
          0.03834852948784828,
          -0.14986832439899445,
          -0.1219276487827301,
          -0.023625846952199936,
          -0.1203756183385849,
          0.14484907686710358,
          -0.003636962966993451,
          0.08582502603530884,
          0.12514320015907288,
          -0.1583634614944458,
          -0.04408447816967964,
          0.022172093391418457,
          0.1923229694366455,
          0.1708926558494568,
          -0.18382374942302704,
          0.17548225820064545,
          -0.04576632007956505,
          -0.19625848531723022,
          0.023401375859975815,
          -0.18412646651268005,
          0.0843060314655304,
          -0.06861177086830139,
          0.14683295786380768,
          -0.1351427137851715,
          -0.10253344476222992,
          -0.13623395562171936,
          0.08770634233951569,
          -0.028394384309649467,
          -0.13714508712291718,
          0.04883186146616936,
          -0.13239145278930664,
          -0.17018193006515503,
          0.1802986115217209,
          -0.14621734619140625,
          0.02173316851258278,
          -0.17532631754875183,
          -0.15376226603984833,
          0.16238214075565338,
          -0.0650499165058136,
          0.12054915726184845,
          -0.04463425651192665,
          -0.04135386645793915,
          0.09600207209587097,
          0.0257518719881773,
          0.035911280661821365
        ],
        [
          0.13083982467651367,
          -0.01066445279866457,
          -0.1323990672826767,
          -0.13196425139904022,
          -0.10595598071813583,
          0.07610686123371124,
          0.1786220818758011,
          0.11809732019901276,
          -0.13201338052749634,
          -0.04493701085448265,
          0.1620158851146698,
          0.1206553503870964,
          -0.09579860419034958,
          0.021505828946828842,
          -0.11829571425914764,
          0.07075368613004684,
          -0.0068500107154250145,
          0.003817460499703884,
          -0.1211920902132988,
          -0.18425287306308746,
          -0.061382047832012177,
          0.09105653315782547,
          0.17367564141750336,
          -0.1588781476020813,
          0.06032496690750122,
          -0.029011022299528122,
          -0.13640214502811432,
          0.178304523229599,
          -0.03877827152609825,
          -0.12335138767957687,
          -0.051788028329610825,
          -0.0996042788028717,
          0.15964102745056152,
          -0.02408367581665516,
          0.00028791234944947064,
          0.1610042005777359,
          0.1522354632616043,
          0.16068875789642334,
          0.17278875410556793,
          -0.0508023276925087,
          -0.1262712925672531,
          -0.14432495832443237,
          0.17995375394821167,
          -0.17502249777317047,
          -0.12406951934099197,
          0.16826103627681732,
          -0.06223954260349274,
          0.07144089788198471,
          0.1432834416627884,
          -0.17499713599681854,
          -0.16942109167575836,
          0.05279681831598282,
          -0.1530383974313736,
          0.12472803890705109,
          0.12991997599601746,
          0.026296304538846016,
          0.0920664370059967,
          0.04536078870296478,
          -0.033021293580532074,
          0.12756267189979553,
          -0.06301568448543549,
          0.06521748751401901,
          -0.07588830590248108,
          -0.024382708594202995
        ],
        [
          -0.07618267834186554,
          0.036282870918512344,
          -0.05189210921525955,
          0.07482606172561646,
          -1.1573086977005005,
          -0.11769786477088928,
          -0.11445821076631546,
          4.1627607345581055,
          -1.4649065732955933,
          0.1557168960571289,
          -0.05523030459880829,
          -0.17284370958805084,
          -0.16204306483268738,
          3.278608798980713,
          0.9076886177062988,
          0.19410890340805054,
          5.545673370361328,
          -0.44489586353302,
          -0.1493683010339737,
          0.06175064668059349,
          -0.06669232994318008,
          -0.16329583525657654,
          -0.11934901028871536,
          0.14807187020778656,
          0.12270478159189224,
          -0.29957839846611023,
          0.08091840147972107,
          -0.1929594874382019,
          0.07353053241968155,
          -2.242067813873291,
          -0.23858779668807983,
          0.04576678201556206,
          0.11827264726161957,
          -0.004795207176357508,
          -8.36846923828125,
          0.012414796277880669,
          -0.035088732838630676,
          -0.06305122375488281,
          0.050155218690633774,
          0.12995775043964386,
          -0.6324808597564697,
          -0.019677242264151573,
          -0.15550297498703003,
          -2.263601303100586,
          0.07245627790689468,
          -0.17966921627521515,
          -0.19006940722465515,
          -0.10346353054046631,
          -1.1175068616867065,
          0.18700839579105377,
          -4.273638725280762,
          -1.1261496543884277,
          0.14892828464508057,
          -0.03128107264637947,
          -0.03158380091190338,
          -0.09911976009607315,
          0.1440231204032898,
          0.08300959318876266,
          -0.19316400587558746,
          -1.1150996685028076,
          0.26153260469436646,
          0.02163604646921158,
          0.19428709149360657,
          -6.140960216522217
        ],
        [
          0.06313852220773697,
          -0.07139705121517181,
          0.18507075309753418,
          -0.11006542295217514,
          -1.2202274799346924,
          0.005786112975329161,
          0.04684527590870857,
          3.959700107574463,
          -1.4086382389068604,
          -0.12293380498886108,
          -0.09116081893444061,
          -0.06703899055719376,
          0.037546880543231964,
          -2.574035167694092,
          -2.352781057357788,
          -0.10102282464504242,
          5.098025798797607,
          -0.5664882063865662,
          -0.1241164430975914,
          -0.07699557393789291,
          -0.0736590251326561,
          -0.10210008919239044,
          0.1453259140253067,
          -0.0020390839781612158,
          0.17331039905548096,
          -0.6664677262306213,
          0.07043734192848206,
          0.1700248420238495,
          0.032825689762830734,
          -2.34055233001709,
          -0.3646600544452667,
          0.07184173911809921,
          0.05553987994790077,
          0.1101045086979866,
          -7.841476917266846,
          -0.20346616208553314,
          0.13695725798606873,
          0.03324459493160248,
          -0.10163239389657974,
          0.3894721567630768,
          -0.09330157935619354,
          0.18688108026981354,
          0.0523030124604702,
          -2.7200183868408203,
          0.17136003077030182,
          0.18561111390590668,
          0.1708027571439743,
          -0.14910569787025452,
          -0.712497353553772,
          -0.014297181740403175,
          -4.812768459320068,
          -1.4844741821289062,
          0.21329808235168457,
          -0.06767458468675613,
          0.14823602139949799,
          -0.05523965135216713,
          0.1598648875951767,
          -0.11594539880752563,
          0.1509011834859848,
          4.523258686065674,
          0.08272763341665268,
          0.18244434893131256,
          0.08035198599100113,
          -6.352022647857666
        ],
        [
          0.12183310091495514,
          -0.18692335486412048,
          -0.26005199551582336,
          -0.555980384349823,
          -7.611214637756348,
          -0.1716676652431488,
          -0.017120029777288437,
          -2.0986900329589844,
          -2.089900016784668,
          -0.4159998595714569,
          -0.18215906620025635,
          -0.18324251472949982,
          -0.009778710082173347,
          -1.7720375061035156,
          2.1306941509246826,
          -0.08194486796855927,
          -0.058729659765958786,
          1.354050636291504,
          -0.19161604344844818,
          0.034725796431303024,
          -0.8105640411376953,
          0.05628105625510216,
          0.08879195898771286,
          -0.142342671751976,
          -0.039183083921670914,
          -0.8493002653121948,
          0.005279789213091135,
          -0.07841253280639648,
          -0.16222679615020752,
          0.2565806806087494,
          -0.5973504185676575,
          -1.556034803390503,
          -0.09927672147750854,
          -0.03620734065771103,
          -0.15733207762241364,
          -0.2456672042608261,
          -0.09160017967224121,
          -0.18227213621139526,
          0.0490533821284771,
          0.41968607902526855,
          -0.565391480922699,
          -5.871861934661865,
          -0.0646972507238388,
          -3.171292781829834,
          -0.20795367658138275,
          0.03799561783671379,
          -0.2301459014415741,
          -1.3671934604644775,
          0.39606010913848877,
          0.15444621443748474,
          0.6552799940109253,
          -0.8086022734642029,
          4.238613605499268,
          0.02143026515841484,
          -0.15984851121902466,
          -0.23162315785884857,
          0.17828628420829773,
          -0.10180056095123291,
          -0.1071394756436348,
          0.7123689651489258,
          -0.21449747681617737,
          0.04212335869669914,
          0.07288817316293716,
          -2.851745843887329
        ],
        [
          0.004036521073430777,
          -0.27470913529396057,
          -0.10330593585968018,
          -0.35568708181381226,
          0.20325711369514465,
          -0.0682634562253952,
          -0.16913537681102753,
          -0.33280834555625916,
          -1.5378791093826294,
          -0.18672573566436768,
          -0.10268072783946991,
          -0.03844985365867615,
          -0.0846598669886589,
          3.7053823471069336,
          1.4467363357543945,
          -0.2412097156047821,
          -0.9690276384353638,
          1.105847954750061,
          -0.22961044311523438,
          -0.06271159648895264,
          -0.7125961184501648,
          -0.15843309462070465,
          -0.17805536091327667,
          -0.007987855933606625,
          0.15929384529590607,
          -0.16205409169197083,
          -0.2501441240310669,
          -0.07345854490995407,
          0.009490560740232468,
          -0.3456284701824188,
          -0.2526024281978607,
          -1.4376546144485474,
          -0.0019250616896897554,
          0.1818186342716217,
          -2.815103769302368,
          -0.1664050817489624,
          0.1582457423210144,
          -0.0732271745800972,
          -0.11952853947877884,
          0.2404358983039856,
          -0.17128635942935944,
          -3.313767194747925,
          -0.03455791622400284,
          -3.6772682666778564,
          -0.12820985913276672,
          -0.08078807592391968,
          -0.14210866391658783,
          -1.369695782661438,
          -0.583235502243042,
          0.10508564859628677,
          0.36442023515701294,
          0.12120289355516434,
          1.4190475940704346,
          -0.13526690006256104,
          0.0801936686038971,
          -0.053972277790308,
          0.07082124799489975,
          0.12150251865386963,
          -0.20134547352790833,
          -0.48204755783081055,
          -0.3011246621608734,
          -0.21997660398483276,
          -0.28215664625167847,
          5.478588104248047
        ],
        [
          -0.1543414294719696,
          0.19413219392299652,
          -0.18906334042549133,
          -0.09467118978500366,
          -0.08575651794672012,
          0.1083545908331871,
          0.00044854707084596157,
          0.25049036741256714,
          0.4041253626346588,
          0.10539586842060089,
          0.14917179942131042,
          -0.050550688058137894,
          0.16310670971870422,
          1.2121862173080444,
          4.894201755523682,
          0.16245105862617493,
          0.485744833946228,
          0.0163461621850729,
          0.1048004999756813,
          -0.08881353586912155,
          -0.12312601506710052,
          -0.11291535943746567,
          -0.16514670848846436,
          0.14988577365875244,
          0.18583332002162933,
          0.24463309347629547,
          0.00897371955215931,
          0.17797693610191345,
          -0.012112338095903397,
          6.218430519104004,
          -0.16518563032150269,
          0.175429105758667,
          0.025593798607587814,
          0.008686774410307407,
          1.151281476020813,
          -0.10791652649641037,
          -0.05885547772049904,
          0.3315885365009308,
          -0.020805325359106064,
          0.030699696391820908,
          0.19570493698120117,
          -0.16909344494342804,
          -0.10912831872701645,
          -1.5484260320663452,
          -0.024425918236374855,
          -0.14335833489894867,
          -0.1891889125108719,
          0.07058914005756378,
          1.9368348121643066,
          -0.08431266248226166,
          6.19058895111084,
          -1.6048331260681152,
          0.3135005831718445,
          0.17428328096866608,
          -0.10040626674890518,
          0.035887960344552994,
          -0.053841326385736465,
          0.006067558191716671,
          -0.11552997678518295,
          0.5058861374855042,
          0.12450965493917465,
          0.15832357108592987,
          -0.11855722963809967,
          2.9576878547668457
        ],
        [
          0.17472855746746063,
          -0.022716030478477478,
          -0.17834386229515076,
          -0.11358597874641418,
          -0.19524003565311432,
          -0.007852775976061821,
          -0.09179114550352097,
          0.3853073716163635,
          0.4319112300872803,
          -0.013004820793867111,
          -0.08282150328159332,
          -0.16246122121810913,
          0.1675451099872589,
          0.9586473107337952,
          2.9621763229370117,
          -0.05712204799056053,
          0.0862317904829979,
          0.03943365812301636,
          -0.0869426280260086,
          0.16645938158035278,
          0.08065453916788101,
          0.17851370573043823,
          -0.1590832769870758,
          -0.0016390784876421094,
          -0.07593384385108948,
          0.3641708493232727,
          0.16589322686195374,
          0.008906619623303413,
          -0.0327039435505867,
          4.6100544929504395,
          0.1758003681898117,
          0.024498939514160156,
          0.15908728539943695,
          -0.02379397116601467,
          0.6170809268951416,
          -0.000048862159019336104,
          0.12427844852209091,
          0.3453042209148407,
          0.10691789537668228,
          0.22607529163360596,
          0.17963333427906036,
          -0.07803774625062943,
          0.005484381224960089,
          -0.257698118686676,
          -0.1378709375858307,
          0.1646898239850998,
          -0.126780703663826,
          0.09159815311431885,
          1.066191554069519,
          -0.08777741342782974,
          4.774653911590576,
          -1.358270525932312,
          0.3050483763217926,
          0.09664945304393768,
          0.1290500909090042,
          -0.10093116760253906,
          -0.19160351157188416,
          0.10614336282014847,
          -0.044092483818531036,
          -0.2524799406528473,
          -0.10395677387714386,
          -0.04672636836767197,
          -0.012730274349451065,
          1.953333854675293
        ],
        [
          0.14578156173229218,
          -0.08453939110040665,
          -0.1310514211654663,
          -0.007909578271210194,
          8.641242980957031,
          -0.1514192670583725,
          -0.13273979723453522,
          -5.848666667938232,
          -6.186788558959961,
          -0.01561121828854084,
          -0.16780085861682892,
          -0.02959492802619934,
          0.010018785484135151,
          -3.894848108291626,
          9.439644813537598,
          0.08010916411876678,
          -0.4447302520275116,
          1.642883062362671,
          0.017610691487789154,
          0.012652832083404064,
          0.23514287173748016,
          0.09358605742454529,
          -0.16927725076675415,
          0.14555223286151886,
          -0.026047637686133385,
          0.06466669589281082,
          -0.012020954862236977,
          -0.048504170030355453,
          0.04553056135773659,
          -0.6849539279937744,
          0.050970762968063354,
          0.4388650059700012,
          0.05346226692199707,
          0.11420799791812897,
          4.094606876373291,
          -0.2335250973701477,
          -0.16124561429023743,
          -0.35645413398742676,
          -0.1219836100935936,
          0.637130856513977,
          -6.963991641998291,
          -2.578587293624878,
          -0.1329486221075058,
          6.2247467041015625,
          0.042973801493644714,
          -0.0025757576804608107,
          0.0023947099689394236,
          0.11281868070363998,
          6.5525712966918945,
          0.06469764560461044,
          4.050649166107178,
          -12.762434959411621,
          8.849081993103027,
          -0.17183373868465424,
          -0.1278601735830307,
          -0.039258625358343124,
          -0.07117075473070145,
          -0.06866219639778137,
          0.16209924221038818,
          6.895486354827881,
          -0.18805545568466187,
          0.053629934787750244,
          -0.10295215249061584,
          -6.479752063751221
        ],
        [
          -0.08767599612474442,
          0.10141319781541824,
          0.19155403971672058,
          0.03218314051628113,
          7.409422874450684,
          0.07003569602966309,
          0.12744542956352234,
          -3.4832096099853516,
          -2.743375778198242,
          -0.16035884618759155,
          -0.15933315455913544,
          -0.09884589165449142,
          0.00027727169799618423,
          -1.5052746534347534,
          4.7239251136779785,
          -0.060052040964365005,
          -0.41587576270103455,
