{
  "version": 1,
  "kind": "legal_action_mlp",
  "feature_schema_version": "goat_state_features_v1",
  "action_schema_version": "goat_action_features_v1",
  "input_size": 91,
  "seed": 505,
  "dataset_hash": "836f30b9",
  "training_config": {
    "algorithm": "ladder_supervised_policy_v1",
    "target_tier": "noob",
    "tiers": [
      "noob"
    ],
    "episodes": 2000,
    "iterations": 3,
    "epochs_per_iteration": 8,
    "batch_size": 64,
    "learning_rate": 0.01,
    "max_ticks": 900,
    "max_negatives_per_decision": 8,
    "dataset_sources": [
      {
        "path": "/home/runner/work/edge_royale/edge_royale/artifacts/training/runs/daily-25276131849/datasets/noob/shard-001.json",
        "dataset_hash": "a1ff2121",
        "episode_count": 500,
        "sample_count": 5597,
        "row_summary": {
          "rows": 45830,
          "positives": 5597,
          "negatives": 40233
        }
      },
      {
        "path": "/home/runner/work/edge_royale/edge_royale/artifacts/training/runs/daily-25276131849/datasets/noob/shard-002.json",
        "dataset_hash": "e7b99b9b",
        "episode_count": 500,
        "sample_count": 5522,
        "row_summary": {
          "rows": 45188,
          "positives": 5522,
          "negatives": 39666
        }
      },
      {
        "path": "/home/runner/work/edge_royale/edge_royale/artifacts/training/runs/daily-25276131849/datasets/noob/shard-003.json",
        "dataset_hash": "47b46a3b",
        "episode_count": 500,
        "sample_count": 5533,
        "row_summary": {
          "rows": 45575,
          "positives": 5533,
          "negatives": 40042
        }
      },
      {
        "path": "/home/runner/work/edge_royale/edge_royale/artifacts/training/runs/daily-25276131849/datasets/noob/shard-004.json",
        "dataset_hash": "6230b10b",
        "episode_count": 500,
        "sample_count": 5537,
        "row_summary": {
          "rows": 45310,
          "positives": 5537,
          "negatives": 39773
        }
      }
    ],
    "row_summary": {
      "rows": 181903,
      "positives": 22189,
      "negatives": 159714
    },
    "iteration_summaries": [
      {
        "iteration": 1,
        "loss": 0.31877613067626953,
        "accuracy": 0.8780173659324646,
        "evaluation": [
          {
            "tier": "noob",
            "rounds": 50,
            "wins": 0,
            "losses": 0,
            "draws": 50,
            "win_rate": 0
          },
          {
            "tier": "mid",
            "rounds": 50,
            "wins": 0,
            "losses": 0,
            "draws": 50,
            "win_rate": 0
          }
        ]
      },
      {
        "iteration": 2,
        "loss": 0.3175753653049469,
        "accuracy": 0.8780173659324646,
        "evaluation": [
          {
            "tier": "noob",
            "rounds": 50,
            "wins": 0,
            "losses": 0,
            "draws": 50,
            "win_rate": 0
          },
          {
            "tier": "mid",
            "rounds": 50,
            "wins": 0,
            "losses": 0,
            "draws": 50,
            "win_rate": 0
          }
        ]
      },
      {
        "iteration": 3,
        "loss": 0.3170434832572937,
        "accuracy": 0.8780173659324646,
        "evaluation": [
          {
            "tier": "noob",
            "rounds": 50,
            "wins": 0,
            "losses": 0,
            "draws": 50,
            "win_rate": 0
          },
          {
            "tier": "mid",
            "rounds": 50,
            "wins": 0,
            "losses": 0,
            "draws": 50,
            "win_rate": 0
          }
        ]
      }
    ]
  },
  "layers": [
    {
      "type": "dense",
      "activation": "relu",
      "weights": [
        [
          -0.056448135524988174,
          -0.18206758797168732,
          0.023832861334085464,
          -0.7602744698524475,
          -0.21296553313732147,
          0.011832961812615395,
          -0.011413278989493847,
          -0.024456024169921875,
          -0.48860254883766174,
          -0.2155027687549591,
          0.8413615226745605,
          -0.021246695891022682,
          -0.21583954989910126,
          -0.1874905377626419,
          -0.15511687099933624,
          -0.28556984663009644,
          0.0670100674033165,
          -0.1343851089477539,
          -0.15008537471294403,
          -0.22605003416538239,
          -0.10221868753433228,
          -0.2063606083393097,
          -0.2965906262397766,
          0.05158666521310806,
          -0.009813975542783737,
          -0.08610997349023819,
          -0.06712594628334045,
          0.0547989085316658,
          -0.35942643880844116,
          -0.01659051515161991,
          0.31744685769081116,
          -0.18417809903621674,
          0.09266286343336105,
          -0.08344342559576035,
          -0.19082976877689362,
          -0.09305758029222488,
          0.03938905894756317,
          -0.1201297864317894,
          -0.08433172106742859,
          -0.1007332056760788,
          -0.26810160279273987,
          -0.04491925612092018,
          -0.17300373315811157,
          -0.29416224360466003,
          -0.019211487844586372,
          -0.20078496634960175,
          0.015453619882464409,
          -0.10261813551187515,
          0.06855841726064682,
          -0.006501890253275633,
          -0.03593210503458977,
          -0.4208272099494934,
          -0.17856432497501373,
          -0.2198033183813095,
          -0.102192722260952,
          -0.04450163617730141,
          -0.2599255442619324,
          -0.3581252694129944,
          -0.13856934010982513,
          -0.14821837842464447,
          -0.25806501507759094,
          -0.21184048056602478,
          0.03501658886671066,
          0.0001711056102067232
        ],
        [
          -0.10826773941516876,
          -0.02409251406788826,
          -0.07594019174575806,
          0.031452618539333344,
          0.15875555574893951,
          0.11343660205602646,
          0.18958932161331177,
          -0.11950130015611649,
          0.08047450333833694,
          -0.14954929053783417,
          -0.1188882514834404,
          0.00931063573807478,
          -0.1774560511112213,
          0.15102870762348175,
          0.0022621937096118927,
          0.0632457509636879,
          0.11997515708208084,
          -0.09060660004615784,
          -0.005588199477642775,
          0.038428496569395065,
          0.18315812945365906,
          -0.10580994188785553,
          0.006525545846670866,
          0.14079703390598297,
          -0.1585090011358261,
          -0.09207437187433243,
          -0.1739933043718338,
          -0.024090610444545746,
          0.1920357644557953,
          -0.19102273881435394,
          -0.18705186247825623,
          -0.07896611839532852,
          0.015403584577143192,
          0.13285018503665924,
          -0.05449290573596954,
          0.11278487741947174,
          -0.08824523538351059,
          0.027234692126512527,
          -0.025486476719379425,
          0.1593087762594223,
          -0.020694628357887268,
          -0.09765242785215378,
          0.12344824522733688,
          -0.004250293131917715,
          0.05261169373989105,
          0.1665332168340683,
          0.1648719310760498,
          0.11363731324672699,
          0.02724887616932392,
          -0.19534121453762054,
          0.036278873682022095,
          0.1367620974779129,
          0.011800105683505535,
          -0.15390266478061676,
          -0.12284011393785477,
          -0.05135822668671608,
          0.005065972916781902,
          0.04370398446917534,
          -0.1747790277004242,
          0.13961941003799438,
          0.01646965928375721,
          0.002659981371834874,
          -0.06727578490972519,
          0.01758372224867344
        ],
        [
          0.0878654271364212,
          0.0859823226928711,
          -0.04495692998170853,
          -0.11200428009033203,
          0.006606212817132473,
          -0.04947367310523987,
          0.14324994385242462,
          -0.1757691651582718,
          -0.010978184640407562,
          0.01533921342343092,
          -0.02669450268149376,
          0.03126172348856926,
          0.048259083181619644,
          0.17384953796863556,
          -0.09082945436239243,
          -0.06712108850479126,
          0.09040568023920059,
          -0.0524824857711792,
          -0.18589940667152405,
          -0.1831243634223938,
          -0.18994355201721191,
          0.09037143737077713,
          0.048225656151771545,
          0.1677960306406021,
          -0.18616744875907898,
          0.05724586546421051,
          -0.1489841789007187,
          0.19091665744781494,
          0.15543478727340698,
          0.16016186773777008,
          0.03280507028102875,
          -0.00882734265178442,
          0.0022650978062301874,
          0.19486434757709503,
          -0.018862752243876457,
          0.08121471107006073,
          0.06771782040596008,
          0.1511562466621399,
          -0.15047022700309753,
          0.16129112243652344,
          0.11936061084270477,
          0.1183626726269722,
          -0.18492946028709412,
          0.19047793745994568,
          -0.04239719733595848,
          0.012847530655562878,
          0.045835305005311966,
          0.08952794969081879,
          0.1948869526386261,
          0.06367085129022598,
          -0.03436888009309769,
          0.14560912549495697,
          -0.1521754115819931,
          0.00902582984417677,
          0.14131349325180054,
          0.1166897639632225,
          0.04412522912025452,
          -0.0870782807469368,
          0.19029803574085236,
          0.07399894297122955,
          0.1474582850933075,
          -0.07283877581357956,
          -0.018929626792669296,
          -0.14189106225967407
        ],
        [
          -0.08905107527971268,
          -0.1169024258852005,
          10.67701244354248,
          -3.7129733562469482,
          0.19909332692623138,
          0.1486213356256485,
          -0.15204915404319763,
          -0.2541690170764923,
          -0.6400365233421326,
          0.025706985965371132,
          0.17408053576946259,
          -0.1995655596256256,
          -0.2386508285999298,
          -0.22695240378379822,
          -0.12126751244068146,
          -0.2574218809604645,
          -0.004902777262032032,
          0.05682756379246712,
          0.09392351657152176,
          -0.12483887374401093,
          -0.026872986927628517,
          -0.09088631719350815,
          -15.933903694152832,
          0.0301117692142725,
          -0.059947773814201355,
          -0.1587436944246292,
          -0.09450775384902954,
          -0.06670743972063065,
          -0.0998755395412445,
          -0.19941195845603943,
          -4.497330188751221,
          0.09356273710727692,
          -3.653564929962158,
          0.0163525752723217,
          0.9425747990608215,
          0.21933655440807343,
          0.0880415067076683,
          -0.2512242794036865,
          3.8693864345550537,
          -0.0589582696557045,
          0.08540723472833633,
          0.028132211416959763,
          -0.1927320510149002,
          0.055563293397426605,
          -0.17946286499500275,
          0.06458791345357895,
          -0.12134693562984467,
          -0.17640990018844604,
          -0.04469633474946022,
          -0.20453737676143646,
          -0.1858799159526825,
          -0.42584866285324097,
          -0.18372011184692383,
          -0.09413802623748779,
          -0.1197778657078743,
          -0.07011330127716064,
          -0.22664645314216614,
          1.9147443771362305,
          -0.13752226531505585,
          -0.005942047573626041,
          0.04499996453523636,
          -0.19579820334911346,
          -0.04257511720061302,
          -0.1752452552318573
        ],
        [
          0.011501461267471313,
          -0.10423600673675537,
          -1.7005537748336792,
          -0.5321274995803833,
          -0.14428208768367767,
          -0.13017785549163818,
          0.03635698929429054,
          -0.14939327538013458,
          -0.2009482979774475,
          -0.029059991240501404,
          0.8931268453598022,
          -0.2907915711402893,
          0.07061067968606949,
          -0.21725361049175262,
          -0.020307309925556183,
          -0.14002414047718048,
          -0.0592806339263916,
          -0.1632550060749054,
          -0.24371396005153656,
          0.04017435759305954,
          -0.06130393594503403,
          -0.09072545915842056,
          2.134145736694336,
          -0.26889389753341675,
          -0.22316716611385345,
          0.1157262846827507,
          -0.10766641050577164,
          -0.022865701466798782,
          -0.24131499230861664,
          -0.1374492198228836,
          0.7784021496772766,
          0.018888156861066818,
          0.9243983030319214,
          -0.1854850798845291,
          -0.0869821161031723,
          -0.15423600375652313,
          -0.15358459949493408,
          -0.15773779153823853,
          -0.7678076028823853,
          0.0074295527301728725,
          0.03611727058887482,
          -0.15611955523490906,
          -0.19408847391605377,
          -0.13682278990745544,
          -0.049896080046892166,
          -0.05446529760956764,
          -0.016404367983341217,
          -0.043496184051036835,
          0.06703764200210571,
          0.07292874902486801,
          -0.2266572266817093,
          -0.27027857303619385,
          -0.03830951452255249,
          -0.23019307851791382,
          -0.07049164921045303,
          -0.08175791800022125,
          -0.11691442131996155,
          -0.7141484618186951,
          -0.03514494374394417,
          -0.06523963809013367,
          -0.08407176285982132,
          -0.13182473182678223,
          -0.0755300298333168,
          0.027919946238398552
        ],
        [
          -0.05871955305337906,
          -0.0806308314204216,
          -0.1352435052394867,
          -0.6789724230766296,
          -0.11597295850515366,
          -0.16615498065948486,
          -0.010255756787955761,
          -0.02100185491144657,
          -0.13940110802650452,
          -0.27437540888786316,
          0.7518113851547241,
          0.004359111655503511,
          0.055687546730041504,
          0.07604027539491653,
          0.02609117142856121,
          -0.451181024312973,
          -0.2548315227031708,
          -0.20684939622879028,
          -0.004751480650156736,
          -0.20619206130504608,
          -0.2639109194278717,
          -0.023722438141703606,
          -0.003834726754575968,
          -0.1857132613658905,
          -0.12070397287607193,
          -0.1845075935125351,
          -0.2853038012981415,
          0.08839345723390579,
          -0.42588138580322266,
          0.07931405305862427,
          0.43186619877815247,
          0.11681287735700607,
          0.4237551689147949,
          -0.11424607038497925,
          -0.1450127810239792,
          -0.0040870001539587975,
          -0.16799704730510712,
          -0.11682608723640442,
          -0.07015751302242279,
          -0.17185568809509277,
          0.09330678731203079,
          0.0242701955139637,
          -0.17881059646606445,
          -0.1446579545736313,
          -0.047478292137384415,
          -0.02590176835656166,
          -0.029687639325857162,
          -0.1649055778980255,
          -0.2561071813106537,
          0.0006985740037634969,
          -0.1842077374458313,
          -0.3966139853000641,
          -0.03830660134553909,
          -0.2667595446109772,
          -0.2367369681596756,
          0.08335397392511368,
          -0.05733456462621689,
          -0.11955810338258743,
          -0.27930793166160583,
          -0.09383581578731537,
          -0.03949187695980072,
          -0.21197277307510376,
          -0.24925406277179718,
          -0.2303095906972885
        ],
        [
          0.19024276733398438,
          0.12346380203962326,
          0.04598426818847656,
          0.028111500665545464,
          0.056862447410821915,
          -0.009325087070465088,
          -0.13522127270698547,
          0.1197197362780571,
          0.06873469799757004,
          -0.14923426508903503,
          0.1687285453081131,
          -0.12220417708158493,
          0.02792542427778244,
          0.17815221846103668,
          0.18410269916057587,
          -0.17351418733596802,
          0.117572121322155,
          0.12165327370166779,
          0.11797264218330383,
          -0.1273733228445053,
          0.07467803359031677,
          -0.12441219389438629,
          -0.12504664063453674,
          -0.13304851949214935,
          -0.1316203773021698,
          0.0864327996969223,
          -0.010791491717100143,
          0.13655750453472137,
          -0.17117370665073395,
          0.1784098893404007,
          0.05516280233860016,
          0.08321432024240494,
          -0.025142980739474297,
          -0.08307861536741257,
          -0.1493077427148819,
          -0.15199294686317444,
          -0.09890564531087875,
          -0.17887815833091736,
          0.0981418788433075,
          -0.15308421850204468,
          -0.03581801429390907,
          -0.1739238053560257,
          -0.18242396414279938,
          0.0435355007648468,
          -0.013516761362552643,
          0.033729419112205505,
          0.18551018834114075,
          0.07339951395988464,
          -0.03760591521859169,
          -0.05618986487388611,
          -0.12682770192623138,
          0.17748023569583893,
          -0.0685158520936966,
          -0.03585804998874664,
          0.12833964824676514,
          -0.1459825336933136,
          0.11175330728292465,
          -0.06528373807668686,
          -0.09067917615175247,
          -0.16635702550411224,
          0.002062062732875347,
          -0.11545125395059586,
          0.1887953281402588,
          -0.013255860656499863
        ],
        [
          -0.12268329411745071,
          -0.027153804898262024,
          -1.7894561290740967,
          -0.5474927425384521,
          -0.23875005543231964,
          -0.06314259767532349,
          -0.2251233607530594,
          -0.1306019127368927,
          0.3135685920715332,
          -0.041261930018663406,
          4.4759063720703125,
          0.0836065262556076,
          -0.15586180984973907,
          -0.07244157046079636,
          -0.2137758880853653,
          -0.04776699095964432,
          -0.3387644588947296,
          0.02405371330678463,
          -0.2692081928253174,
          -0.20453906059265137,
          -0.06544326990842819,
          -0.07207438349723816,
          -0.008568739518523216,
          -0.14380234479904175,
          0.13253800570964813,
          -0.047046273946762085,
          -0.10375911742448807,
          -0.24935972690582275,
          -0.07097034901380539,
          -0.021070649847388268,
          -0.6582421064376831,
          -0.011735115200281143,
          -6.382521152496338,
          -0.09300168603658676,
          0.2359645813703537,
          0.03484463691711426,
          0.009267098270356655,
          0.13139963150024414,
          -0.9728671312332153,
          -0.06656064093112946,
          0.04003148153424263,
          -0.018261440098285675,
          -0.14357808232307434,
          -0.09605731815099716,
          -0.19868633151054382,
          0.041576143354177475,
          0.003639050293713808,
          -0.14432014524936676,
          0.04472639039158821,
          0.08903185278177261,
          -0.17017421126365662,
          -0.08769715577363968,
          0.030840784311294556,
          -0.18459077179431915,
          -0.5083831548690796,
          -0.0006464646430686116,
          -0.1091047152876854,
          -3.2871758937835693,
          -0.21872617304325104,
          0.036492981016635895,
          -0.09471940249204636,
          -0.015313034877181053,
          0.09190964698791504,
          -0.24126721918582916
        ],
        [
          -0.08800088614225388,
          0.08715137094259262,
          0.5258224606513977,
          -0.5237910747528076,
          -0.20355232059955597,
          0.028526654466986656,
          0.04384690150618553,
          -0.09831517189741135,
          -0.22539426386356354,
          -0.0631290152668953,
          0.10760235041379929,
          -0.23031862080097198,
          -0.2417369931936264,
          -0.2031508982181549,
          -0.24807988107204437,
          -0.5282021164894104,
          -0.031180864199995995,
          0.005766978021711111,
          -0.21786457300186157,
          -0.1307036578655243,
          -0.19307255744934082,
          -0.05821441113948822,
          0.3400893807411194,
          -0.24039459228515625,
          0.020093413069844246,
          -0.045249804854393005,
          -0.16330662369728088,
          0.0572965033352375,
          -0.5433946847915649,
          0.0405508317053318,
          -0.9948900938034058,
          0.10726508498191833,
          0.5657276511192322,
          0.012499428354203701,
          0.9475803375244141,
          -0.10859912633895874,
          -0.11698604375123978,
          -0.17619358003139496,
          -0.39453980326652527,
          0.10488622635602951,
          -0.11709962040185928,
          -0.03552592173218727,
          0.0200471393764019,
          0.12077786773443222,
          -0.17937543988227844,
          -0.015414916910231113,
          -0.11515233665704727,
          -0.015526281669735909,
          0.10445582121610641,
          -0.2335416078567505,
          -0.041945312172174454,
          -0.7900720834732056,
          -0.08444905281066895,
          -0.10753592848777771,
          -0.3161492645740509,
          0.0633457601070404,
          -0.2014462649822235,
          -0.121148981153965,
          -0.12755121290683746,
          -0.13221651315689087,
          -0.09734185039997101,
          -0.5041019916534424,
          -0.2613677680492401,
          -0.14433574676513672
        ],
        [
          -0.2308274507522583,
          -0.10304228216409683,
          0.8819007873535156,
          -0.1407518982887268,
          -0.05091008171439171,
          -0.09405655413866043,
          -0.17546823620796204,
          -0.12522591650485992,
          -0.05257460102438927,
          0.02984280325472355,
          1.2297310829162598,
          0.10103180259466171,
          -0.19021360576152802,
          -0.126577228307724,
          -0.14035217463970184,
          -0.2896006405353546,
          0.22630192339420319,
          -0.02058771438896656,
          -0.21146978437900543,
          -0.08336597681045532,
          -0.19239214062690735,
          0.007795412093400955,
          0.9290726184844971,
          0.037016354501247406,
          0.06210660934448242,
          -0.2406730204820633,
          -0.17946287989616394,
          -0.18511079251766205,
          -0.15713487565517426,
          0.07552465051412582,
          1.3952016830444336,
          -0.10333822667598724,
          -1.2592569589614868,
          -0.18450908362865448,
          0.8673688769340515,
          -0.36717161536216736,
          -0.06907325983047485,
          -0.08473730087280273,
          0.29899871349334717,
          -0.19114163517951965,
          -0.09740106761455536,
          -0.15371006727218628,
          -0.07803627103567123,
          -0.05870145931839943,
          -0.14328335225582123,
          -0.12125925719738007,
          -0.15056802332401276,
          -0.15787771344184875,
          0.056882403790950775,
          0.03791142627596855,
          0.06395647674798965,
          -0.3003472685813904,
          -0.019593076780438423,
          -0.09958731383085251,
          0.39323538541793823,
          -0.09391291439533234,
          -0.14721930027008057,
          -0.6247779130935669,
          0.16520965099334717,
          -0.14803306758403778,
          -0.3293750584125519,
          -0.3948240280151367,
          0.03252284973859787,
          0.10478188842535019
        ],
        [
          0.11080408841371536,
          -0.09392067790031433,
          0.9058198928833008,
          0.388278067111969,
          0.07766987383365631,
          -0.12257770448923111,
          0.04676375165581703,
          -0.09960049390792847,
          -0.06155496463179588,
          -0.1886194944381714,
          1.0276802778244019,
          -0.007921572774648666,
          0.09971028566360474,
          -0.05349786579608917,
          0.032236114144325256,
          0.2758083939552307,
          -0.2946116030216217,
          0.04381478205323219,
          -0.08803845942020416,
          -0.07449805736541748,
          -0.17970922589302063,
          0.11259493976831436,
          0.8047617673873901,
          -0.1854923814535141,
          -0.09285438805818558,
          -0.20871078968048096,
          -0.22256991267204285,
          -0.32444632053375244,
          -0.22268983721733093,
          0.039567962288856506,
          0.1577993482351303,
          -0.21246337890625,
          -1.7939698696136475,
          -0.14671927690505981,
          1.56624436378479,
          -0.08624066412448883,
          -0.15748222172260284,
          0.03546140715479851,
          -0.205580934882164,
          -0.07953652739524841,
          -0.0029155153315514326,
          -0.18320423364639282,
          -0.07035425305366516,
          0.007432546932250261,
          -0.26303496956825256,
          -0.24323338270187378,
          -0.26849159598350525,
          0.09049514681100845,
          -0.07950208336114883,
          -0.12946996092796326,
          0.014266514219343662,
          0.11171339452266693,
          -0.15440966188907623,
          -0.12690891325473785,
          -0.5586898326873779,
          -0.21288399398326874,
          -0.03478517755866051,
          -1.3340675830841064,
          -0.17497456073760986,
          0.09683352708816528,
          0.3573317229747772,
          0.1780017614364624,
          0.010396393947303295,
          -0.1875537633895874
        ],
        [
          0.052745696157217026,
          -0.16644921898841858,
          -0.4093337655067444,
          -0.359598845243454,
          0.1489567756652832,
          0.0289668720215559,
          -0.03201141580939293,
          -0.08156704157590866,
          -0.23136813938617706,
          -0.18088820576667786,
          0.09145040065050125,
          -0.15612110495567322,
          0.05212368071079254,
          -0.011524184606969357,
          -0.04885811358690262,
          -0.15907511115074158,
          -0.1264786571264267,
          0.019157908856868744,
          -0.011171866208314896,
          -0.15161657333374023,
          0.07726472616195679,
          -0.18364861607551575,
          -0.822087287902832,
          -0.06724677234888077,
          -0.07551247626543045,
          -0.07122702896595001,
          0.06741169840097427,
          0.09988394379615784,
          -0.1484539806842804,
          -0.0774545818567276,
          0.2277805209159851,
          -0.08361503481864929,
          0.296042799949646,
          -0.037963900715112686,
          1.3831502199172974,
          0.15244744718074799,
          -0.18398074805736542,
          0.003631731029599905,
          -0.15816658735275269,
          -0.07109570503234863,
          0.06326543539762497,
          -0.16870759427547455,
          -0.01516401581466198,
          -0.22931800782680511,
          -0.10446912050247192,
          0.0663665384054184,
          -0.14819195866584778,
          0.1294589340686798,
          0.13395774364471436,
          -0.13567233085632324,
          0.1262488216161728,
          -0.08110526204109192,
          0.07457441836595535,
          0.01161003764718771,
          -0.2526361048221588,
          -0.2144182175397873,
          -0.2176382690668106,
          -0.9324743151664734,
          0.08813031017780304,
          0.13579528033733368,
          -0.08993981033563614,
          -0.25816935300827026,
          -0.08520276844501495,
          -0.09352730214595795
        ],
        [
          -0.19934941828250885,
          -0.19261211156845093,
          0.13339389860630035,
          -0.5599579811096191,
          -0.19772270321846008,
          -0.13850854337215424,
          -0.09951476007699966,
          -0.18835631012916565,
          -0.17916573584079742,
          -0.1688535213470459,
          -0.3971540033817291,
          -0.2374047487974167,
          -0.08993908017873764,
          -0.05711513012647629,
          0.04717755317687988,
          -0.18395298719406128,
          -0.27471765875816345,
          -0.02210247702896595,
          0.010628643445670605,
          -0.23733435571193695,
          0.06947174668312073,
          -0.14268988370895386,
          1.0506364107131958,
          -0.022487737238407135,
          -0.2893843948841095,
          -0.07688387483358383,
          -0.13460245728492737,
          0.12079323083162308,
          0.13451910018920898,
          -0.24873723089694977,
          -0.3260221481323242,
          0.03959392011165619,
          0.47636207938194275,
          -0.016874762251973152,
          0.5710322260856628,
          -0.17093710601329803,
          0.07390161603689194,
          -0.04664182662963867,
          0.4251368045806885,
          0.10208446532487869,
          0.10804669559001923,
          0.11423741281032562,
          -0.01567898690700531,
          -0.09733931720256805,
          -0.10145831853151321,
          -0.03799906000494957,
          0.09194443374872208,
          0.14250989258289337,
          -0.09806504100561142,
          -0.20165489614009857,
          -0.16870012879371643,
          0.05542661249637604,
          0.03847259283065796,
          0.03535878658294678,
          -0.2466965615749359,
          -0.09306620061397552,
          -0.15628772974014282,
          -2.030660629272461,
          0.09956646710634232,
          -0.026172447949647903,
          -0.10098757594823837,
          -0.08870598673820496,
          -0.20966441929340363,
          -0.02719861827790737
        ],
        [
          -0.2395292967557907,
          0.06932520121335983,
          2.4870243072509766,
          -0.17021822929382324,
          -0.1791185736656189,
          -0.04506264254450798,
          0.07899840921163559,
          0.005503075197339058,
          0.02775503508746624,
          0.05175180360674858,
          1.249290108680725,
          0.014449814334511757,
          0.09444966167211533,
          0.10313432663679123,
          0.020771976560354233,
          0.42346543073654175,
          -0.5216243267059326,
          0.07749830931425095,
          -0.1484617292881012,
          -0.028414534404873848,
          -0.13062632083892822,
          -0.19279766082763672,
          -0.5815096497535706,
          0.11280016601085663,
          0.0344119518995285,
          0.015034932643175125,
          0.09086336195468903,
          0.25445646047592163,
          -0.08831042796373367,
          -0.12108767032623291,
          2.8743579387664795,
          -0.1923469752073288,
          1.9719126224517822,
          0.035054951906204224,
          -5.457928657531738,
          -0.4620893597602844,
          -0.17707301676273346,
          0.03751353919506073,
          1.091989517211914,
          -0.018129082396626472,
          0.04336659610271454,
          0.08241181075572968,
          0.08130478113889694,
          0.017703993245959282,
          -0.1294599026441574,
          0.008009979501366615,
          -0.015593900345265865,
          -0.12439018487930298,
          -0.15407775342464447,
          0.08668244630098343,
          -0.13115237653255463,
          -0.11376406997442245,
          0.1716621220111847,
          -0.0062923976220190525,
          0.10236570239067078,
          0.1032566949725151,
          -0.2492428869009018,
          -2.529604434967041,
          -0.02273593656718731,
          -0.09633807092905045,
          -0.11220703274011612,
          -0.13312388956546783,
          -0.0829746276140213,
          -0.12875615060329437
        ],
        [
          -0.15856610238552094,
          0.07182316482067108,
          -0.2867273688316345,
          -1.7325878143310547,
          -0.3761541247367859,
          -0.09182699024677277,
          -0.06373787671327591,
          -0.06979783624410629,
          0.002440670970827341,
          -0.04859783500432968,
          1.4193451404571533,
          -0.24826669692993164,
          -0.24055451154708862,
          0.08554045855998993,
          -0.07369134575128555,
          -0.6820653080940247,
          -0.16939955949783325,
          -0.08272708207368851,
          -0.18647024035453796,
          -0.09843142330646515,
          -0.1129518672823906,
          -0.08819931745529175,
          -1.3302044868469238,
          0.0819215327501297,
          -0.13164564967155457,
          -0.07073678076267242,
          0.041874077171087265,
          -0.18834878504276276,
          0.14954112470149994,
          -0.03638402372598648,
          -0.5372028350830078,
          0.07122588902711868,
          -0.05831171199679375,
          -0.15706585347652435,
          0.48863762617111206,
          -0.01989106275141239,
          -0.0427221916615963,
          0.16796287894248962,
          -0.7244216799736023,
          -0.16892430186271667,
          -0.26920685172080994,
          0.0413365513086319,
          0.04680925980210304,
          -0.05442993715405464,
          -0.12448364496231079,
          -0.2740417718887329,
          -0.16018056869506836,
          0.010753038339316845,
          -0.18244005739688873,
          -0.1397002786397934,
          0.09337723255157471,
          -0.5131288170814514,
          -0.14690229296684265,
          0.03572694957256317,
          -0.00900121871381998,
          0.02891145832836628,
          -0.48601046204566956,
          3.8097245693206787,
          -0.06674704700708389,
          -0.17446427047252655,
          0.3744893968105316,
          -0.37585902214050293,
          -0.010886402800679207,
          0.08712994307279587
        ],
        [
          -0.030221952125430107,
          -0.12060414999723434,
          -0.42100799083709717,
          -0.606265664100647,
          -0.14408835768699646,
          -0.08764242380857468,
          0.07439503818750381,
          -0.17179085314273834,
          -0.4857023060321808,
          0.04785677045583725,
          -0.28338614106178284,
          -0.2231214940547943,
          -0.2151024341583252,
          0.008428389206528664,
          -0.05694425478577614,
          0.14359386265277863,
          -0.026397081092000008,
          -0.15219081938266754,
          0.12381616979837418,
          -0.2737724781036377,
          -0.13780197501182556,
          -0.04016083478927612,
          0.28633588552474976,
          -0.011558043770492077,
          -0.1310950517654419,
          -0.042463965713977814,
          -0.12613949179649353,
          -0.3311883509159088,
          -0.14198079705238342,
          0.027916762977838516,
          -0.22423498332500458,
          -0.07792693376541138,
          0.9475637674331665,
          -0.05524728074669838,
          -0.7461081147193909,
          -0.23001468181610107,
          -0.03176372870802879,
          -0.2227330207824707,
          0.4715563952922821,
          -0.134577214717865,
          0.062455739825963974,
          -0.0206985455006361,
          -0.07719458639621735,
          0.02896089106798172,
          -0.017543472349643707,
          0.07305076718330383,
          -0.008361579850316048,
          -0.047913480550050735,
          -0.15207983553409576,
          0.03296608105301857,
          -0.11611343920230865,
          -0.04107480123639107,
          -0.04365583509206772,
          -0.13782891631126404,
          -0.15431132912635803,
          -0.24166081845760345,
          -0.1525919884443283,
          0.5658507943153381,
          -0.003665491472929716,
          -0.13431285321712494,
          -0.39610323309898376,
          -0.32195279002189636,
          -0.23589195311069489,
          -0.1127537414431572
        ],
        [
          -0.1435578614473343,
          -0.18355423212051392,
          -0.3476742208003998,
          -0.9780745506286621,
          -0.19546781480312347,
          0.04728187620639801,
          -0.05872758477926254,
          -0.1888744980096817,
          0.07487636059522629,
          0.11935625970363617,
          1.9392775297164917,
          -0.265699177980423,
          -0.2098684012889862,
          0.12478673458099365,
          -0.0904846340417862,
          0.17209534347057343,
          -0.1477089822292328,
          -0.10115224123001099,
          0.06257154047489166,
          -0.029285218566656113,
          -0.03789622709155083,
          0.09848000109195709,
          0.7033268213272095,
          -0.25478920340538025,
          -0.17366920411586761,
          -0.2574722170829773,
          0.058986596763134,
          -0.22778943181037903,
          0.5075089335441589,
          0.1444685012102127,
          -1.0386464595794678,
          -0.1491246521472931,
          -1.0475597381591797,
          0.19508908689022064,
          0.1364150047302246,
          -0.1926516890525818,
          -0.003628263482823968,
          -0.23762226104736328,
          -1.0492838621139526,
          -0.06303596496582031,
          -0.08353060483932495,
          -0.04933006316423416,
          -0.028684400022029877,
          -0.0017328591784462333,
          0.05544682964682579,
          0.10841677337884903,
          0.12717868387699127,
          -0.05551530048251152,
          -0.16144174337387085,
          -0.20043547451496124,
          -0.07287785410881042,
          0.27096259593963623,
          -0.12103240936994553,
          0.11412625759840012,
          0.12807735800743103,
          0.08238610625267029,
          -0.11270313709974289,
          0.10567966103553772,
          0.12582741677761078,
          -0.08929426968097687,
          0.26390156149864197,
          0.41693493723869324,
          -0.10851293802261353,
          0.03503747284412384
        ],
        [
          -0.08188804239034653,
          0.03273402154445648,
          0.6854386329650879,
          0.014865785837173462,
          -0.24232369661331177,
          0.027402237057685852,
          -0.09244532138109207,
          -0.05003071576356888,
          -0.0975164994597435,
          -0.05613962933421135,
          0.47253140807151794,
          -0.11849616467952728,
          0.11256643384695053,
          -0.03307706490159035,
          0.020535783842206,
          0.020335832610726357,
          -0.18400929868221283,
          -0.02297886647284031,
          0.06803563982248306,
          0.08450991660356522,
          -0.010361943393945694,
          0.03445861488580704,
          0.8182874321937561,
          -0.08196724206209183,
          -0.11294374614953995,
          -0.12023617327213287,
          0.049411557614803314,
          0.030060576274991035,
          -0.06235577538609505,
          -0.1632857322692871,
          -0.9035078287124634,
          -0.22005455195903778,
          0.7538689374923706,
          -0.07591944932937622,
          1.0701208114624023,
          -0.16196560859680176,
          0.06268766522407532,
          0.11003764718770981,
          -1.1182310581207275,
          0.1337568461894989,
          -0.006530702114105225,
          0.1880825310945511,
          -0.19538602232933044,
          0.1644783616065979,
          0.02382591925561428,
          -0.19508549571037292,
          0.06854596734046936,
          -0.2108965665102005,
          -0.19021625816822052,
          -0.24233002960681915,
          -0.15269944071769714,
          -0.06540121883153915,
          0.0040013487450778484,
          -0.2158334106206894,
          -0.6237460970878601,
          -0.07859025150537491,
          -0.2943277657032013,
          0.13139256834983826,
          -0.25606489181518555,
          0.11043057590723038,
          -0.03584419935941696,
          0.0633394718170166,
          0.0707508996129036,
          0.1542195826768875
        ],
        [
          -0.09536318480968475,
          -0.15853114426136017,
          -0.20097561180591583,
          -1.2088996171951294,
          -0.0002123163576470688,
          -0.03241538256406784,
          -0.053993579000234604,
          -0.18293827772140503,
          -0.03569788858294487,
          -0.06697941571474075,
          1.6304854154586792,
          -0.009400741197168827,
          -0.0414544977247715,
          -0.20030885934829712,
          -0.1486111879348755,
          -0.6212016344070435,
          -0.12923632562160492,
          0.11931748688220978,
          0.04630478844046593,
          -0.09458178281784058,
          -0.11558938026428223,
          -0.16208748519420624,
          -0.2889084815979004,
          -0.08638668060302734,
          -0.14148351550102234,
          0.09207984805107117,
          -0.1884283572435379,
          -0.024096544831991196,
          -0.05869189649820328,
          -0.022529326379299164,
          -0.5407698750495911,
          -0.0405220128595829,
          -0.1975250393152237,
          0.14489436149597168,
          -0.6055808663368225,
          0.07845097035169601,
          -0.14634442329406738,
          -0.015829579904675484,
          0.915287435054779,
          0.0994671881198883,
          0.057039786130189896,
          -0.11300188302993774,
          0.02200249210000038,
          0.05482141673564911,
          -0.2361675202846527,
          -0.2707901895046234,
          -0.04002699255943298,
          -0.061506856232881546,
          0.07152972370386124,
          -0.20425768196582794,
          -0.24765215814113617,
          -0.44952213764190674,
          -0.18997493386268616,
          -0.1698617935180664,
          0.6068422794342041,
          -0.21676293015480042,
          -0.4188198149204254,
          0.6048688888549805,
          -0.3151102364063263,
          -0.03337736800312996,
          -0.06672488898038864,
          -0.4609805643558502,
          0.11308100819587708,
          -0.018858259543776512
        ],
        [
          -0.19806766510009766,
          -0.10677507519721985,
          0.16559404134750366,
          -0.3877393305301666,
          -0.032599251717329025,
          -0.02311033383011818,
          0.14361223578453064,
          0.03757414594292641,
          -0.24343031644821167,
          -0.15219533443450928,
          1.2357327938079834,
          -0.07781360298395157,
          -0.25899016857147217,
          0.25532281398773193,
          -0.03889242559671402,
          -0.14449365437030792,
          -0.3035670518875122,
          -0.006187943741679192,
          -0.12948429584503174,
          -0.2679537832736969,
          -0.19744737446308136,
          -0.04511066898703575,
          -3.0251646041870117,
          -0.29240843653678894,
          -0.2503185570240021,
          0.1575799584388733,
          0.04707641527056694,
          -0.04573764279484749,
          -0.1404886394739151,
          0.10388878732919693,
          0.6099673509597778,
          -0.14414985477924347,
          -0.18528194725513458,
          -0.2020064890384674,
          1.1761523485183716,
          -0.10649878531694412,
          -0.21781888604164124,
          -0.15121059119701385,
          0.14020007848739624,
          0.07035014033317566,
          -0.12726038694381714,
          -0.05282317101955414,
          0.16800586879253387,
          -0.18429124355316162,
          -0.2217036634683609,
          -0.054918963462114334,
          -0.31774476170539856,
          -0.10046873241662979,
          -0.22570939362049103,
          -0.018640154972672462,
          -0.06253216415643692,
          -0.6019904613494873,
          -0.04661031439900398,
          0.011549283750355244,
          -0.5897372364997864,
          -0.06633651256561279,
          -0.2799047529697418,
          -1.4898114204406738,
          -0.07060626149177551,
          -0.18638701736927032,
          -0.11545275896787643,
          -0.33072811365127563,
          0.07882426679134369,
          -0.040104325860738754
        ],
        [
          -0.20797964930534363,
          -0.12228932976722717,
          1.0049924850463867,
          -0.7499244809150696,
          -0.10036345571279526,
          -0.10401224344968796,
          -0.1468670517206192,
          -0.0562148317694664,
          -0.10863193869590759,
          -0.1432117074728012,
          -0.01431729830801487,
          -0.0347009114921093,
          -0.21932725608348846,
          0.03618878871202469,
          0.07834456861019135,
          0.5527174472808838,
          0.08312923461198807,
          0.16644173860549927,
          0.21002818644046783,
          0.18437466025352478,
          -0.1303805261850357,
          -0.041134897619485855,
          1.3465266227722168,
          -0.09181782603263855,
          -0.025620264932513237,
          0.13267305493354797,
          0.047774557024240494,
          -0.22695764899253845,
          -0.5268539786338806,
          -0.023429078981280327,
          0.4021739959716797,
          0.017893735319375992,
          -0.6215553283691406,
          0.044678736478090286,
          -0.6093801259994507,
          0.0435502789914608,
          0.14362819492816925,
          -0.1720433235168457,
          1.7191410064697266,
          -0.1328049600124359,
          -0.17481528222560883,
          0.139529287815094,
          -0.13423974812030792,
          -0.2802368104457855,
          -0.16602736711502075,
          -0.1558903604745865,
          0.04679873213171959,
          0.025340218096971512,
          0.12981346249580383,
          -0.21659475564956665,
          -0.059240639209747314,
          -0.42081865668296814,
          -0.18474312126636505,
          -0.045991674065589905,
          0.03778363764286041,
          -0.011188499629497528,
          -0.21191094815731049,
          1.0300509929656982,
          -0.11268837004899979,
          0.09476003050804138,
          -0.05973144993185997,
          -0.39349475502967834,
          0.013714348897337914,
          -0.11311693489551544
        ],
        [
          0.03181272745132446,
          0.018210815265774727,
          1.5549746751785278,
          0.5166181921958923,
          -0.044776562601327896,
          -0.17509245872497559,
          0.022576134651899338,
          0.08566319942474365,
          -0.2704925537109375,
          0.14512084424495697,
          -0.9536048173904419,
          0.03595755621790886,
          -0.1637793630361557,
          -0.21083907783031464,
          -0.051857840269804,
          -0.352710485458374,
          0.2870106101036072,
          0.10841092467308044,
          0.1221543401479721,
          -0.1540507972240448,
          -0.023703167214989662,
          0.12078943103551865,
          0.8924940824508667,
          0.03271137550473213,
          -0.15380801260471344,
          -0.05193467438220978,
          -0.09162844717502594,
          0.0767744779586792,
          -0.2929028272628784,
          -0.009961427189409733,
          0.2940227687358856,
          0.040786512196063995,
          0.09637966752052307,
          -0.12455472350120544,
          0.85336834192276,
          0.11019880324602127,
          -0.13810589909553528,
          -0.14920082688331604,
          0.6357942819595337,
          0.06081065908074379,
          -0.16309136152267456,
          -0.09816306829452515,
          0.10645588487386703,
          -0.26407450437545776,
          -0.1599750965833664,
          -0.0884014368057251,
          -0.24259842932224274,
          -0.17503084242343903,
          0.00829752255231142,
          -0.06523799896240234,
          0.059829652309417725,
          -0.18952882289886475,
          -0.010662902146577835,
          0.061776239424943924,
          -0.3482632040977478,
          -0.17196640372276306,
          -0.12070492655038834,
          2.1694912910461426,
          -0.16350242495536804,
          0.07173267006874084,
          -0.22083266079425812,
          -0.27518755197525024,
          -0.046104010194540024,
          -0.033575236797332764
        ],
        [
          -0.2571304738521576,
          0.04357597231864929,
          2.7590184211730957,
          -1.2092647552490234,
          0.07590056210756302,
          0.19059032201766968,
          -0.16356252133846283,
          0.04621432349085808,
          -0.21409820020198822,
          0.00926439929753542,
          -1.0341936349868774,
          -0.38366520404815674,
          -0.1640901118516922,
          0.1080540344119072,
          0.25838857889175415,
          -0.16887888312339783,
          -0.10892242193222046,
          -0.07916298508644104,
          0.1368236094713211,
          0.01611679047346115,
          -0.2668783664703369,
          -0.04367576166987419,
          -1.5694864988327026,
          -0.16570192575454712,
          -0.04644658416509628,
          -0.018112413585186005,
          0.12012475728988647,
          -0.12195874750614166,
          -0.1675604283809662,
          -0.2291368991136551,
          0.9969586730003357,
          -0.06447025388479233,
          0.6800705790519714,
          -0.19297657907009125,
          0.9234182834625244,
          -0.2684755027294159,
          -0.08146106451749802,
          0.07419780641794205,
          -0.26106971502304077,
          -0.07479333877563477,
          -0.18772973120212555,
          0.09472449868917465,
          -0.1630455106496811,
          -0.3034762740135193,
          0.06512513011693954,
          -0.09907220304012299,
          -0.22255779802799225,
          -0.16838571429252625,
          -0.04387674853205681,
          -0.0319298580288887,
          -0.015636447817087173,
          -0.2918846905231476,
          0.3886834979057312,
          -0.08235439658164978,
          -0.036710407584905624,
          -0.03063426911830902,
          0.22830669581890106,
          -6.728165626525879,
          -0.1259758025407791,
          -0.21508893370628357,
          -0.3886986970901489,
          -0.10505461692810059,
          -0.07591360062360764,
          -0.11158429831266403
        ],
        [
          0.06517547369003296,
          0.010248152539134026,
          -3.2348709106445312,
          -0.3215700685977936,
          0.13652303814888,
          0.0535355806350708,
          -0.11751770228147507,
          -0.2015257626771927,
          -0.3467402458190918,
          -0.032377779483795166,
          0.40310749411582947,
          0.07946638762950897,
          -0.00513719767332077,
          0.03748226910829544,
          -0.09168585389852524,
          -0.41403576731681824,
          0.09899305552244186,
          0.024143364280462265,
          -0.11663329601287842,
          0.17808130383491516,
          -0.25021249055862427,
          -0.19821476936340332,
          1.128198266029358,
          -0.1050296276807785,
          -0.09368422627449036,
          -0.16308675706386566,
          -0.23658418655395508,
          -0.03403152525424957,
          0.09096468240022659,
          -0.17533764243125916,
          1.5318580865859985,
          -0.0371190682053566,
          2.9999840259552,
          0.06600014865398407,
          -2.371145486831665,
          -0.0562790185213089,
          0.07877279072999954,
          -0.19547463953495026,
          -1.082592487335205,
          -0.007731529884040356,
          -0.18874363601207733,
          0.14371280372142792,
          -0.2274973839521408,
          0.14836588501930237,
          0.09507130086421967,
          -0.007161164190620184,
          -0.0702853798866272,
          -0.16888606548309326,
          -0.14358952641487122,
          -0.03539365157485008,
          -0.18610155582427979,
          -0.13260075449943542,
          -0.042993463575839996,
          -0.18103723227977753,
          -0.0035969906020909548,
          -0.13849972188472748,
          -0.21457034349441528,
          -0.17600181698799133,
          -0.2378907948732376,
          -0.18515639007091522,
          0.08628134429454803,
          -0.17542202770709991,
          -0.15836520493030548,
          -0.18463648855686188
        ],
        [
          0.01742074452340603,
          -0.10465431958436966,
          -0.37382927536964417,
          -0.5246208310127258,
          -0.07755594700574875,
          -0.07489891350269318,
          0.06094484031200409,
          -0.19199949502944946,
          -0.1427474319934845,
          -0.1621810644865036,
          1.7389713525772095,
          -0.009490775875747204,
          -0.23298384249210358,
          -0.24606853723526,
          -0.052406445145606995,
          -0.3872740864753723,
          -0.023137368261814117,
          0.06501324474811554,
          -0.15581810474395752,
          -0.0060538616962730885,
          0.12555262446403503,
          -0.13631778955459595,
          0.5141686797142029,
          -0.14480270445346832,
          0.12853726744651794,
          -0.05366840213537216,
          -0.06343251466751099,
          -0.02894461713731289,
          -0.1208375096321106,
          -0.09876258671283722,
          -1.2816797494888306,
          -0.07887546718120575,
          -0.5473577976226807,
          -0.07025272399187088,
          -0.5113204717636108,
          -0.22910258173942566,
          0.1355435699224472,
          0.02551574446260929,
          0.05073715001344681,
          0.12763698399066925,
          0.06845281273126602,
          -0.16715209186077118,
          0.018851522356271744,
          0.010653858073055744,
          0.013150185346603394,
          0.08784490078687668,
          -0.2643989324569702,
          0.013080249540507793,
          -0.025558702647686005,
          -0.10479283332824707,
          -0.11649463325738907,
          0.021654222160577774,
          -0.2541031241416931,
          0.082264743745327,
          -0.1655261218547821,
          0.05997837707400322,
          -0.4382328987121582,
          -1.1055816411972046,
          -0.3519279956817627,
          0.004053886514157057,
          -0.11708101630210876,
          -0.2050766795873642,
          0.07685938477516174,
          -0.07758092135190964
        ],
        [
          -0.13737443089485168,
          -0.054699044674634933,
          -0.9282432794570923,
          0.24775302410125732,
          -0.3030637502670288,
          0.06655604392290115,
          0.06192151457071304,
          0.07947218418121338,
          -0.21958696842193604,
          0.028719669207930565,
          0.15942484140396118,
          -0.07561790198087692,
          0.05869464576244354,
          -0.1396537870168686,
          0.1065702810883522,
          -0.33294448256492615,
          -0.05601390451192856,
          -0.10432051122188568,
          -0.0462072491645813,
          -0.09752065688371658,
          -0.15313467383384705,
          -0.09733361750841141,
          0.8329428434371948,
          0.022776834666728973,
          0.008069283328950405,
          -0.006551505532115698,
          0.08356263488531113,
          -0.1257043182849884,
          -0.560348629951477,
          -0.17020128667354584,
          -0.5109907984733582,
          -0.08993962407112122,
          0.19285257160663605,
          0.02584000676870346,
          0.6801574230194092,
          -0.3027515113353729,
          -0.12896305322647095,
          0.026750193908810616,
          -1.1188799142837524,
          -0.1252312958240509,
          0.07295840978622437,
          -0.0012523859040811658,
          0.0015719369985163212,
          -0.0673181414604187,
          -0.11206573247909546,
          -0.05700888857245445,
          0.043954137712717056,
          -0.22853384912014008,
          -0.09999876469373703,
          -0.11512576788663864,
          0.07049994170665741,
          -0.018351605162024498,
          -0.19322343170642853,
          -0.132258802652359,
          -0.3306626081466675,
          -0.22107763588428497,
          -0.32408782839775085,
          0.07767419517040253,
          -0.3612501621246338,
          -0.24099388718605042,
          -0.10362407565116882,
          0.03845735266804695,
          0.0023581450805068016,
          -0.19676923751831055
        ],
        [
          -0.07805624604225159,
          -0.03545147925615311,
          -0.8291823863983154,
          0.25994908809661865,
          -0.2702004313468933,
          -0.17294326424598694,
          -0.14384178817272186,
          -0.09670966863632202,
          -0.17812184989452362,
          -0.04370667785406113,
          0.2503505349159241,
          -0.26894721388816833,
          -0.26271647214889526,
          0.11116378009319305,
          -0.21919268369674683,
          -0.35728567838668823,
          -0.2508537173271179,
          -0.14165709912776947,
          0.06657134741544724,
          -0.12275253981351852,
          -0.1646198332309723,
          0.06537628918886185,
          0.8666015863418579,
          0.06274561583995819,
          0.05150528997182846,
          0.06661253422498703,
          -0.03601578623056412,
          -0.267654150724411,
          -0.18628916144371033,
          -0.18381191790103912,
          -0.27988868951797485,
          -0.25564754009246826,
          0.27064576745033264,
          -0.15024907886981964,
          0.8797407150268555,
          -0.548925518989563,
          -0.06419261544942856,
          -0.13194017112255096,
          -0.8239331841468811,
          -0.2455594390630722,
          -0.09716319292783737,
          -0.043216511607170105,
          -0.20050600171089172,
          -0.20966365933418274,
          -0.018813371658325195,
          -0.26432672142982483,
          0.07303017377853394,
          -0.17355923354625702,
          -0.1897205114364624,
          0.10700991004705429,
          -0.13156260550022125,
          -0.08445988595485687,
          -0.176596000790596,
          -0.00337209808640182,
          -0.26113730669021606,
          -0.22590087354183197,
          -0.3408294916152954,
          0.0485282801091671,
          -0.019385438412427902,
          -0.21099159121513367,
          -0.31106480956077576,
          0.03587900474667549,
          0.10927460342645645,
          -0.2070176750421524
        ],
        [
          0.0025570914149284363,
          0.15668877959251404,
          0.04205337539315224,
          0.12126272916793823,
          -0.12714220583438873,
          0.07209174335002899,
          0.09365204721689224,
          0.06184948980808258,
          0.060579635202884674,
          -0.11991988122463226,
          0.046158891171216965,
          0.05924336239695549,
          -0.11578840762376785,
          0.07423706352710724,
          0.05843985453248024,
          -0.11981775611639023,
          -0.12291257828474045,
          0.027173448354005814,
          -0.16831614077091217,
          -0.037680208683013916,
          0.15937240421772003,
          -0.11466106027364731,
          -0.18121740221977234,
          -0.17050394415855408,
          0.062339868396520615,
          -0.14803075790405273,
          0.13368737697601318,
          -0.10277765989303589,
          0.15039899945259094,
          -0.03850216418504715,
          -0.07951008528470993,
          0.05352246016263962,
          0.16026578843593597,
          0.15502412617206573,
          0.1941591054201126,
          0.15213166177272797,
          0.058763135224580765,
          0.17204435169696808,
          0.04286111891269684,
          0.18900032341480255,
          -0.10915196686983109,
          -0.09288065880537033,
          -0.10127853602170944,
          -0.03430945426225662,
          -0.14802050590515137,
          0.17120610177516937,
          -0.037575215101242065,
          -0.06425391882658005,
          -0.01527746394276619,
          -0.1400568187236786,
          0.028139622882008553,
          0.04300950467586517,
          0.0475030392408371,
          0.05645386129617691,
          -0.18972568213939667,
          0.023043129593133926,
          0.17902204394340515,
          -0.16500045359134674,
          -0.17386163771152496,
          -0.043066464364528656,
          0.14028513431549072,
          0.166106715798378,
          -0.10887062549591064,
          0.19071447849273682
        ],
        [
          0.020434819161891937,
          0.15444032847881317,
          0.1793896108865738,
          -0.0037026165518909693,
          -0.02601950243115425,
          -0.12725350260734558,
          -0.1518513411283493,
          0.17135868966579437,
          -0.16545763611793518,
          -0.037077512592077255,
          0.03382406756281853,
          0.08932463079690933,
          0.07600550353527069,
          -0.0004760806041304022,
          0.0756630003452301,
          -0.04424484074115753,
          0.14851024746894836,
          0.12697628140449524,
          0.00487723620608449,
          0.15122778713703156,
          -0.061906345188617706,
          0.046989865601062775,
          -0.16517171263694763,
          -0.1297461837530136,
          0.10073449462652206,
          0.0038101663812994957,
          -0.14861860871315002,
          -0.11804940551519394,
          0.028262080624699593,
          -0.14698635041713715,
          0.11508109420537949,
          0.027128780260682106,
          -0.028712645173072815,
          -0.18376830220222473,
          -0.011385355144739151,
          -0.0225431676954031,
          0.08859904855489731,
          -0.0990079790353775,
          0.0030529119540005922,
          0.12316130846738815,
          -0.14290626347064972,
          -0.055028773844242096,
          0.08282370120286942,
          -0.07300510257482529,
          -0.13819220662117004,
          0.10964815318584442,
          -0.06056491285562515,
          -0.19182872772216797,
          -0.1693449318408966,
          0.0376058854162693,
          -0.11676432937383652,
          0.053781427443027496,
          0.15177203714847565,
          0.06274209916591644,
          0.020711202174425125,
          -0.19549350440502167,
          -0.07059521973133087,
          0.046704716980457306,
          0.17781931161880493,
          -0.12990136444568634,
          -0.1771470159292221,
          -0.11792884767055511,
          -0.07595111429691315,
          -0.03184821084141731
        ],
        [
          -0.0371888168156147,
          0.03240036219358444,
          -0.9986685514450073,
          1.728416919708252,
          0.04771469160914421,
          -0.1615675687789917,
          -0.18202656507492065,
          -0.05263839662075043,
          -0.25452548265457153,
          -0.07216764986515045,
          -2.9589693546295166,
          0.0572088286280632,
          0.10426606982946396,
          -0.0641091912984848,
          -0.08494900166988373,
          -0.5939997434616089,
          0.0025863582268357277,
          -0.03497062996029854,
          0.04322308674454689,
          -0.10316559672355652,
          -0.04927097260951996,
          0.03654087334871292,
          -0.19166989624500275,
          0.0677315890789032,
          -0.04830936715006828,
          -0.07673647999763489,
          -0.11439098417758942,
          -0.18629735708236694,
          -0.10240441560745239,
          -0.18083474040031433,
          3.4176487922668457,
          -0.023942992091178894,
          2.9172799587249756,
          -0.01606970652937889,
          0.6127475500106812,
          -0.2970353066921234,
          0.0394739992916584,
          -0.053383730351924896,
          -1.84244966506958,
          0.1096288412809372,
          0.05731063336133957,
          -0.16876564919948578,
          -0.2434723973274231,
          -0.2404869645833969,
          0.05429334565997124,
          0.038061462342739105,
          0.0025214373599737883,
          0.07093540579080582,
          -0.0622129924595356,
          0.08133866637945175,
          -0.06327766925096512,
          -0.2645859122276306,
          -0.06411726772785187,
          -0.08574117720127106,
          -0.29972755908966064,
          -0.21435034275054932,
          -0.05772247910499573,
          3.240288257598877,
          0.09145994484424591,
          0.1430608630180359,
          -0.3537871241569519,
          -0.35519474744796753,
          -0.18888403475284576,
          -0.2111363261938095
        ],
        [
          -0.09144867211580276,
          -0.06802847981452942,
          -0.10784409195184708,
          0.1369236260652542,
          -0.27968069911003113,
          -0.023780599236488342,
          -0.028112413361668587,
          -0.16779063642024994,
          -0.2287595570087433,
          -0.1765620857477188,
          -0.5253555178642273,
          -0.12537677586078644,
          0.04324983060359955,
          -0.12912988662719727,
          -0.07141278684139252,
          -0.6006104350090027,
          -0.19676031172275543,
          0.06972270458936691,
          -0.24194243550300598,
          -0.18935921788215637,
          -0.07623128592967987,
          0.029170356690883636,
          0.6655795574188232,
          -0.031982019543647766,
          -0.20015430450439453,
          -0.0642625242471695,
          0.09837622195482254,
          -0.258052259683609,
          -0.1524640917778015,
          -0.20251506567001343,
          0.7388648986816406,
          -0.20656542479991913,
          -0.07460751384496689,
          -0.12804824113845825,
          -0.6970892548561096,
          -0.08213788270950317,
          0.08583582937717438,
          -0.016161972656846046,
          -0.18181179463863373,
          -0.08752164244651794,
          0.03186078742146492,
          -0.05744098871946335,
          -0.27283233404159546,
          -0.17856599390506744,
          0.09806206077337265,
          0.06826549023389816,
          0.0479716956615448,
          -0.10413287580013275,
          -0.24677492678165436,
          -0.07305975258350372,
          0.11984102427959442,
          -0.2764382064342499,
          -0.23809070885181427,
          -0.2674582302570343,
          -0.33670639991760254,
          -0.045445773750543594,
          -0.3445866107940674,
          1.0735827684402466,
          -0.27610263228416443,
          -0.038959138095378876,
          -0.32248982787132263,
          -0.1934477984905243,
          0.05799505114555359,
          0.11487802863121033
        ],
        [
          0.10137177258729935,
          -0.01739170402288437,
          -0.10490693897008896,
          0.04577533155679703,
          -0.09897411614656448,
          0.013487500138580799,
          0.10586594045162201,
          -0.012653801590204239,
          -0.2753722667694092,
          0.07481550425291061,
          -0.5768503546714783,
          -0.3650081753730774,
          -0.08070286363363266,
          -0.08479691296815872,
          0.17118625342845917,
          -0.6146005988121033,
          -0.14535066485404968,
          -0.1241489127278328,
          0.07630830258131027,
          -0.18951934576034546,
          -0.2005762904882431,
          -0.06018901988863945,
          0.6064590215682983,
          0.009484998881816864,
          -0.19381898641586304,
          -0.19550101459026337,
          -0.02460227720439434,
          -0.00813596323132515,
          -0.1830938458442688,
          0.06989531964063644,
          0.5307000875473022,
          0.0661710649728775,
          -0.17825278639793396,
          0.010401515290141106,
          -0.6062581539154053,
          -0.3049302399158478,
          -0.1347607523202896,
          -0.019810309633612633,
          -0.03919924423098564,
          -0.06326701492071152,
          0.08732887357473373,
          0.16760578751564026,
          -0.15546128153800964,
          -0.07335030287504196,
          0.0802030935883522,
          -0.24342714250087738,
          -0.12387602031230927,
          -0.11765415966510773,
          0.05726943165063858,
          0.0770953819155693,
          -0.210123211145401,
          -0.42932987213134766,
          0.0604734867811203,
          0.047196656465530396,
          -0.31613922119140625,
          0.08711254596710205,
          -0.2897956371307373,
          1.3013790845870972,
          -0.1452787071466446,
          -0.2293914556503296,
          -0.03111053630709648,
          -0.1558162420988083,
          -0.19525185227394104,
          -0.09762747585773468
        ],
        [
          -0.19181561470031738,
          -0.14853307604789734,
          -0.04264393448829651,
          0.16274870932102203,
          0.10995689034461975,
          -0.12627020478248596,
          0.17306259274482727,
          -0.1328045129776001,
          0.13339263200759888,
          0.08011581003665924,
          0.006566183641552925,
          0.060125190764665604,
          0.14222408831119537,
          -0.08737768232822418,
          -0.18279100954532623,
          0.04110588878393173,
          -0.0404488705098629,
          0.016612432897090912,
          -0.08421029895544052,
          -0.1448853611946106,
          -0.016052164137363434,
          0.09432577341794968,
          -0.052267689257860184,
          0.06383481621742249,
          -0.037592705339193344,
          0.10956012457609177,
          0.07025725394487381,
          -0.13224990665912628,
          -0.13877782225608826,
          -0.046868547797203064,
          0.010685453191399574,
          -0.11828847229480743,
          -0.1561555713415146,
          -0.040327806025743484,
          -0.18887722492218018,
          -0.127069354057312,
          0.055100779980421066,
          -0.18438062071800232,
          0.17379936575889587,
          0.041396863758563995,
          0.15483367443084717,
          -0.16671165823936462,
          0.1870688796043396,
          -0.09311375766992569,
          0.16231471300125122,
          0.06343261897563934,
          -0.1559063047170639,
          -0.19034487009048462,
          0.11594697833061218,
          -0.1559790074825287,
          0.07963773608207703,
          0.07098438590765,
          0.06864199787378311,
          0.05379195511341095,
          -0.01989949494600296,
          -0.02828947640955448,
          -0.00033292465377599,
          -0.1800771951675415,
          0.11961379647254944,
          0.1289394497871399,
          0.178803488612175,
          0.11659491062164307,
          0.06016527861356735,
          0.0511627234518528
        ],
        [
          0.11894923448562622,
          -0.1436004638671875,
          0.09263455122709274,
          -0.09089387208223343,
          -0.1095045804977417,
          0.06311143934726715,
          0.17638297379016876,
          -0.16114990413188934,
          0.015275318175554276,
          -0.07047832012176514,
          0.02725197561085224,
          0.19024477899074554,
          0.015430061146616936,
          -0.0689031332731247,
          -0.10658148676156998,
          0.009987875819206238,
          0.002153803128749132,
          0.16570648550987244,
          -0.03907157853245735,
          -0.15137720108032227,
          -0.15794508159160614,
          -0.12826894223690033,
          0.09597527980804443,
          0.16898061335086823,
          -0.007561620324850082,
          -0.024325601756572723,
          0.11938479542732239,
          -0.021786775439977646,
          0.16629669070243835,
          0.009230861440300941,
          -0.14334242045879364,
          -0.06702017784118652,
          -0.013745165430009365,
          0.1392505019903183,
          -0.03747138753533363,
          0.03715548664331436,
          -0.04373451694846153,
          -0.1812126785516739,
          0.10886529088020325,
          -0.13785281777381897,
          -0.11828366667032242,
          0.09937601536512375,
          -0.18310806155204773,
          0.021471375599503517,
          -0.12727883458137512,
          -0.09452041238546371,
          -0.06077348813414574,
          -0.032111331820487976,
          0.1781628131866455,
          0.16596828401088715,
          0.03775756061077118,
          -0.13573341071605682,
          0.07217702269554138,
          -0.14378434419631958,
          0.12840458750724792,
          0.181631937623024,
          0.13465389609336853,
          0.025438940152525902,
          -0.03519020229578018,
          0.19364358484745026,
          -0.1710718423128128,
          0.100717693567276,
          0.06836791336536407,
          -0.1324782371520996
        ],
        [
          0.04896849766373634,
          -0.0674804076552391,
          4.025909423828125,
          -0.07942194491624832,
          -0.7827688455581665,
          0.15409530699253082,
          -0.2880799174308777,
          -0.19385382533073425,
          0.3835966885089874,
          -0.1110832616686821,
          2.3414695262908936,
          0.08347427099943161,
          -0.19347324967384338,
          0.08967433124780655,
          -0.14287985861301422,
          -0.37365350127220154,
          0.0853700339794159,
          0.07001369446516037,
          0.1524202674627304,
          -0.09491119533777237,
          -0.09077782183885574,
          0.13652801513671875,
          0.5448907613754272,
          -0.0330110639333725,
          0.00487034535035491,
          -0.1314159631729126,
          -0.06883082538843155,
          -0.11688687652349472,
          0.42574021220207214,
          0.05784279853105545,
          -3.489116907119751,
          -0.04036109521985054,
          -2.7887840270996094,
          0.1956324428319931,
          -2.8427841663360596,
          -0.06432251632213593,
          -0.06289978325366974,
          0.0506490133702755,
          -2.2325544357299805,
          0.0055404845625162125,
          -0.22719894349575043,
          0.03158717229962349,
          -0.14273008704185486,
          -0.06203349679708481,
          -0.18050895631313324,
          0.043006837368011475,
          -0.21465043723583221,
          -0.15217839181423187,
          -0.13703346252441406,
          -0.14982759952545166,
          0.23213644325733185,
          -0.14274819195270538,
          0.00719743687659502,
          -0.15734952688217163,
          -0.40643858909606934,
          0.14785434305667877,
          -0.0036008297465741634,
          0.7465419769287109,
          0.014001918025314808,
          0.11168145388364792,
          -0.09739699959754944,
          0.3560871481895447,
          -0.14224965870380402,
          -0.1070781946182251
        ],
        [
          -0.2779580354690552,
          -0.07767190039157867,
          1.9067497253417969,
          -1.2706600427627563,
          -0.09375833719968796,
          -0.08795878291130066,
          -0.2635851204395294,
          0.12032526731491089,
          0.031370509415864944,
          -0.1259755790233612,
          -1.6780421733856201,
          -0.2258385568857193,
          0.044959552586078644,
          0.0019946557004004717,
          -0.18092256784439087,
          -0.1817426234483719,
          -0.15012535452842712,
          -0.08674495667219162,
          0.026089048013091087,
          -0.08531511574983597,
          -0.030925074592232704,
          0.13819760084152222,
          -1.4732201099395752,
          0.09669170528650284,
          0.18364620208740234,
          -0.1129245012998581,
          -0.2617846429347992,
          -0.2210364043712616,
          0.12903910875320435,
          0.05886146426200867,
          -0.24951156973838806,
          -0.0371573381125927,
          1.8822413682937622,
          -0.06739648431539536,
          0.7392796277999878,
          -0.03151451796293259,
          -0.07173022627830505,
          -0.05026628449559212,
          0.7599321007728577,
          0.18659113347530365,
          -0.1357841044664383,
          0.027043744921684265,
          -0.14726951718330383,
          -0.11529850959777832,
          -0.07543381303548813,
          -0.15642179548740387,
          -0.1538027673959732,
          -0.14607249200344086,
          -0.02102889120578766,
          0.07077966630458832,
          -0.1037004366517067,
          0.3379698097705841,
          0.07204023003578186,
          -0.14324013888835907,
          -0.5777043104171753,
          0.06967786699533463,
          -0.08383654057979584,
          -2.35513973236084,
          0.10191696882247925,
          0.04697319492697716,
          0.03740782290697098,
          0.26229265332221985,
          -0.13604293763637543,
          -0.1417953372001648
        ],
        [
          -0.0766012892127037,
          -0.053921476006507874,
          2.1518356800079346,
          -0.5374189615249634,
          -0.06813642382621765,
          -0.071803979575634,
          -0.24856151640415192,
          -0.07382620126008987,
          -0.16572585701942444,
          0.07899051904678345,
          0.5203662514686584,
          -0.2883659899234772,
          -0.05045579746365547,
          -0.10965048521757126,
          -0.07865748554468155,
          -0.4809480309486389,
          -0.19057835638523102,
          0.0391293428838253,
          -0.2518104016780853,
          -0.07854580879211426,
          0.029667004942893982,
          -0.16051019728183746,
          1.841505765914917,
          -0.12710845470428467,
          0.19078262150287628,
          -0.2171475738286972,
          0.0875210091471672,
          0.11595628410577774,
          -0.2454802691936493,
          0.09033029526472092,
          -2.666111469268799,
          -0.19197355210781097,
          -0.6116591095924377,
          -0.12176442891359329,
          -0.21297065913677216,
          0.07535439729690552,
          -0.04355746880173683,
          0.07126341015100479,
          0.3303963541984558,
          -0.09418416768312454,
          -0.1176428496837616,
          -0.18561512231826782,
          -0.07886434346437454,
          -0.15204918384552002,
          0.06993548572063446,
          -0.13345983624458313,
          0.05251491442322731,
          -0.06734060496091843,
          -0.07648993283510208,
          -0.23921966552734375,
          0.07650970667600632,
          0.6266159415245056,
          0.0053928610868752,
          -0.19266922771930695,
          -0.4225640892982483,
          -0.26653221249580383,
          -0.23815369606018066,
          -0.6019541025161743,
          -0.01005370169878006,
          0.15320609509944916,
          -0.2669875919818878,
          -0.05047178268432617,
          0.05208826810121536,
          -0.1167631596326828
        ],
        [
          -0.030944107100367546,
          -0.0029319722671061754,
          -4.514619827270508,
          -0.26330238580703735,
          -0.2923375964164734,
          -0.1582280546426773,
          -0.062281426042318344,
          -0.1376633644104004,
          -0.09729102998971939,
          -0.11803053319454193,
          0.9102152585983276,
          -0.0723886638879776,
          -0.01698138564825058,
          0.0922577902674675,
          -0.2079421430826187,
          -0.4737182855606079,
          -0.2201424539089203,
          0.022305645048618317,
          -0.17674513161182404,
          -0.04013991355895996,
          0.18637384474277496,
          0.12580300867557526,
          1.7145634889602661,
          0.007734040729701519,
          -0.007726210169494152,
          -0.09410490095615387,
          -0.06487930566072464,
          -0.023148188367486,
          -0.32464563846588135,
          0.02652483806014061,
          1.799511194229126,
          -0.1295234113931656,
          0.17049087584018707,
          0.020531654357910156,
          -0.917923092842102,
          -0.09887911379337311,
          0.19555991888046265,
          -0.006186178885400295,
          -1.7390421628952026,
          -0.17714819312095642,
          -0.13091333210468292,
          -0.07395187020301819,
          -0.1375667005777359,
          0.011892616748809814,
          0.03573564812541008,
          0.10321388393640518,
          -0.23356683552265167,
          -0.20414483547210693,
          -0.11637207865715027,
          -0.17413468658924103,
          -0.06883394718170166,
          0.6286436915397644,
          0.23527903854846954,
          -0.09697923064231873,
          -0.003220135346055031,
          0.14296983182430267,
          -0.32831060886383057,
          -0.7709864974021912,
          0.19914476573467255,
          0.11187372356653214,
          -0.2896130681037903,
          0.0114332539960742,
          -0.22324331104755402,
          -0.1655433177947998
        ],
        [
          -0.07047127932310104,
          -0.1109757199883461,
          -0.08202420175075531,
          0.17945927381515503,
          -0.11626026779413223,
          -0.19335922598838806,
          -0.012438185513019562,
          -0.1944701373577118,
          0.11909902095794678,
          0.15403468906879425,
          0.07911159843206406,
          -0.006655735895037651,
          -0.09820818156003952,
          0.1699083000421524,
          0.08102372288703918,
          0.006172988563776016,
          0.16998901963233948,
          0.15591515600681305,
          -0.10370869934558868,
          -0.1831619143486023,
          0.1553826779127121,
          -0.0701860710978508,
          0.1917201429605484,
          0.01843981258571148,
          -0.19174334406852722,
          0.03231271356344223,
          0.1809481978416443,
          -0.17147161066532135,
          0.14132589101791382,
          0.1630353182554245,
          -0.10647889971733093,
          -0.1406824290752411,
          -0.04272449016571045,
          -0.11267782002687454,
          -0.14411889016628265,
          0.19236546754837036,
          0.060421399772167206,
          0.01989303156733513,
          0.13095365464687347,
          0.01900695450603962,
          0.03919392079114914,
          -0.10874200612306595,
          0.0487106628715992,
          -0.13572534918785095,
          0.0318843238055706,
          0.08302094042301178,
          0.07779756188392639,
          0.09060895442962646,
          -0.12840773165225983,
          -0.1358765959739685,
          0.009570708498358727,
          0.08544483035802841,
          0.10185214132070541,
          0.1714630275964737,
          -0.02006353810429573,
          -0.16554488241672516,
          -0.14079692959785461,
          -0.17158083617687225,
          0.1836409866809845,
          0.027049962431192398,
          0.052845027297735214,
          0.01946629211306572,
          0.004122904036194086,
          -0.16649189591407776
        ],
        [
          -0.09694144129753113,
          0.17320284247398376,
          -0.16491901874542236,
          0.15794490277767181,
          -0.10937275737524033,
          0.08292222768068314,
          -0.14778730273246765,
          0.1197906881570816,
          -0.0106348916888237,
          0.19333729147911072,
          -0.17303991317749023,
          -0.05278034880757332,
          0.04325896501541138,
          0.121367909014225,
          0.09170278161764145,
          -0.18645378947257996,
          0.12920592725276947,
          0.1244075670838356,
          0.14617668092250824,
          -0.1712707132101059,
          -0.0956411063671112,
          0.08798247575759888,
          -0.17587442696094513,
          0.14532694220542908,
          -0.036085836589336395,
          0.16239354014396667,
          0.15388630330562592,
          0.18792608380317688,
          -0.19333593547344208,
          -0.01559288240969181,
          -0.14636099338531494,
          0.050192900002002716,
          0.1930728256702423,
          0.03088575042784214,
          0.03668937087059021,
          0.1292465478181839,
          0.11117284744977951,
          -0.14677703380584717,
          -0.1935759335756302,
          0.04977703094482422,
          -0.15226511657238007,
          0.16593270003795624,
          -0.1826491802930832,
          -0.19064968824386597,
          0.00019612560572568327,
          -0.03329463675618172,
          -0.017584824934601784,
          -0.19183775782585144,
          0.08191799372434616,
          0.09998048841953278,
          -0.09564420580863953,
          -0.02477654628455639,
          -0.09186510741710663,
          -0.037095215171575546,
          0.160688117146492,
          -0.05835192650556564,
          0.03511080518364906,
          0.11003143340349197,
          0.12416565418243408,
          -0.11837391555309296,
          -0.04023201763629913,
          -0.056404076516628265,
          0.13083462417125702,
          0.12169738858938217
        ],
        [
          -0.010559674352407455,
          -0.05848435312509537,
          -2.7661430835723877,
          0.0807398185133934,
          -0.09509512037038803,
          -0.045970264822244644,
          -0.16106680035591125,
          -0.10547730326652527,
          0.1602214276790619,
          0.04467559605836868,
          -1.7250181436538696,
          -0.16300839185714722,
          -0.11676302552223206,
          -0.22968308627605438,
          0.007637807633727789,
          -0.12723813951015472,
          0.22499659657478333,
          0.06431006640195847,
          -0.02295585721731186,
          0.06569863855838776,
          0.20174789428710938,
          0.07607191056013107,
          -10.168950080871582,
          -0.22032685577869415,
          -0.010190685279667377,
          -0.08025569468736649,
          -0.18620826303958893,
          -0.1995042860507965,
          0.19367781281471252,
          0.022846736013889313,
          -0.16224516928195953,
          0.045126598328351974,
          4.046449661254883,
          0.00789541658014059,
          2.3787319660186768,
          -0.4103689193725586,
          0.15917952358722687,
          0.014855952933430672,
          3.4672374725341797,
          0.1021842509508133,
          0.0666574016213417,
          0.10137679427862167,
          -0.03213019669055939,
          -0.10774694383144379,
          -0.1079033613204956,
          -0.13783569633960724,
          0.09594505280256271,
          -0.023450369015336037,
          -0.13620108366012573,
          -0.17834822833538055,
          -0.07136597484350204,
          -0.10790698230266571,
          -0.3367094099521637,
          -0.13151782751083374,
          0.44571617245674133,
          -0.2372250109910965,
          0.20865711569786072,
          -0.9196585416793823,
          0.22095496952533722,
          0.11740269511938095,
          -0.10713915526866913,
          0.022148605436086655,
          -0.015435856766998768,
          -0.09600967913866043
        ],
        [
          0.011579437181353569,
          -0.02031218260526657,
          5.407605171203613,
          -3.3285887241363525,
          0.2542021572589874,
          0.10960888117551804,
          -0.19676171243190765,
          -0.18605265021324158,
          0.37844452261924744,
          -0.26523786783218384,
          1.5622223615646362,
          0.14248263835906982,
          -0.08936629444360733,
          -0.08382360637187958,
          -0.10926911979913712,
          0.4712192118167877,
          -0.03767191991209984,
          0.13097307085990906,
          -0.03184688836336136,
          0.10706671327352524,
          -0.1358218640089035,
          -0.1562911868095398,
          -9.441109657287598,
          -0.2613367736339569,
          -0.0769563615322113,
          0.10356702655553818,
          -0.2676979601383209,
          0.056763384491205215,
          0.33006158471107483,
          0.04311274364590645,
          -3.6848926544189453,
          0.06468316167593002,
          2.0882837772369385,
          0.10334927588701248,
          1.8517024517059326,
          -0.27074378728866577,
          -0.12614867091178894,
          0.17709434032440186,
          0.3651633560657501,
          0.13023769855499268,
          -0.00792986061424017,
          -0.06671860069036484,
          -0.006655209232121706,
          0.04868685454130173,
          -0.07176468521356583,
          -0.06686898320913315,
          -0.19300346076488495,
          -0.06389660388231277,
          -0.1776888519525528,
          -0.15436677634716034,
          0.1934540569782257,
          -0.10959198325872421,
          -0.2471407651901245,
          -0.10592806339263916,
          1.1367396116256714,
          -0.23019476234912872,
          -0.19761382043361664,
          -0.6857067346572876,
          0.2827542722225189,
          0.03014717809855938,
          -0.18414726853370667,
          0.3627668619155884,
          0.08689248561859131,
          0.05769497528672218
        ],
        [
          0.0974397137761116,
          -0.03591359779238701,
          -3.388768434524536,
          -2.5372183322906494,
          -0.1208130419254303,
          -0.01305085327476263,
          0.07129223644733429,
          -0.17188990116119385,
          -0.09253548085689545,
          -0.050768472254276276,
          -0.17025819420814514,
          -0.49331390857696533,
          -0.045370910316705704,
          0.06859656423330307,
          -0.03492850810289383,
          -0.06065475940704346,
          -0.08113276213407516,
          0.13803939521312714,
          -0.05196191370487213,
          -0.13173623383045197,
          0.05563877522945404,
          -0.06846065819263458,
          -0.5944140553474426,
          -0.14537690579891205,
          -0.19629646837711334,
          -0.191531702876091,
          -0.30129215121269226,
          0.052900280803442,
          -0.2892930805683136,
          0.027120785787701607,
          -0.7268465757369995,
          0.00864465069025755,
          -1.5683764219284058,
          0.04186156019568443,
          1.3284685611724854,
          0.05455333739519119,
          -0.17466802895069122,
          0.1463385671377182,
          4.430488109588623,
          0.01073776837438345,
          -0.2126065343618393,
          -0.07038949429988861,
          -0.09619088470935822,
          -0.20769880712032318,
          -0.009010463021695614,
          -0.18677924573421478,
          -0.29229313135147095,
          -0.14646132290363312,
          0.0562460832297802,
          0.07683657109737396,
          -0.12938916683197021,
          -0.5176111459732056,
          0.0035997238010168076,
          -0.13345006108283997,
          0.11346255242824554,
          0.1166074350476265,
          0.01640988513827324,
          -0.36655446887016296,
          0.056866977363824844,
          -0.03268330544233322,
          0.3498695194721222,
          -0.6500356197357178,
          -0.15765473246574402,
          0.07991408556699753
        ],
        [
          -0.008882112801074982,
          0.07717739790678024,
          0.31123095750808716,
          -1.613083004951477,
          0.0388605035841465,
          0.021982692182064056,
          -0.18220607936382294,
          -0.1320309191942215,
          0.14448487758636475,
          -0.17570237815380096,
          2.807685613632202,
          0.14145199954509735,
          0.1363755613565445,
          -0.06270547211170197,
          -0.07725780457258224,
          0.2592087388038635,
          0.18039041757583618,
          -0.1294112652540207,
          0.027611952275037766,
          -0.014902700670063496,
          0.0856967493891716,
          0.09897082298994064,
          -3.6297926902770996,
          -0.2283279001712799,
          -0.0628962442278862,
          0.04942202568054199,
          -0.2213212251663208,
          -0.16170060634613037,
          0.0040450189262628555,
          -0.15775293111801147,
          -0.518062174320221,
          -0.09091752022504807,
          2.4154903888702393,
          -0.12690019607543945,
          0.12648102641105652,
          0.19331398606300354,
          0.17776420712471008,
          -0.09301881492137909,
          -4.47405481338501,
          -0.08305821567773819,
          0.01389141846448183,
          0.0016154265031218529,
          -0.009929180145263672,
          -0.19372862577438354,
          -0.13777530193328857,
          0.0629362091422081,
          -0.1980268359184265,
          -0.039720840752124786,
          -0.029566219076514244,
          0.16596463322639465,
          0.03628847002983093,
          -0.6737155914306641,
          -0.25077685713768005,
          -0.05584661290049553,
          -0.049256518483161926,
          -0.22683118283748627,
          -0.1699439436197281,
          0.2246735841035843,
          -0.08403412997722626,
          0.18407979607582092,
          0.32076629996299744,
          -0.43877077102661133,
          -0.236558198928833,
          -0.053205229341983795
        ],
        [
          -0.05984508618712425,
          0.19539059698581696,
          0.0699937641620636,
          0.14474093914031982,
          0.1941359043121338,
          0.11252796649932861,
          -0.1878054291009903,
          0.06759093701839447,
          0.1255711019039154,
          -0.11307449638843536,
          -0.01586168073117733,
          -0.19139134883880615,
          -0.16544148325920105,
          -0.12359451502561569,
          -0.1551266759634018,
          0.031231945380568504,
          0.0323723629117012,
          -0.09555791318416595,
          0.19430890679359436,
          0.16669926047325134,
          -0.15606847405433655,
          -0.09869751334190369,
          -0.11073637753725052,
          -0.14959374070167542,
          -0.019934024661779404,
          -0.02663453482091427,
          0.11551674455404282,
          0.0015340459067374468,
          0.08070804923772812,
          0.10214262455701828,
          0.1080169528722763,
          0.17304342985153198,
          -0.12999573349952698,
          -0.05982966721057892,
          0.1263352483510971,
          0.0692620649933815,
          0.1255815476179123,
          0.1519128829240799,
          -0.029554065316915512,
          0.016359178349375725,
          0.07460977137088776,
          0.1333448439836502,
          -0.08490382879972458,
          -0.06965076923370361,
          0.048553306609392166,
          -0.0907425656914711,
          -0.03936989977955818,
          -0.0814351961016655,
          -0.1008090227842331,
          -0.026600169017910957,
          0.15090785920619965,
          0.06172187253832817,
          -0.04960814118385315,
          -0.012847227975726128,
          -0.09680282324552536,
          0.07845527678728104,
          0.04510610178112984,
          0.08743983507156372,
          -0.10345114022493362,
          0.01896984875202179,
          0.1830500066280365,
          -0.04891645535826683,
          -0.04215975105762482,
          -0.13488566875457764
        ],
        [
          -0.04266754910349846,
          0.15145204961299896,
          -0.16400492191314697,
          0.06539569050073624,
          -0.14399877190589905,
          0.04826825112104416,
          0.020755397155880928,
          -0.18934088945388794,
          -0.17154991626739502,
          0.013828069902956486,
          -0.029509086161851883,
          0.17924663424491882,
          -0.162312850356102,
          0.16947349905967712,
          -0.12687085568904877,
          0.16605350375175476,
          0.0949782133102417,
          -0.1771458089351654,
          0.07542329281568527,
          -0.0026639350689947605,
          0.10826952010393143,
          0.053691964596509933,
          -0.09407598525285721,
          0.15262159705162048,
          -0.19667313992977142,
          -0.07114293426275253,
          0.1534188985824585,
          0.05185335874557495,
          0.10042283684015274,
          -0.18825523555278778,
          0.1304347962141037,
          0.024124447256326675,
          -0.1074141412973404,
          -0.1106395572423935,
          0.13325193524360657,
          0.1508919894695282,
          -0.1670967936515808,
          0.10338498651981354,
          -0.1474037915468216,
          0.07678073644638062,
          0.18974372744560242,
          0.0071812462992966175,
          -0.13214121758937836,
          0.1502702385187149,
          0.06521538645029068,
          -0.10222228616476059,
          -0.11796018481254578,
          -0.14307740330696106,
          -0.049425654113292694,
          -0.18538202345371246,
          0.050318967550992966,
          0.08543825149536133,
          0.1623414307832718,
          0.08522092550992966,
          -0.0031936855521053076,
          -0.19553028047084808,
          -0.0888623520731926,
          -0.057333625853061676,
          -0.012174548581242561,
          0.03581931069493294,
          0.047724649310112,
          -0.09290558844804764,
          -0.08285938203334808,
          0.010043264366686344
        ],
        [
          -0.01740792579948902,
          0.035462819039821625,
          3.312513828277588,
          -5.719743251800537,
          -0.5441367030143738,
          -0.11331876367330551,
          0.1127917617559433,
          0.1600543111562729,
          0.9162974953651428,
          -0.15790808200836182,
          10.393750190734863,
          0.44291913509368896,
          -0.0604746975004673,
          0.010740231722593307,
          -0.1618991643190384,
          -0.36455968022346497,
          -0.34453538060188293,
          0.09132729470729828,
          -0.18213847279548645,
          -0.03192545846104622,
          -0.024247586727142334,
          -0.1514490246772766,
          12.901193618774414,
          -0.23112916946411133,
          0.06579157710075378,
          0.07225397229194641,
          -0.21077190339565277,
          -0.2688305377960205,
          0.7307562232017517,
          -0.007901494391262531,
          -16.010549545288086,
          0.11347617208957672,
          -18.90341567993164,
          -0.14931097626686096,
          -3.7896888256073,
          0.4397364854812622,
          -0.016827410086989403,
          -0.11703568696975708,
          -20.34816551208496,
          0.12639914453029633,
          -0.17304779589176178,
          -0.05875737965106964,
          0.01326267421245575,
          0.12398359924554825,
          -0.003738424740731716,
          0.030606264248490334,
          0.09145247936248779,
          -0.08064044266939163,
          -0.08505897223949432,
          -0.16924236714839935,
          -0.024674978107213974,
          -0.18485461175441742,
          -0.19873523712158203,
          0.11546041071414948,
          -0.7129018902778625,
          0.12681415677070618,
          0.031138690188527107,
          0.02370242029428482,
          -0.5663439631462097,
          0.06067468225955963,
          0.315971702337265,
          0.3606657087802887,
          0.15319861471652985,
          0.18044035136699677
        ],
        [
          0.0290888212621212,
          -0.17517419159412384,
          3.80416202545166,
          -1.7571734189987183,
          -0.17427831888198853,
          0.09918688982725143,
          0.046542517840862274,
          -0.04332275688648224,
          0.11244375258684158,
          0.05585737153887749,
          0.7859529852867126,
          0.09428688883781433,
          -0.09891864657402039,
          -0.05243911221623421,
          -0.11251023411750793,
          -0.2600703537464142,
          -0.39538535475730896,
          -0.08016780763864517,
          0.19159428775310516,
          0.13482877612113953,
          0.08980725705623627,
