{
  "version": 1,
  "kind": "legal_action_mlp",
  "feature_schema_version": "goat_state_features_v1",
  "action_schema_version": "goat_action_features_v1",
  "input_size": 91,
  "seed": 808,
  "dataset_hash": "deae2f44",
  "training_config": {
    "algorithm": "ladder_supervised_policy_v1",
    "target_tier": "pro",
    "tiers": [
      "pro"
    ],
    "episodes": 2000,
    "iterations": 3,
    "epochs_per_iteration": 8,
    "batch_size": 64,
    "learning_rate": 0.01,
    "max_ticks": 900,
    "max_negatives_per_decision": 8,
    "dataset_sources": [
      {
        "path": "/home/runner/work/edge_royale/edge_royale/artifacts/training/runs/daily-25276131849/datasets/pro/shard-001.json",
        "dataset_hash": "ab48d89f",
        "episode_count": 500,
        "sample_count": 6381,
        "row_summary": {
          "rows": 46694,
          "positives": 6381,
          "negatives": 40313
        }
      },
      {
        "path": "/home/runner/work/edge_royale/edge_royale/artifacts/training/runs/daily-25276131849/datasets/pro/shard-002.json",
        "dataset_hash": "66ae201a",
        "episode_count": 500,
        "sample_count": 6368,
        "row_summary": {
          "rows": 46607,
          "positives": 6368,
          "negatives": 40239
        }
      },
      {
        "path": "/home/runner/work/edge_royale/edge_royale/artifacts/training/runs/daily-25276131849/datasets/pro/shard-003.json",
        "dataset_hash": "9782e781",
        "episode_count": 500,
        "sample_count": 6374,
        "row_summary": {
          "rows": 46759,
          "positives": 6374,
          "negatives": 40385
        }
      },
      {
        "path": "/home/runner/work/edge_royale/edge_royale/artifacts/training/runs/daily-25276131849/datasets/pro/shard-004.json",
        "dataset_hash": "623fdc82",
        "episode_count": 500,
        "sample_count": 6364,
        "row_summary": {
          "rows": 46555,
          "positives": 6364,
          "negatives": 40191
        }
      }
    ],
    "row_summary": {
      "rows": 186615,
      "positives": 25487,
      "negatives": 161128
    },
    "iteration_summaries": [
      {
        "iteration": 1,
        "loss": 0.1456395834684372,
        "accuracy": 0.9032874703407288,
        "evaluation": [
          {
            "tier": "top",
            "rounds": 50,
            "wins": 0,
            "losses": 0,
            "draws": 50,
            "win_rate": 0
          },
          {
            "tier": "pro",
            "rounds": 50,
            "wins": 0,
            "losses": 0,
            "draws": 50,
            "win_rate": 0
          },
          {
            "tier": "goat",
            "rounds": 50,
            "wins": 0,
            "losses": 0,
            "draws": 50,
            "win_rate": 0
          }
        ]
      },
      {
        "iteration": 2,
        "loss": 0.14057309925556183,
        "accuracy": 0.9074457883834839,
        "evaluation": [
          {
            "tier": "top",
            "rounds": 50,
            "wins": 0,
            "losses": 0,
            "draws": 50,
            "win_rate": 0
          },
          {
            "tier": "pro",
            "rounds": 50,
            "wins": 0,
            "losses": 0,
            "draws": 50,
            "win_rate": 0
          },
          {
            "tier": "goat",
            "rounds": 50,
            "wins": 0,
            "losses": 0,
            "draws": 50,
            "win_rate": 0
          }
        ]
      },
      {
        "iteration": 3,
        "loss": 0.13534069061279297,
        "accuracy": 0.9098142981529236,
        "evaluation": [
          {
            "tier": "top",
            "rounds": 50,
            "wins": 0,
            "losses": 0,
            "draws": 50,
            "win_rate": 0
          },
          {
            "tier": "pro",
            "rounds": 50,
            "wins": 0,
            "losses": 0,
            "draws": 50,
            "win_rate": 0
          },
          {
            "tier": "goat",
            "rounds": 50,
            "wins": 0,
            "losses": 0,
            "draws": 50,
            "win_rate": 0
          }
        ]
      }
    ]
  },
  "layers": [
    {
      "type": "dense",
      "activation": "relu",
      "weights": [
        [
          -0.6041587591171265,
          -0.16652193665504456,
          -0.475599080324173,
          0.06178027763962746,
          -0.1080825999379158,
          -0.06043979525566101,
          -0.5950071811676025,
          -0.42996081709861755,
          -0.2647996246814728,
          0.0711376816034317,
          -0.055555857717990875,
          -0.15107610821723938,
          -0.34951600432395935,
          -0.0636623278260231,
          0.06950829178094864,
          -0.24936656653881073,
          0.08202842622995377,
          -0.17626023292541504,
          -0.04536233842372894,
          -0.12796556949615479,
          -0.22812041640281677,
          -0.18431438505649567,
          -0.014630414545536041,
          -0.06750403344631195,
          -0.2873288094997406,
          0.06861615926027298,
          -0.12720736861228943,
          0.1125040128827095,
          -0.028837956488132477,
          0.4280714988708496,
          -0.11647450923919678,
          -1.2784615755081177,
          -0.13949917256832123,
          -0.9985678791999817,
          0.30666229128837585,
          -0.16612482070922852,
          0.09387218952178955,
          0.5170180797576904,
          -0.1737365424633026,
          -1.3499538898468018,
          -0.7536020278930664,
          -0.010737740434706211,
          -0.1362907588481903,
          -0.5926499962806702,
          -0.03646579012274742,
          0.04014169052243233,
          -0.03754304721951485,
          -0.3035488724708557,
          0.0860246941447258,
          -0.18931643664836884,
          -0.8962399959564209,
          -0.09249089658260345,
          -0.043239325284957886,
          -0.09225359559059143,
          -0.1068304032087326,
          0.5692737102508545,
          -0.20498302578926086,
          -1.4816964864730835,
          -0.11304697394371033,
          -0.1381400227546692,
          -0.19638694822788239,
          -0.18638043105602264,
          -0.13259285688400269,
          -0.2478644847869873
        ],
        [
          0.004798623267561197,
          0.12163235247135162,
          -0.12205269932746887,
          0.09807083755731583,
          -0.010044293478131294,
          -0.14854849874973297,
          -0.016674812883138657,
          0.08283484727144241,
          0.12568910419940948,
          0.17963807284832,
          -0.18714694678783417,
          -0.07631561160087585,
          0.15934929251670837,
          -0.045956939458847046,
          -0.10913284868001938,
          -0.10422760993242264,
          0.11683253943920135,
          -0.16810476779937744,
          -0.1842156946659088,
          0.16966119408607483,
          0.119186170399189,
          0.035524915903806686,
          -0.00452427426353097,
          0.08449583500623703,
          -0.03031953051686287,
          0.025409206748008728,
          -0.1800045222043991,
          0.18857422471046448,
          -0.18995492160320282,
          -0.09828641265630722,
          -0.051865093410015106,
          0.011199338361620903,
          0.06866274774074554,
          0.11336109787225723,
          0.18505099415779114,
          0.09111035615205765,
          -0.05091549828648567,
          -0.014094233512878418,
          0.1051291897892952,
          -0.036977194249629974,
          -0.1526951640844345,
          -0.060656238347291946,
          0.17192940413951874,
          -0.17597836256027222,
          -0.13134530186653137,
          -0.10381276160478592,
          -0.02389173023402691,
          0.1888815313577652,
          -0.13623134791851044,
          -0.12773922085762024,
          0.12644724547863007,
          -0.17007331550121307,
          -0.09660400450229645,
          -0.09881153702735901,
          0.14840605854988098,
          0.02246459200978279,
          -0.06452155858278275,
          -0.16056722402572632,
          0.12394189089536667,
          0.16793033480644226,
          0.12629587948322296,
          0.16337943077087402,
          -0.19171123206615448,
          0.048576898872852325
        ],
        [
          0.014584348537027836,
          0.10921315848827362,
          0.0732002928853035,
          -0.1526004523038864,
          0.13341625034809113,
          -0.11911144852638245,
          -0.009432204999029636,
          -0.1244533360004425,
          -0.012677672319114208,
          -0.08399493992328644,
          -0.013011329807341099,
          0.15476341545581818,
          -0.002593858167529106,
          -0.06834915280342102,
          0.1243315264582634,
          0.10103414952754974,
          -0.1210833489894867,
          -0.17933006584644318,
          -0.19074195623397827,
          0.10547009110450745,
          -0.07186581194400787,
          -0.19273240864276886,
          -0.02550862357020378,
          -0.09009627252817154,
          0.07714053243398666,
          0.008971764706075191,
          0.05398179590702057,
          0.06681225448846817,
          -0.10768461227416992,
          0.040156345814466476,
          -0.059965502470731735,
          -0.12026551365852356,
          0.17625322937965393,
          0.11135740578174591,
          0.18970642983913422,
          0.05794147774577141,
          0.061792660504579544,
          0.057882409542798996,
          -0.026954643428325653,
          0.010534423403441906,
          -0.01763361133635044,
          -0.13331344723701477,
          0.03682835027575493,
          -0.02684345655143261,
          -0.1011211946606636,
          0.14658647775650024,
          -0.12933887541294098,
          -0.09342551231384277,
          -0.18830591440200806,
          -0.10259505361318588,
          0.18137365579605103,
          0.15760473906993866,
          0.17634499073028564,
          0.0009971840772777796,
          0.17871896922588348,
          -0.02973136492073536,
          -0.17031048238277435,
          -0.047073740512132645,
          -0.03951345384120941,
          -0.12484937161207199,
          -0.04268769547343254,
          -0.050598327070474625,
          -0.05983263626694679,
          0.030827166512608528
        ],
        [
          -0.08976583182811737,
          -0.17601341009140015,
          2.9592559337615967,
          -0.05144409462809563,
          -0.13993892073631287,
          0.022647399455308914,
          0.18346737325191498,
          -0.2943105399608612,
          -0.08681781589984894,
          -0.10459783673286438,
          -0.07459896802902222,
          -0.01676265522837639,
          -3.3727314472198486,
          -3.966162919998169,
          0.05818469077348709,
          -6.270203113555908,
          -0.07965092360973358,
          -0.05791265890002251,
          -0.0004574811609927565,
          -0.14723239839076996,
          0.11748021095991135,
          -0.14730314910411835,
          -3.588895320892334,
          -0.1424052119255066,
          -0.1818985939025879,
          -0.21637962758541107,
          -0.5389906764030457,
          -0.08592776209115982,
          0.10859466344118118,
          5.828557968139648,
          -0.3058921992778778,
          -2.4192934036254883,
          -0.09445231407880783,
          -7.275737762451172,
          2.3450708389282227,
          0.0971764624118805,
          -0.10775254666805267,
          6.595480442047119,
          -0.7442783713340759,
          0.07011258602142334,
          0.8400139808654785,
          -0.044510338455438614,
          -0.11580239236354828,
          -0.020187295973300934,
          -0.18160472810268402,
          0.03472108766436577,
          -0.2006269246339798,
          -0.2676685154438019,
          -0.07319045066833496,
          -0.2100476771593094,
          -2.473862648010254,
          0.14177481830120087,
          -0.17852115631103516,
          -0.032252006232738495,
          -2.3542041778564453,
          0.893419623374939,
          -0.14794011414051056,
          -7.005373954772949,
          -0.04424020275473595,
          -0.11300089955329895,
          -0.22088168561458588,
          0.059444330632686615,
          0.082536481320858,
          0.06541768461465836
        ],
        [
          -0.6665111780166626,
          -0.1442476361989975,
          -1.1480308771133423,
          0.04069039598107338,
          -0.17529065907001495,
          -0.09143531322479248,
          -0.6532256603240967,
          -0.221900075674057,
          -0.5453652739524841,
          -0.09998402744531631,
          -0.009294136427342892,
          -0.20014634728431702,
          -0.3536849319934845,
          0.40547844767570496,
          0.011131150647997856,
          0.01746886782348156,
          0.012126956135034561,
          -0.11429703235626221,
          0.11006766557693481,
          0.05384063720703125,
          -0.15561044216156006,
          -0.05882133170962334,
          0.3234784007072449,
          -0.1608951985836029,
          -0.1669744998216629,
          -0.019564976915717125,
          -0.027255522087216377,
          -0.11103801429271698,
          -0.1367439478635788,
          -0.4842400550842285,
          0.08011797070503235,
          -0.827152669429779,
          -0.17685267329216003,
          -0.23513011634349823,
          -0.02310759760439396,
          -0.028576675802469254,
          -0.11032196879386902,
          -0.41666191816329956,
          -0.061100468039512634,
          -0.972342848777771,
          -1.3904452323913574,
          -0.02840529754757881,
          -0.03676500543951988,
          -0.5621845722198486,
          0.003508509835228324,
          -0.22790104150772095,
          -0.14895330369472504,
          -0.40501099824905396,
          0.11293183267116547,
          -0.16352732479572296,
          -0.6101800799369812,
          0.03376711159944534,
          -0.14656127989292145,
          -0.18376334011554718,
          0.1598997414112091,
          0.22661474347114563,
          0.08563805371522903,
          -0.8211399912834167,
          0.10941153019666672,
          -0.12559077143669128,
          -0.13770686089992523,
          -0.16236630082130432,
          -0.04379569739103317,
          -0.03808320686221123
        ],
        [
          -0.4776553213596344,
          0.02707417868077755,
          -0.548091471195221,
          -0.23376387357711792,
          -0.1586790233850479,
          0.0966264083981514,
          -0.3628026843070984,
          -0.2753160297870636,
          -0.2894154489040375,
          0.09178555011749268,
          0.0015958158764988184,
          0.01713579148054123,
          -0.5799058675765991,
          -0.16079477965831757,
          -0.24052515625953674,
          -0.13367509841918945,
          0.08097419887781143,
          0.09804926067590714,
          0.12095056474208832,
          -0.044113513082265854,
          -0.22452054917812347,
          -0.17755144834518433,
          -0.04136461764574051,
          0.0072090160101652145,
          -0.04578711837530136,
          -0.2104252725839615,
          -0.4200134873390198,
          -0.1157231554389,
          -0.08038970828056335,
          0.4258915185928345,
          -0.22657987475395203,
          -1.3772099018096924,
          0.06065000966191292,
          -1.0773378610610962,
          0.19414769113063812,
          -0.1617969274520874,
          0.08674237132072449,
          0.3815791606903076,
          -0.12310728430747986,
          -1.2696506977081299,
          -0.8167998790740967,
          -0.0822025015950203,
          -0.2486187070608139,
          -0.6166445016860962,
          -0.15921995043754578,
          -0.018404461443424225,
          0.09567472338676453,
          -0.35662731528282166,
          0.05736319348216057,
          -0.09396757185459137,
          -0.8883802890777588,
          -0.09835352003574371,
          0.005642876960337162,
          -0.2557806968688965,
          -0.1513165533542633,
          0.6214046478271484,
          -0.0026872986927628517,
          -1.4190469980239868,
          -0.10506891459226608,
          -0.00955075304955244,
          -0.07549251616001129,
          0.060642145574092865,
          -0.14585000276565552,
          0.012308149598538876
        ],
        [
          -0.02271595038473606,
          0.1145094484090805,
          -0.11750642210245132,
          -0.1666249930858612,
          -0.01460092794150114,
          -0.18104641139507294,
          0.011661680415272713,
          0.10348958522081375,
          -0.19565285742282867,
          0.025889361277222633,
          0.18383723497390747,
          0.1740439385175705,
          -0.07901247590780258,
          0.06706933677196503,
          -0.14820721745491028,
          0.16688323020935059,
          0.15447428822517395,
          0.16291572153568268,
          -0.16441121697425842,
          0.18414951860904694,
          0.053886137902736664,
          0.18464548885822296,
          0.0647449940443039,
          -0.14637407660484314,
          0.19265536963939667,
          0.10727627575397491,
          -0.1772901862859726,
          0.13032284379005432,
          -0.08913499861955643,
          -0.04555656388401985,
          -0.1553231030702591,
          -0.069865383207798,
          0.19491630792617798,
          -0.1406509429216385,
          0.053171850740909576,
          0.16985243558883667,
          0.01173557061702013,
          -0.07311302423477173,
          -0.1751033514738083,
          -0.06465917080640793,
          0.07918408513069153,
          0.01718936301767826,
          -0.03109404444694519,
          -0.09553486108779907,
          -0.13664549589157104,
          -0.1855071634054184,
          0.05037319287657738,
          0.0417996309697628,
          0.10570181906223297,
          0.1772771179676056,
          0.15556710958480835,
          -0.12759441137313843,
          -0.11541344970464706,
          0.16022716462612152,
          -0.19082963466644287,
          -0.08084903657436371,
          0.020319242030382156,
          0.17437952756881714,
          0.050016164779663086,
          -0.14423182606697083,
          0.17277294397354126,
          -0.13644620776176453,
          -0.1044372171163559,
          -0.17217755317687988
        ],
        [
          -0.2910989820957184,
          0.14207075536251068,
          -1.3961520195007324,
          -0.19214916229248047,
          -0.04116776958107948,
          -0.1459503322839737,
          -0.18961113691329956,
          0.04029843956232071,
          -0.1752302646636963,
          0.02637963369488716,
          -0.1311805695295334,
          0.07017456740140915,
          2.217195749282837,
          -1.8212116956710815,
          -0.09649742394685745,
          2.298574686050415,
          -0.02245863899588585,
          0.43523725867271423,
          0.13005492091178894,
          -0.10464338213205338,
          -0.1341477483510971,
          0.10043581575155258,
          -1.4857128858566284,
          0.09364989399909973,
          -0.05669894069433212,
          -0.03647249937057495,
          0.09484715014696121,
          -0.02064700424671173,
          -0.18003994226455688,
          -1.1745648384094238,
          0.13536593317985535,
          -0.06654511392116547,
          0.10349230468273163,
          0.6096290349960327,
          2.8247811794281006,
          -0.21036416292190552,
          -0.18301215767860413,
          -0.7441480159759521,
          0.12642991542816162,
          -1.774819254875183,
          0.37802374362945557,
          0.10569369047880173,
          0.05746981129050255,
          -0.01246902160346508,
          0.2169470638036728,
          0.058325618505477905,
          0.10622449219226837,
          -0.38452500104904175,
          -0.2654220461845398,
          -0.1338212788105011,
          0.41472378373146057,
          -0.25296545028686523,
          0.09146103262901306,
          0.08807842433452606,
          1.7069134712219238,
          -0.22091415524482727,
          0.09042862057685852,
          2.0379345417022705,
          0.024829789996147156,
          0.09438733011484146,
          -0.12807242572307587,
          -0.19652390480041504,
          -0.06432183086872101,
          0.041339632123708725
        ],
        [
          0.38063472509384155,
          -0.14884167909622192,
          0.1619916558265686,
          -0.11447139829397202,
          -0.05133781582117081,
          0.04336658865213394,
          -0.29336950182914734,
          -0.7135174870491028,
          -0.2566230297088623,
          -0.122647725045681,
          -0.08253927528858185,
          -0.271084189414978,
          -0.06061576306819916,
          0.3636646568775177,
          0.01060500182211399,
          -0.05962748825550079,
          -0.1082647368311882,
          1.514076590538025,
          -0.1570471078157425,
          -0.12732647359371185,
          0.06339889764785767,
          -0.03429895639419556,
          0.03293036296963692,
          -0.1527380794286728,
          -0.15001802146434784,
          -0.07221115380525589,
          -0.36934465169906616,
          0.12236490845680237,
          -0.02844829112291336,
          0.6859099864959717,
          0.07956459373235703,
          -1.1172412633895874,
          0.12420684844255447,
          -0.5581660270690918,
          0.6196074485778809,
          0.007412836421281099,
          0.009518969804048538,
          -0.6479734182357788,
          -0.03138916566967964,
          0.06161193549633026,
          0.9457095861434937,
          -0.1503143012523651,
          -0.18338744342327118,
          -0.8795738220214844,
          -0.19210514426231384,
          -0.11704650521278381,
          -0.05527978762984276,
          -0.8750098347663879,
          -0.17106367647647858,
          -0.05170508101582527,
          -0.38111016154289246,
          0.6511999368667603,
          -0.02537766471505165,
          -0.16546209156513214,
          0.1965506225824356,
          0.1776922047138214,
          -0.17332106828689575,
          -1.3941936492919922,
          -0.07348977774381638,
          -0.1043701246380806,
          0.10194653272628784,
          -0.2724394202232361,
          0.08349384367465973,
          -0.23366941511631012
        ],
        [
          -0.6339343786239624,
          -0.11483974009752274,
          -2.817931652069092,
          -0.11310075223445892,
          0.09228505939245224,
          -0.19683986902236938,
          -0.40772920846939087,
          -0.25844287872314453,
          -0.12526604533195496,
          -0.12541432678699493,
          -0.2592167258262634,
          0.1105848103761673,
          -0.5553964376449585,
          -0.0028369883075356483,
          -0.3164241909980774,
          0.2137412428855896,
          -0.1713012158870697,
          -1.4881188869476318,
          0.0901905968785286,
          -0.11985037475824356,
          0.11266633868217468,
          -0.09778427332639694,
          0.31224969029426575,
          -0.12359693646430969,
          -0.18375033140182495,
          -0.2523101270198822,
          -0.29420390725135803,
          -0.16796432435512543,
          -0.19176866114139557,
          -0.7853397130966187,
          0.08733010292053223,
          0.30915436148643494,
          -0.17378027737140656,
          -0.4187037944793701,
          -0.28669309616088867,
          -0.026263730600476265,
          -0.22600071132183075,
          0.7668495774269104,
          -0.03399507701396942,
          -0.11655829846858978,
          -3.1671018600463867,
          -0.04147103428840637,
          -0.03425530716776848,
          -1.1756978034973145,
          0.044489141553640366,
          -0.32818272709846497,
          0.09764784574508667,
          -0.46375948190689087,
          -0.0921740010380745,
          0.034044571220874786,
          -0.015088585205376148,
          -5.673335552215576,
          -0.045378606766462326,
          -0.2403678596019745,
          1.4013231992721558,
          0.14273206889629364,
          -0.12566521763801575,
          -1.2620558738708496,
          -0.05355417728424072,
          0.09584375470876694,
          0.2111077755689621,
          -0.15634813904762268,
          0.10223081707954407,
          0.04677949473261833
        ],
        [
          -0.3459067940711975,
          -0.14999648928642273,
          -7.4221367835998535,
          -0.12143397331237793,
          0.13264144957065582,
          -0.17357775568962097,
          -0.2177901268005371,
          0.9125927090644836,
          0.8330880403518677,
          -0.17273816466331482,
          -0.21411049365997314,
          -0.08871866762638092,
          0.16138282418251038,
          0.02157735638320446,
          -0.218710258603096,
          0.05640372261404991,
          -0.1498597264289856,
          -1.1775102615356445,
          -0.11473444104194641,
          0.12660686671733856,
          -0.13376827538013458,
          0.05496282875537872,
          0.792629599571228,
          -0.03161342442035675,
          -0.24576759338378906,
          -0.03571060299873352,
          -0.12217595428228378,
          -0.017992772161960602,
          0.12952929735183716,
          -5.441282749176025,
          0.15461786091327667,
          0.006206875201314688,
          0.0536671057343483,
          0.0014670116361230612,
          0.3805856704711914,
          0.1255573332309723,
          0.050813764333724976,
          1.0308817625045776,
          -0.3320617377758026,
          6.785042762756348,
          -2.3491628170013428,
          0.039388008415699005,
          0.11280731111764908,
          0.424763560295105,
          0.01584406942129135,
          -0.5267897248268127,
          0.06372243911027908,
          0.04516235738992691,
          -0.21479712426662445,
          -0.08996724337339401,
          -0.2104640007019043,
          -5.282066822052002,
          -0.0697512999176979,
          0.05718596279621124,
          -0.7853593230247498,
          0.13024592399597168,
          -0.07482459396123886,
          -0.8116880059242249,
          -0.10958392173051834,
          -0.23129110038280487,
          0.0895034596323967,
          -0.12579196691513062,
          0.0892346054315567,
          -0.0915854200720787
        ],
        [
          -0.5571891665458679,
          -0.031130826100707054,
          -0.24257317185401917,
          -0.0759635791182518,
          0.004468878731131554,
          -0.10273420810699463,
          -0.3289054036140442,
          -0.27297765016555786,
          -0.5903128981590271,
          -0.13920056819915771,
          -0.03259021416306496,
          0.06624579429626465,
          -0.48648977279663086,
          0.40982910990715027,
          -0.0057027991861104965,
          0.16954949498176575,
          -0.13985894620418549,
          0.43050605058670044,
          -0.2497813105583191,
          0.029133548960089684,
          0.06474077701568604,
          0.015690788626670837,
          0.06964319944381714,
          -0.24877779185771942,
          0.006301465909928083,
          -0.18690328299999237,
          -0.42035984992980957,
          -0.23474232852458954,
          0.1311028003692627,
          0.9622748494148254,
          -0.27186891436576843,
          -0.9668151140213013,
          -0.12389485538005829,
          -0.674865186214447,
          0.2353249192237854,
          0.09458699822425842,
          -0.10675577819347382,
          -0.47666338086128235,
          -0.25559887290000916,
          -0.5221620202064514,
          -1.7442967891693115,
          -0.1198538988828659,
          0.041470255702733994,
          -0.2409106194972992,
          -0.3553992211818695,
          -0.07983028143644333,
          -0.1882040798664093,
          -0.5838183164596558,
          -0.22007477283477783,
          0.10087962448596954,
          -0.5323062539100647,
          1.0166974067687988,
          -0.008356769569218159,
          -0.21412862837314606,
          -0.08899594843387604,
          0.1591452658176422,
          -0.14434880018234253,
          -1.2282651662826538,
          0.07855409383773804,
          -0.022398443892598152,
          -0.1364932656288147,
          -0.15018650889396667,
          -0.17088618874549866,
          -0.045780621469020844
        ],
        [
          -0.29691281914711,
          -0.19331492483615875,
          0.12078692018985748,
          -0.19472670555114746,
          -0.07224036008119583,
          -0.09536833316087723,
          -0.23865295946598053,
          -0.3424643576145172,
          -0.29377660155296326,
          -0.02432921715080738,
          -0.09090553224086761,
          -0.043567780405282974,
          0.024175241589546204,
          0.5218780040740967,
          -0.2211456149816513,
          -0.09251102805137634,
          0.014652149751782417,
          0.46465015411376953,
          -0.11286603659391403,
          -0.14781299233436584,
          -0.1464012712240219,
          -0.01599787548184395,
          -0.053971853107213974,
          -0.08129489421844482,
          -0.15428821742534637,
          -0.12303612381219864,
          -0.25865229964256287,
          0.04485525190830231,
          -0.21972456574440002,
          0.19873057305812836,
          -0.020111650228500366,
          0.2520035207271576,
          -0.105525903403759,
          -0.056021466851234436,
          0.6254802942276001,
          -0.16228337585926056,
          -0.052250854671001434,
          0.23164978623390198,
          -0.2892477214336395,
          -0.544966995716095,
          2.7149345874786377,
          0.0735076516866684,
          0.004052248317748308,
          -0.8607767820358276,
          -0.289154976606369,
          -0.006521687377244234,
          -0.1927756667137146,
          -0.2114313691854477,
          -0.014199579134583473,
          0.10161970555782318,
          -1.1542671918869019,
          1.0694280862808228,
          -0.1949269324541092,
          -0.1690879911184311,
          -0.3481631278991699,
          0.17414188385009766,
          -0.0715155303478241,
          -1.4391517639160156,
          -0.12445596605539322,
          -0.1403958797454834,
          0.05998512730002403,
          -0.09052055329084396,
          -0.14338628947734833,
          -0.03906431421637535
        ],
        [
          -0.24777372181415558,
          0.06445443630218506,
          -2.0810537338256836,
          -0.14769838750362396,
          -0.07545694708824158,
          -0.20878684520721436,
          -0.3797205984592438,
          -0.07068446278572083,
          -0.27161213755607605,
          -0.2548576593399048,
          -0.12540937960147858,
          -0.15214185416698456,
          0.40276461839675903,
          -5.289938449859619,
          -0.028126003220677376,
          -0.009564867243170738,
          -0.13748584687709808,
          -2.4957027435302734,
          -0.06565014272928238,
          0.034901928156614304,
          0.06734254956245422,
          -0.04792003333568573,
          0.896506130695343,
          0.1054038256406784,
          -0.18276195228099823,
          -0.2030121386051178,
          -0.15868178009986877,
          -0.13147300481796265,
          -0.021380120888352394,
          -5.22186803817749,
          -0.1339331865310669,
          0.5539490580558777,
          0.011619501747190952,
          -0.6680808663368225,
          1.1175535917282104,
          0.0928022712469101,
          0.051128871738910675,
          0.25938624143600464,
          -0.5837438106536865,
          -2.9386444091796875,
          -2.3286666870117188,
          0.03129670023918152,
          -0.13237936794757843,
          -0.27825257182121277,
          0.006431606598198414,
          -0.04234510287642479,
          -0.034259676933288574,
          0.15689301490783691,
          0.060410529375076294,
          0.06983572989702225,
          0.05750180408358574,
          -3.102883815765381,
          0.09026362001895905,
          -0.12972930073738098,
          -0.0996883362531662,
          0.42152002453804016,
          0.09754306823015213,
          -1.091281533241272,
          0.009789558127522469,
          -0.11263272911310196,
          -0.18090388178825378,
          -0.1211143434047699,
          -0.06897800415754318,
          0.015181168913841248
        ],
        [
          -1.661709189414978,
          0.012319609522819519,
          0.703956663608551,
          0.09111308306455612,
          0.06655190140008926,
          -0.23101858794689178,
          -0.29649198055267334,
          -0.7097412347793579,
          -0.7965096235275269,
          0.12442097812891006,
          0.060600683093070984,
          -0.25976696610450745,
          0.4396305978298187,
          -1.1231026649475098,
          -0.09255079925060272,
          -0.38030967116355896,
          -0.014126907102763653,
          0.4669332802295685,
          -0.07506552338600159,
          -0.07247309386730194,
          -0.19436024129390717,
          0.039911702275276184,
          -6.815091133117676,
          0.0881689265370369,
          0.36675575375556946,
          0.02971012517809868,
          0.007071428466588259,
          -0.14447665214538574,
          -0.22298957407474518,
          -0.4495546817779541,
          -0.0481376051902771,
          -0.04665517061948776,
          -0.08354707807302475,
          -0.7653579115867615,
          0.4276593327522278,
          -0.15462353825569153,
          0.039889272302389145,
          0.09855154901742935,
          0.16429029405117035,
          -0.13649511337280273,
          -3.123919725418091,
          -0.025835640728473663,
          0.07685957103967667,
          3.8102056980133057,
          0.16843914985656738,
          -0.36606326699256897,
          -0.06274677067995071,
          0.5505643486976624,
          -0.08772526681423187,
          -0.19527313113212585,
          -0.23606812953948975,
          1.2845598459243774,
          -0.07828821241855621,
          -0.0073970602825284,
          0.6626780033111572,
          -0.27330487966537476,
          -0.25199952721595764,
          1.5100232362747192,
          -0.1357140988111496,
          -0.023043086752295494,
          0.07918573915958405,
          -0.06507562845945358,
          -0.06793465465307236,
          0.1498177945613861
        ],
        [
          -0.02310984395444393,
          0.07303476333618164,
          0.5354669094085693,
          0.1355854719877243,
          -0.12636925280094147,
          -0.010337317362427711,
          -0.1431487798690796,
          -0.3041532635688782,
          -0.022464102134108543,
          -0.13904666900634766,
          -0.21768197417259216,
          -0.19844402372837067,
          0.27943602204322815,
          -0.06882241368293762,
          0.04421062022447586,
          -5.678640842437744,
          0.0808362290263176,
          0.02596464566886425,
          -0.1268133521080017,
          -0.016289984807372093,
          -0.053773898631334305,
          0.025456517934799194,
          -0.6870241165161133,
          -0.03485346958041191,
          0.1186976358294487,
          -0.14929907023906708,
          0.23243694007396698,
          -0.187983438372612,
          -0.16882680356502533,
          1.65883469581604,
          -0.15881425142288208,
          1.0837247371673584,
          -0.2171158492565155,
          -0.2412007600069046,
          0.65935218334198,
          0.09093854576349258,
          0.05567339435219765,
          -0.03993503749370575,
          0.09837359935045242,
          -0.6333687901496887,
          0.5051348805427551,
          0.12254088371992111,
          -0.05056002363562584,
          -0.7683286070823669,
          -0.12201585620641708,
          0.05876344442367554,
          -0.21826060116291046,
          -0.12094397842884064,
          -0.011518383398652077,
          -0.03908638656139374,
          -0.46860387921333313,
          -0.6530458927154541,
          -0.21369647979736328,
          0.07921566814184189,
          0.3893812298774719,
          0.07741666585206985,
          -0.013245382346212864,
          4.068291664123535,
          0.16552335023880005,
          -0.006887593772262335,
          -0.14239755272865295,
          -0.1585649847984314,
          -0.03480607643723488,
          -0.030925536528229713
        ],
        [
          -1.3954932689666748,
          0.03768454119563103,
          -1.4855315685272217,
          0.06142392009496689,
          0.13376928865909576,
          -0.07392192631959915,
          -0.41578394174575806,
          0.07231857627630234,
          -0.632179856300354,
          -0.033242881298065186,
          -0.029028235003352165,
          -0.0023614719975739717,
          0.5966358184814453,
          -0.8269640803337097,
          -0.12567467987537384,
          -0.5251896381378174,
          0.0035540075041353703,
          -0.07558266818523407,
          -0.035493697971105576,
          -0.1050911694765091,
          -0.19506926834583282,
          0.18395397067070007,
          0.20809577405452728,
          -0.2498168796300888,
          0.01731773093342781,
          -0.19896858930587769,
          0.10676808655261993,
          -0.06154792010784149,
          0.026864586398005486,
          0.3396614193916321,
          -0.1703978329896927,
          1.4617234468460083,
          -0.08483198285102844,
          -0.0051221768371760845,
          0.15226195752620697,
          -0.13533958792686462,
          -0.14499635994434357,
          1.0871526002883911,
          -0.5351813435554504,
          3.0281102657318115,
          -3.898444414138794,
          -0.20751741528511047,
          0.05107191950082779,
          0.3742006719112396,
          -0.0032015659380704165,
          -0.19647741317749023,
          -0.11452271789312363,
          0.8391456007957458,
          -0.023637253791093826,
          -0.18411771953105927,
          0.0625021681189537,
          -2.448336124420166,
          -0.061806097626686096,
          -0.09300009906291962,
          1.0659265518188477,
          0.03679845109581947,
          -0.22501744329929352,
          0.4658457338809967,
          0.11072354018688202,
          -0.2263537347316742,
          0.22322173416614532,
          -0.09304258972406387,
          -0.19372737407684326,
          -0.14542657136917114
        ],
        [
          -0.7160021662712097,
          0.17101281881332397,
          -0.6682179570198059,
          -0.11715929955244064,
          -0.16321921348571777,
          -0.17056994140148163,
          -0.4091567099094391,
          -0.5487697124481201,
          -0.5265257358551025,
          0.17636218667030334,
          -0.05267622694373131,
          -0.2301328182220459,
          -0.8244369029998779,
          0.6160082817077637,
          0.0868782103061676,
          -0.2401876449584961,
          -0.0847538486123085,
          2.412520170211792,
          0.02828969620168209,
          0.12557150423526764,
          -0.08098577708005905,
          -0.12239903956651688,
          -0.4969004690647125,
          0.0864500179886818,
          -0.29630374908447266,
          -0.040239520370960236,
          -0.4774038791656494,
          -0.13006024062633514,
          -0.011885779909789562,
          0.20944266021251678,
          -0.022952651605010033,
          -0.8132796287536621,
          0.04417378082871437,
          -0.2230839729309082,
          0.45269787311553955,
          -0.11464321613311768,
          -0.20224645733833313,
          -1.277161955833435,
          -0.37215831875801086,
          -1.2394485473632812,
          -0.49513790011405945,
          0.04276677221059799,
          -0.06533394008874893,
          1.0718896389007568,
          0.03736576437950134,
          -0.00047694507520645857,
          0.0060079265385866165,
          -0.6575761437416077,
          -0.09653564542531967,
          0.0648675262928009,
          -0.7252728939056396,
          -0.23222847282886505,
          -0.24641303718090057,
          -0.24672110378742218,
          0.23787075281143188,
          0.088577039539814,
          -0.11262676119804382,
          1.6591157913208008,
          -0.20439006388187408,
          0.08245813101530075,
          -0.17637448012828827,
          -0.026405388489365578,
          -0.1757640242576599,
          -0.19260098040103912
        ],
        [
          -0.6852210164070129,
          0.08196716755628586,
          -0.425846129655838,
          -0.09837621450424194,
          0.12722356617450714,
          -0.07081248611211777,
          -0.42972028255462646,
          -0.38166728615760803,
          -0.33114248514175415,
          0.01665564440190792,
          0.052348554134368896,
          -0.2859134376049042,
          -0.4377683401107788,
          -0.6840276122093201,
          -0.27258554100990295,
          -1.617441177368164,
          -0.012062790803611279,
          1.626560091972351,
          -0.142561674118042,
          -0.13539746403694153,
          -0.11656152456998825,
          -0.23888900876045227,
          -0.6878682971000671,
          -0.1814783364534378,
          0.068913534283638,
          -0.07802167534828186,
          -0.31886085867881775,
          -0.08484557271003723,
          -0.006283045746386051,
          2.8871796131134033,
          -0.07495652884244919,
          2.091369390487671,
          -0.06538461148738861,
          2.2268524169921875,
          1.139846920967102,
          -0.16001011431217194,
          -0.0019503775984048843,
          0.9699169397354126,
          -0.3184799551963806,
          -5.376511096954346,
          1.3612587451934814,
          -0.24301710724830627,
          -0.15270569920539856,
          -0.3962216377258301,
          -0.2781505584716797,
          -0.15901587903499603,
          0.02029242180287838,
          -0.2614240050315857,
          -0.1116783544421196,
          0.08627605438232422,
          -1.755427598953247,
          1.2618404626846313,
          -0.06529154628515244,
          0.030201489105820656,
          1.5683112144470215,
          0.1566203087568283,
          -0.029827242717146873,
          1.1811418533325195,
          -0.08943028748035431,
          -0.1778484731912613,
          -0.14412088692188263,
          -0.003999541513621807,
          0.15150991082191467,
          0.1112152487039566
        ],
        [
          0.11655846983194351,
          0.08828327804803848,
          -3.274733066558838,
          0.1390436887741089,
          -0.12438695132732391,
          -0.07192257791757584,
          -0.384620726108551,
          -0.1304977834224701,
          -0.24459652602672577,
          -0.0582755021750927,
          0.1266767978668213,
          0.2275855839252472,
          -0.27687883377075195,
          -0.9356150031089783,
          0.006590483244508505,
          -0.40492498874664307,
          0.05830850452184677,
          0.17617712914943695,
          0.16390517354011536,
          -0.10128626972436905,
          -0.017233069986104965,
          -0.19971753656864166,
          -0.9341541528701782,
          -0.05269607529044151,
          -0.30773892998695374,
          0.02357659675180912,
          0.05990821495652199,
          0.12591920793056488,
          -0.0993478000164032,
          -5.0663628578186035,
          -0.15389306843280792,
          0.37317413091659546,
          -0.06769264489412308,
          -0.8749050498008728,
          -0.548859179019928,
          -0.16717220842838287,
          -0.12060970813035965,
          0.3085145652294159,
          -0.19885165989398956,
          1.0943152904510498,
          3.3853156566619873,
          0.0726744532585144,
          0.04306666553020477,
          0.7737325429916382,
          -0.04644712060689926,
          -0.1329393833875656,
          -0.005333042703568935,
          0.18622180819511414,
          0.05569878965616226,
          -0.009357009083032608,
          1.9858911037445068,
          -0.4743311107158661,
          0.13379664719104767,
          -0.08905307948589325,
          0.6136120557785034,
          -0.1362612545490265,
          -0.22299225628376007,
          0.8809126019477844,
          -0.08694642037153244,
          -0.047247789800167084,
          -0.17272678017616272,
          -0.04030891880393028,
          0.04988802596926689,
          -0.062198590487241745
        ],
        [
          -0.8137946128845215,
          -0.018157875165343285,
          -2.1709327697753906,
          -0.14358843863010406,
          0.018363801762461662,
          -0.11877571046352386,
          0.36664053797721863,
          -0.00901555735617876,
          0.19604715704917908,
          -0.1790437400341034,
          -0.10450772196054459,
          -0.10393711179494858,
          0.779390811920166,
          -0.5253147482872009,
          -0.024168822914361954,
          0.03919123858213425,
          0.08006945252418518,
          -1.8328075408935547,
          -0.20890015363693237,
          -0.13952229917049408,
          -0.1042213961482048,
          -0.10947508364915848,
          -0.778526246547699,
          -0.2397077977657318,
          0.2596413791179657,
          0.10651268810033798,
          -0.21868768334388733,
          -0.08999599516391754,
          -0.11014389246702194,
          -6.110002040863037,
          0.16385924816131592,
          0.40621688961982727,
          -0.07611126452684402,
          1.6213279962539673,
          1.0851209163665771,
          -0.05719136446714401,
          0.015677638351917267,
          2.7645020484924316,
          0.3427359163761139,
          2.396311044692993,
          -1.8658467531204224,
          -0.17538310587406158,
          -0.08697587251663208,
          -0.4396665394306183,
          0.16546189785003662,
          -0.3730170428752899,
          0.04929134249687195,
          -0.7030471563339233,
          -0.09704286605119705,
          -0.07459699362516403,
          -0.5953725576400757,
          -0.27456191182136536,
          -0.1146433874964714,
          0.07080477476119995,
          -0.03803656995296478,
          -0.09163082391023636,
          -0.12907946109771729,
          -0.05066382512450218,
          -0.008386453613638878,
          -0.012174300849437714,
          -0.04617965593934059,
          0.13087715208530426,
          0.10914590209722519,
          -0.12339334189891815
        ],
        [
          -0.47395920753479004,
          0.17111565172672272,
          1.5736279487609863,
          -0.1769951730966568,
          0.022060474380850792,
          -0.05642707645893097,
          -0.4255686402320862,
          -0.47360631823539734,
          -0.22401681542396545,
          -0.13511596620082855,
          -0.16751006245613098,
          -0.017522232607007027,
          1.0057249069213867,
          1.4750416278839111,
          -0.17966240644454956,
          0.6920857429504395,
          0.012855755165219307,
          -2.071079730987549,
          -0.17901739478111267,
          0.10957133769989014,
          -0.10314027220010757,
          0.006542673800140619,
          -1.5757416486740112,
          -0.025904232636094093,
          -0.05461851879954338,
          0.10498309880495071,
          -0.27208197116851807,
          0.13117654621601105,
          -0.11089222133159637,
          0.4139983355998993,
          0.1590750366449356,
          -1.7767242193222046,
          0.11521027982234955,
          -0.8088095188140869,
          0.4371030032634735,
          -0.17688219249248505,
          -0.15892651677131653,
          -1.0026580095291138,
          -0.2443171888589859,
          1.1601698398590088,
          0.19111765921115875,
          -0.158945232629776,
          -0.22397072613239288,
          0.5307459235191345,
          -0.13824698328971863,
          -0.33011293411254883,
          0.09912478923797607,
          -0.42533212900161743,
          -0.03537172079086304,
          0.11940807849168777,
          0.49483323097229004,
          -0.2694879472255707,
          0.06498105078935623,
          -0.03625398129224777,
          0.7370584011077881,
          -0.28237295150756836,
          0.050767626613378525,
          -0.1467629224061966,
          0.17461799085140228,
          0.07469350099563599,
          0.13657981157302856,
          -0.027430212125182152,
          -0.07717464119195938,
          -0.09301795065402985
        ],
        [
          0.38621771335601807,
          0.0523015558719635,
          1.7200732231140137,
          0.1271289587020874,
          -0.10682184994220734,
          -0.010569894686341286,
          0.24958600103855133,
          0.18778203427791595,
          0.7989023327827454,
          -0.10409045964479446,
          -0.19821061193943024,
          -0.023557715117931366,
          0.5497229695320129,
          0.483811616897583,
          0.05071060359477997,
          -0.3003293573856354,
          -0.11980577558279037,
          -2.680856466293335,
          -0.1494276523590088,
          0.015121875330805779,
          -0.2587423622608185,
          0.10175755620002747,
          -0.8125254511833191,
          0.11772404611110687,
          -0.15120337903499603,
          -0.02923780493438244,
          -0.43230631947517395,
          0.06772595643997192,
          0.07165529578924179,
          0.9837464690208435,
          -0.0028616292402148247,
          1.645262598991394,
          -0.241829052567482,
          -1.428882122039795,
          0.13721171021461487,
          -0.18322902917861938,
          0.0031581392977386713,
          1.4471733570098877,
          -0.20442667603492737,
          1.281732439994812,
          0.7924891710281372,
          0.05734090134501457,
          -0.2578704357147217,
          -8.648687362670898,
          -0.13452841341495514,
          0.061070241034030914,
          -0.2489742934703827,
          -0.14190442860126495,
          0.12914729118347168,
          -0.17602205276489258,
          0.33420681953430176,
          1.0025715827941895,
          -0.14526338875293732,
          0.0939163863658905,
          -0.9128029346466064,
          -0.025592872872948647,
          -0.11749095469713211,
          -0.23793737590312958,
          -0.11133257299661636,
          -0.24511480331420898,
          -0.1976258009672165,
          0.09763075411319733,
          0.03268466144800186,
          0.04893716424703598
        ],
        [
          -0.6159868240356445,
          0.17776307463645935,
          0.2176673859357834,
          -0.003428316442295909,
          -0.09393346309661865,
          -0.08503352105617523,
          -0.7747626304626465,
          -0.4632077217102051,
          -0.29851120710372925,
          0.042869776487350464,
          -0.1691581904888153,
          0.1455579698085785,
          0.804446816444397,
          -1.440179705619812,
          -0.04254855588078499,
          -1.155924916267395,
          -0.18496061861515045,
          -2.7850794792175293,
          -0.04797964543104172,
          0.12076679617166519,
          0.08069192618131638,
          -0.05063262954354286,
          -1.1806367635726929,
          0.05129867047071457,
          -0.33549749851226807,
          -0.08004878461360931,
          -0.37956708669662476,
          0.02595815435051918,
          -0.008536289446055889,
          -4.145097732543945,
          -0.30115413665771484,
          -0.7078798413276672,
          -0.07383965700864792,
          -1.152753233909607,
          -0.5113131403923035,
          -0.2365441471338272,
          -0.14653067290782928,
          -2.583653211593628,
          -0.19312384724617004,
          0.5810964703559875,
          0.17236314713954926,
          -0.08169221132993698,
          0.10435181111097336,
          1.4394862651824951,
          -0.19819647073745728,
          -0.5094187259674072,
          0.0005351715954020619,
          0.08831784129142761,
          0.03314674273133278,
          -0.10428576916456223,
          -0.49372103810310364,
          -3.4548864364624023,
          -0.20151251554489136,
          0.12171553075313568,
          -1.444555640220642,
          -0.20882049202919006,
          -0.1820971816778183,
          -2.277987480163574,
          0.13427899777889252,
          0.09362348914146423,
          -0.0018236830364912748,
          -0.11531174927949905,
          -0.1022375226020813,
          -0.22633473575115204
        ],
        [
          -0.38226765394210815,
          0.15013928711414337,
          -1.5571545362472534,
          0.07686831057071686,
          -0.2197684645652771,
          -0.11686332523822784,
          -0.556073784828186,
          -0.3665340542793274,
          -0.01663370244204998,
          -0.21022790670394897,
          0.12361020594835281,
          -0.22727960348129272,
          -0.09663714468479156,
          -0.3221171200275421,
          -0.16622291505336761,
          -0.8075435161590576,
          -0.09295566380023956,
          -0.2954617440700531,
          -0.12898410856723785,
          -0.06131090968847275,
          -0.043636150658130646,
          0.08625531941652298,
          -0.2590675950050354,
          -0.029872281476855278,
          -0.22805257141590118,
          0.12802666425704956,
          -0.14472991228103638,
          -0.21100355684757233,
          -0.06745348870754242,
          -0.8428632616996765,
          0.09863261878490448,
          -0.041961368173360825,
          0.12831467390060425,
          0.4908837676048279,
          0.5708714127540588,
          -0.16777437925338745,
          -0.2418939173221588,
          -0.839584231376648,
          0.030251160264015198,
          -0.8641244769096375,
          0.4433894753456116,
          -0.14460860192775726,
          -0.04934448376297951,
          -0.4965564012527466,
          -0.08869598805904388,
          -0.05610423535108566,
          -0.16840116679668427,
          -0.43547096848487854,
          -0.19572027027606964,
          0.02374606765806675,
          0.12929607927799225,
          0.44847914576530457,
          0.10903729498386383,
          0.003117857500910759,
          -0.49110153317451477,
          0.7805366516113281,
          0.1033860519528389,
          -0.6829569339752197,
          0.10284243524074554,
          -0.1688726842403412,
          -0.07009812444448471,
          0.015019218437373638,
          -0.07874477654695511,
          -0.09272246807813644
        ],
        [
          -0.4308323860168457,
          -0.06428025662899017,
          -0.033003710210323334,
          0.01133676152676344,
          -0.03645641356706619,
          0.03729626536369324,
          -0.3817538321018219,
          -0.14997293055057526,
          -0.07475297152996063,
          -0.07965327054262161,
          0.06642302125692368,
          0.03574033081531525,
          -0.3443576395511627,
          -0.10929502546787262,
          -0.1498633176088333,
          -0.27200472354888916,
          -0.11274266988039017,
          -0.03984258323907852,
          0.09346465021371841,
          -0.060894377529621124,
          -0.2138819396495819,
          0.020643189549446106,
          0.21749486029148102,
          -0.1960773915052414,
          -0.3280232548713684,
          -0.22489073872566223,
          -0.28040722012519836,
          -0.13435098528862,
          0.10530514270067215,
          -0.933530867099762,
          -0.1134951263666153,
          -0.11030721664428711,
          -0.026256415992975235,
          0.6422004699707031,
          -0.37625670433044434,
          0.1168917566537857,
          0.11483834683895111,
          -0.28816232085227966,
          -0.24530668556690216,
          -0.6050519347190857,
          0.29692575335502625,
          -0.22491289675235748,
          0.10464812815189362,
          -0.5063374042510986,
          -0.2292376309633255,
          -0.11292173713445663,
          -0.07941368967294693,
          -0.18890807032585144,
          -0.06149154156446457,
          -0.177673801779747,
          0.24849334359169006,
          -0.2783259451389313,
          -0.23343634605407715,
          -0.07152983546257019,
          -0.20763124525547028,
          -0.02311033569276333,
          0.11477629095315933,
          -0.5623794794082642,
          -0.13191695511341095,
          -0.06471023708581924,
          -0.13972127437591553,
          -0.16967430710792542,
          0.11719339340925217,
          -0.05623158439993858
        ],
        [
          -0.4287950396537781,
          -0.1750439703464508,
          -0.12040837854146957,
          -0.08218437433242798,
          -0.1797056347131729,
          0.07479312270879745,
          -0.4612334072589874,
          -0.4480574429035187,
          -0.26293566823005676,
          -0.2156730443239212,
          -0.037701353430747986,
          0.054662082344293594,
          -0.632706880569458,
          0.05379033461213112,
          -0.4208337366580963,
          -0.10568946599960327,
          -0.18257421255111694,
          -0.0906483381986618,
          -0.1253182739019394,
          -0.17201164364814758,
          -0.10340704023838043,
          -0.06883176416158676,
          0.15044544637203217,
          -0.11748058348894119,
          -0.13861209154129028,
          -0.0322270393371582,
          -0.024300625547766685,
          0.05580384284257889,
          -0.11937983334064484,
          -0.9926781058311462,
          -0.19261285662651062,
          -0.032023362815380096,
          -0.06880749017000198,
          0.296852707862854,
          -0.3051932752132416,
          -0.16201770305633545,
          0.11315511167049408,
          -0.39465978741645813,
          -0.22105203568935394,
          -0.3182757496833801,
          -0.007796572521328926,
          -0.18864670395851135,
          0.08126689493656158,
          -0.5761930346488953,
          -0.193562313914299,
          -0.030798135325312614,
          0.13594217598438263,
          -0.4385235011577606,
          -0.0594230554997921,
          0.08343976736068726,
          0.1753639429807663,
          -0.23567207157611847,
          -0.17815670371055603,
          -0.11645391583442688,
          -0.36182740330696106,
          -0.0785936638712883,
          -0.06619950383901596,
          -0.45497360825538635,
          0.0836813747882843,
          -0.1367313414812088,
          -0.20227111876010895,
          -0.04702083021402359,
          -0.19613182544708252,
          -0.028376340866088867
        ],
        [
          0.1081775575876236,
          0.17595422267913818,
          -0.10364963114261627,
          -0.167728453874588,
          -0.09901044517755508,
          -0.077451691031456,
          -0.1688198745250702,
          -0.18477344512939453,
          -0.059764593839645386,
          0.03529484197497368,
          0.14207325875759125,
          0.08843570202589035,
          -0.01991894841194153,
          0.1449923813343048,
          0.024061890318989754,
          0.053038157522678375,
          0.023769259452819824,
          -0.07444465905427933,
          0.06244354695081711,
          0.1263892650604248,
          -0.0660863071680069,
          -0.0631181001663208,
          -0.18292604386806488,
          -0.021160434931516647,
          -0.17404517531394958,
          0.11200860142707825,
          -0.009898247197270393,
          -0.05955928936600685,
          -0.1523926854133606,
          -0.1881691962480545,
          -0.1840926706790924,
          0.1429709941148758,
          0.03448525071144104,
          0.0017346597742289305,
          0.096947580575943,
          -0.1760946810245514,
          -0.1399252861738205,
          0.0909547507762909,
          -0.14830636978149414,
          0.11139366775751114,
          0.04654804617166519,
          0.13815613090991974,
          -0.030695319175720215,
          -0.09302481263875961,
          -0.11210884153842926,
          -0.01342422142624855,
          0.15560974180698395,
          -0.16513164341449738,
          0.033884864300489426,
          -0.002817789325490594,
          -0.007590665016323328,
          0.07006865739822388,
          -0.022321244701743126,
          -0.1745453178882599,
          0.14952977001667023,
          -0.13940750062465668,
          0.13307318091392517,
          -0.13303415477275848,
          -0.16126127541065216,
          0.033057648688554764,
          0.1228540688753128,
          0.027600249275565147,
          0.03345264494419098,
          0.02053898759186268
        ],
        [
          0.03147945553064346,
          -0.11952219903469086,
          -0.11789195984601974,
          0.05167875438928604,
          -0.15093402564525604,
          0.07368205487728119,
          0.08763111382722855,
          -0.0093086464330554,
          -0.18271122872829437,
          0.08806363493204117,
          -0.17002727091312408,
          0.032605063170194626,
          0.11573406308889389,
          0.05209165811538696,
          0.13760735094547272,
          0.16681523621082306,
          0.004277052357792854,
          -0.14221036434173584,
          0.08237069845199585,
          -0.07092951983213425,
          -0.03955153375864029,
          0.11522703617811203,
          -0.12397701293230057,
          0.17700785398483276,
          0.12204455584287643,
          -0.04316774010658264,
          0.1690293550491333,
          0.028945989906787872,
          0.1504570096731186,
          0.16280266642570496,
          0.1643511950969696,
          0.16730496287345886,
          0.09991127252578735,
          0.19175326824188232,
          0.13183610141277313,
          -0.06874030083417892,
          0.058448921889066696,
          0.1418953388929367,
          -0.17287354171276093,
          0.10565295070409775,
          -0.1458754539489746,
          -0.11057168245315552,
          -0.03543329983949661,
          -0.0160402562469244,
          0.14691609144210815,
          0.02192722260951996,
          0.18153585493564606,
          -0.16493521630764008,
          -0.03499238193035126,
          0.06351851671934128,
          0.054033294320106506,
          -0.08366198092699051,
          -0.04931170493364334,
          -0.05525839701294899,
          -0.06166496127843857,
          -0.0347193144261837,
          0.02587694302201271,
          -0.09757744520902634,
          0.11042123287916183,
          -0.08348216116428375,
          -0.1188361868262291,
          -0.03830617666244507,
          -0.13186430931091309,
          0.043126363307237625
        ],
        [
          0.02958810143172741,
          -0.1263565570116043,
          0.7911352515220642,
          -0.053688421845436096,
          0.07294562458992004,
          -0.23923280835151672,
          -0.23222550749778748,
          -0.10212718695402145,
          -0.1465153694152832,
          -0.14180932939052582,
          0.024563921615481377,
          -0.14592345058918,
          -0.9398491382598877,
          -0.919981837272644,
          0.03057856112718582,
          -0.7528592348098755,
          -0.08362014591693878,
          0.9215749502182007,
          -0.1369795799255371,
          -0.24345362186431885,
          0.004967743996530771,
          0.012739785946905613,
          1.2287954092025757,
          -0.10976017266511917,
          -0.32312995195388794,
          0.017226064577698708,
          -0.07718814164400101,
          -0.225460484623909,
          -0.22147901356220245,
          0.9314938187599182,
          -0.1935262680053711,
          -0.2507787048816681,
          -0.21597769856452942,
          5.893299102783203,
          1.024710774421692,
          -0.1915210634469986,
          -0.022586362436413765,
          1.0562676191329956,
          -0.019969729706645012,
          -0.0791870504617691,
          6.091876029968262,
          -0.13542838394641876,
          0.08837803453207016,
          -0.6880005598068237,
          -0.2226819545030594,
          -0.09006492793560028,
          -0.0009957903530448675,
          -0.38637006282806396,
          0.005436801817268133,
          -0.05789414420723915,
          -2.4750659465789795,
          -0.46792879700660706,
          0.03013061359524727,
          -0.11983451247215271,
          -0.14857226610183716,
          -0.04716187343001366,
          -0.1779385656118393,
          4.173626899719238,
          -0.20546023547649384,
          -0.1402050256729126,
          -0.24873407185077667,
          -0.1216956079006195,
          -0.12827365100383759,
          0.11685191839933395
        ],
        [
          -0.006903821602463722,
          0.05986883491277695,
          0.5323745012283325,
          -0.13184429705142975,
          -0.10694871097803116,
          -0.21110625565052032,
          -0.3413688838481903,
          -0.2059488594532013,
          -0.4024399518966675,
          0.012847750447690487,
          0.037756916135549545,
          0.05072307586669922,
          0.24565255641937256,
          0.2384530007839203,
          -0.3170577883720398,
          -0.7578954696655273,
          -0.09662248939275742,
          0.7607167959213257,
          -0.2189422994852066,
          -0.13307741284370422,
          0.09975270181894302,
          0.09253118187189102,
          1.0009351968765259,
          0.12023108452558517,
          -0.03347961977124214,
          -0.05800687521696091,
          0.09408094733953476,
          -0.08605629205703735,
          -0.22784548997879028,
          -0.8437585234642029,
          0.029035216197371483,
          -1.3182998895645142,
          -0.12049747258424759,
          0.5651066303253174,
          0.07088058441877365,
          -0.223624587059021,
          0.04365790635347366,
          0.4405681788921356,
          0.05598079413175583,
          -0.24591633677482605,
          0.1412375122308731,
          0.005419699940830469,
          -0.24605736136436462,
          -0.6165616512298584,
          0.06353016942739487,
          -0.07974027842283249,
          0.12555043399333954,
          -0.34003686904907227,
          -0.06652592122554779,
          -0.046580102294683456,
          0.1129160076379776,
          0.07026991248130798,
          -0.17601889371871948,
          -0.10235723853111267,
          -0.11075109988451004,
          0.11579332500696182,
          0.07439595460891724,
          0.9219568371772766,
          -0.0307863000780344,
          0.10031000524759293,
          -0.022800780832767487,
          0.08381608873605728,
          -0.25789669156074524,
          -0.07137718796730042
        ],
        [
          -0.20078790187835693,
          -0.05628257989883423,
          0.3312956690788269,
          -0.24548397958278656,
          -0.061396848410367966,
          -0.20212702453136444,
          -0.529768168926239,
          -0.43747952580451965,
          -0.2700295150279999,
          -0.12324904650449753,
          -0.17460601031780243,
          -0.21904568374156952,
          0.13092094659805298,
          0.1429874300956726,
          -0.1453123390674591,
          -0.7171972990036011,
          0.04715818166732788,
          0.6597030162811279,
          -0.04586289823055267,
          -0.0725075900554657,
          -0.09969322383403778,
          -0.07997182011604309,
          0.7474483847618103,
          -0.21411314606666565,
          -0.3472546339035034,
          -0.041785236448049545,
          -0.16130439937114716,
          -0.1524294763803482,
          0.0502193458378315,
          -1.224691390991211,
          -0.037072665989398956,
          -1.455322265625,
          0.061387643218040466,
          0.584948718547821,
          -0.002849405398592353,
          0.0915914997458458,
          -0.24041308462619781,
          0.6193829774856567,
          0.0823875293135643,
          -0.17145386338233948,
          0.18982553482055664,
          -0.09915436804294586,
          -0.17514824867248535,
          -0.9723870754241943,
          0.024375317618250847,
          -0.20250281691551208,
          0.003649900434538722,
          -0.26182666420936584,
          -0.2342251092195511,
          -0.19380366802215576,
          -0.04315606504678726,
          -0.1556791365146637,
          0.11649086326360703,
          -0.04187436401844025,
          0.07107391953468323,
          0.16426150500774384,
          0.021084100008010864,
          0.8930935263633728,
          -0.041275814175605774,
          -0.19413280487060547,
          0.11526372283697128,
          -0.012371783144772053,
          -0.2527773678302765,
          -0.2226843386888504
        ],
        [
          -0.040263582020998,
          -0.02084166556596756,
          0.1956089735031128,
          -0.18369853496551514,
          0.15934784710407257,
          0.11327612400054932,
          0.03531014546751976,
          -0.008045719005167484,
          0.060061514377593994,
          0.11924441903829575,
          -0.11690090596675873,
          0.027021950110793114,
          -0.05494514852762222,
          0.07081753015518188,
          0.044084783643484116,
          0.06316044926643372,
          0.018554333597421646,
          0.07446824014186859,
          -0.1651422381401062,
          0.08078321814537048,
          -0.18476642668247223,
          -0.11220595240592957,
          -0.0014590485952794552,
          -0.14412608742713928,
          0.1480940878391266,
          0.14831161499023438,
          -0.07661141455173492,
          0.11923998594284058,
          -0.17543531954288483,
          0.1483955830335617,
          0.10529781877994537,
          0.18389376997947693,
          -0.058026786893606186,
          0.0801590085029602,
          -0.1022542342543602,
          -0.15370890498161316,
          -0.0028450239915400743,
          0.03138423711061478,
          -0.002064346568658948,
          0.06951431185007095,
          0.0038318661972880363,
          -0.04165942221879959,
          -0.09892779588699341,
          0.1645413190126419,
          -0.03816545382142067,
          -0.050898320972919464,
          0.04630079120397568,
          0.08105553686618805,
          0.08019684255123138,
          0.18003655970096588,
          -0.18824918568134308,
          0.03880790248513222,
          -0.1536678671836853,
          -0.0345047302544117,
          -0.10082414001226425,
          0.04231728985905647,
          -0.032790299504995346,
          -0.08220142126083374,
          0.011340880766510963,
          0.007205624599009752,
          0.19057294726371765,
          -0.06057359278202057,
          -0.09943252056837082,
          0.03730938211083412
        ],
        [
          -0.013844707980751991,
          -0.002275620587170124,
          0.12808506190776825,
          -0.010599787347018719,
          -0.05510891601443291,
          -0.17191676795482635,
          0.1813926249742508,
          -0.14109055697917938,
          0.1661008596420288,
          -0.09278186410665512,
          0.09970266371965408,
          -0.05015791207551956,
          -0.08923559635877609,
          -0.016674421727657318,
          -0.04821460321545601,
          0.04098575934767723,
          -0.18217027187347412,
          -0.158866748213768,
          0.08876591920852661,
          -0.14589202404022217,
          0.12080875039100647,
          0.13056707382202148,
          -0.04996298626065254,
          0.03958255797624588,
          -0.05755651742219925,
          0.005973365623503923,
          0.18065759539604187,
          0.12992145121097565,
          -0.1445446014404297,
          -0.12049997597932816,
          0.009326095692813396,
          0.04638485237956047,
          0.07983788847923279,
          0.07323510199785233,
          0.11933853477239609,
          0.022185098379850388,
          -0.10908928513526917,
          0.04279525950551033,
          -0.1320919394493103,
          0.051167529076337814,
          -0.12285596877336502,
          -0.1235278770327568,
          -0.09130016714334488,
          -0.06438542902469635,
          0.10600165277719498,
          -0.07548046857118607,
          0.0051536280661821365,
          0.19084888696670532,
          -0.018277544528245926,
          0.11345796287059784,
          -0.04314529523253441,
          0.03059639222919941,
          -0.10479846596717834,
          -0.12640807032585144,
          0.07121613621711731,
          0.050383713096380234,
          -0.17766821384429932,
          -0.056277669966220856,
          0.14534473419189453,
          0.174780011177063,
          0.03736056759953499,
          0.0012511134846135974,
          0.08730914443731308,
          0.15193291008472443
        ],
        [
          0.13280680775642395,
          -0.08981657773256302,
          0.05600135028362274,
          0.08925912529230118,
          -0.048424653708934784,
          0.12574754655361176,
          0.5795086622238159,
          0.3282378315925598,
          -0.03111732378602028,
          0.009808310307562351,
          -0.07557876408100128,
          0.12253757566213608,
          0.2383938878774643,
          -2.172506093978882,
          0.006353652570396662,
          0.018077801913022995,
          -0.07431737333536148,
          -2.7122132778167725,
          0.0638234093785286,
          0.17176994681358337,
          0.14583563804626465,
          -0.1709199696779251,
          -2.370548725128174,
          0.1603533774614334,
          -0.026945071294903755,
          -0.18330992758274078,
          -0.13360530138015747,
          -0.18333624303340912,
          -0.11795487254858017,
          -1.8881810903549194,
          -0.05783673748373985,
          -0.5773813128471375,
          0.12960098683834076,
          4.759279251098633,
          0.18448084592819214,
          -0.18478161096572876,
          -0.15972979366779327,
          -0.7820515036582947,
          -0.13944144546985626,
          -0.08896790444850922,
          0.050979308784008026,
          0.037731725722551346,
          0.05311088263988495,
          5.669920921325684,
          0.01246632356196642,
          -0.10254786908626556,
          0.059829600155353546,
          0.6237072944641113,
          0.10082103312015533,
          0.12101107090711594,
          2.7333035469055176,
          -7.0045294761657715,
          -0.1788003295660019,
          -0.17699965834617615,
          5.207536220550537,
          3.886625051498413,
          0.06727464497089386,
          1.3701200485229492,
          -0.18229201436042786,
          -0.10954470932483673,
          0.14471299946308136,
          0.17525602877140045,
          0.11421199142932892,
          -0.024948906153440475
        ],
        [
          0.19157785177230835,
          -0.06946338713169098,
          0.1986304074525833,
          -0.11831198632717133,
          -0.024745499715209007,
          0.0686182901263237,
          0.39826908707618713,
          0.39984676241874695,
          -0.23136475682258606,
          0.12060307711362839,
          -0.09109628945589066,
          0.1326330304145813,
          -0.03652779757976532,
          -2.422743797302246,
          0.29003775119781494,
          -0.0885830968618393,
          -0.036895353347063065,
          -2.8337013721466064,
          0.19461959600448608,
          0.18297642469406128,
          -0.09492313116788864,
          0.09294657409191132,
          -2.575679302215576,
          -0.08447486907243729,
          -0.0942416787147522,
          -0.07878059893846512,
          -0.14290116727352142,
          0.030664807185530663,
          -0.008534278720617294,
          -2.045433282852173,
          -0.059255558997392654,
          -0.6392343640327454,
          -0.1633511781692505,
          4.177586555480957,
          -0.09470526874065399,
          0.06673771888017654,
          0.12168138474225998,
          -1.151815414428711,
          -0.23256637156009674,
          -0.1316850483417511,
          -0.027094261720776558,
          -0.12016551941633224,
          -0.19432607293128967,
          5.308254241943359,
          -0.09661257266998291,
          0.005501015577465296,
          -0.15047645568847656,
          0.709471583366394,
          -0.06300576776266098,
          0.06370233744382858,
          2.6905462741851807,
          -7.062791347503662,
          0.001490357331931591,
          -0.02909405529499054,
          5.22713565826416,
          4.016130447387695,
          -0.1820496916770935,
          1.1946420669555664,
          0.04541958123445511,
          -0.1698770821094513,
          -0.1271524876356125,
          0.14288893342018127,
          0.19529858231544495,
          -0.1750546246767044
        ],
        [
          -0.31388476490974426,
          0.1679067611694336,
          -1.6488405466079712,
          -0.11819170415401459,
          0.036163080483675,
          -0.0772102028131485,
          -0.5779305100440979,
          -1.2673535346984863,
          -0.7085728645324707,
          -0.2557351887226105,
          -0.11966641247272491,
          0.12650908529758453,
          -0.14413070678710938,
          0.11478549987077713,
          -0.4858754575252533,
          6.326549530029297,
          0.04831337183713913,
          -4.271242618560791,
          0.13178640604019165,
          0.013262310065329075,
          -0.06291543692350388,
          -0.18526357412338257,
          -3.3487770557403564,
          0.07044359296560287,
          -0.15201327204704285,
          0.07544388622045517,
          0.07509271055459976,
          0.0829281210899353,
          0.015422188676893711,
          3.1299498081207275,
          0.1538727879524231,
          0.20603816211223602,
          -0.2102777659893036,
          -6.668820381164551,
          -4.075987339019775,
          -0.0706072598695755,
          -0.17539739608764648,
          -1.698801875114441,
          0.10308835655450821,
          1.1603959798812866,
          0.801596462726593,
          0.0019579927902668715,
          -0.2241450697183609,
          -1.078169584274292,
          0.02945910394191742,
          -0.23600175976753235,
          0.15356019139289856,
          0.21524541079998016,
          0.02809876576066017,
          -0.20252211391925812,
          3.531205892562866,
          -4.984991073608398,
          -0.024252021685242653,
          -0.1442323923110962,
          -6.5826945304870605,
          -0.08651749789714813,
          0.08735707402229309,
          1.1274588108062744,
          -0.06511593610048294,
          -0.18277712166309357,
          -0.02477320283651352,
          -0.09933827817440033,
          -0.24813386797904968,
          -0.08405842632055283
        ],
        [
          -0.4197496175765991,
          -0.1772904098033905,
          -5.423011779785156,
          -0.14936959743499756,
          -0.19231924414634705,
          -0.23449990153312683,
          -0.508362889289856,
          -0.5960650444030762,
          -0.7833476066589355,
          -0.08486714959144592,
          -0.07266807556152344,
          0.20313502848148346,
          5.152080535888672,
          -1.570138931274414,
          -0.30244871973991394,
          6.5449748039245605,
          0.03344695642590523,
          -4.155519008636475,
          -0.08759152144193649,
          0.01715666614472866,
          -0.052657172083854675,
          -0.02868616208434105,
          1.1859015226364136,
          0.03621026501059532,
          -0.13683712482452393,
          0.007564624771475792,
          -0.025746073573827744,
          0.0710616409778595,
          -0.19165800511837006,
          -8.54522705078125,
          0.11722539365291595,
          1.019944190979004,
          -0.22921544313430786,
          -1.0607432126998901,
          4.16386079788208,
          -0.03324110433459282,
          -0.180940181016922,
          3.0826289653778076,
          0.34858062863349915,
          0.664364218711853,
          -0.5051866769790649,
          0.008944670669734478,
          0.10390198975801468,
          -1.9241994619369507,
          0.02614772692322731,
          -0.02581194043159485,
          0.09547983855009079,
          -0.5335509181022644,
          -0.12104910612106323,
          -0.10357386618852615,
          0.3440091907978058,
          -0.21062439680099487,
          -0.07646839320659637,
          -0.16720479726791382,
          3.5968964099884033,
          1.9731332063674927,
          -0.015598418191075325,
          3.3150579929351807,
          0.14382077753543854,
          -0.26405051350593567,
          0.017851080745458603,
          -0.07555389404296875,
          -0.13270647823810577,
          -0.17372457683086395
        ],
        [
          -0.14089980721473694,
          -0.005717671941965818,
          0.17246189713478088,
          0.07530540227890015,
          -0.1901887059211731,
          0.08280903846025467,
          0.18848960101604462,
          0.1440766155719757,
          0.12875358760356903,
          0.00040400889702141285,
          0.10519205778837204,
          0.0747801810503006,
          -0.18742167949676514,
          0.011801844462752342,
          -0.1346796303987503,
          -0.18991364538669586,
          0.04437972605228424,
          -0.1074066311120987,
          0.17888084053993225,
          -0.009982584044337273,
          0.12619689106941223,
          0.11072748154401779,
          0.09081977605819702,
          -0.004335408098995686,
          -0.08263848721981049,
          -0.12573084235191345,
          -0.004951085429638624,
          0.0946764200925827,
          0.13655529916286469,
          0.1314973384141922,
          -0.08067243546247482,
          0.17474918067455292,
          -0.1309451162815094,
          -0.050759606063365936,
          0.124043770134449,
          -0.1365102231502533,
          -0.17255431413650513,
          -0.012428130954504013,
          0.08135443925857544,
          -0.189538836479187,
          -0.06412576138973236,
          0.14075501263141632,
          -0.0989125669002533,
          0.1112290620803833,
          0.04886782169342041,
          -0.07308401167392731,
          -0.027943989261984825,
          -0.153098002076149,
          0.15215837955474854,
          -0.09812220931053162,
          0.11501286923885345,
          0.06424803286790848,
          -0.009631413966417313,
          -0.0426144078373909,
          -0.13630899786949158,
          -0.04606609418988228,
          -0.147182896733284,
          -0.07909111678600311,
          0.027163736522197723,
          0.09061611443758011,
          0.1683279424905777,
          -0.08545426279306412,
          0.046315666288137436,
          -0.006406544242054224
        ],
        [
          -0.032376185059547424,
          -0.1865401268005371,
          -0.08213237673044205,
          0.10070712864398956,
          0.1868709772825241,
          -0.18978606164455414,
          0.10064531117677689,
          0.07097404450178146,
          -0.15329506993293762,
          -0.1376936137676239,
          0.00040236461791209877,
          -0.11706506460905075,
          -0.07337163388729095,
          -0.08530042320489883,
          -0.16110704839229584,
          -0.1778901368379593,
          -0.14202025532722473,
          -0.04947805404663086,
          -0.09279870241880417,
          0.17192864418029785,
          -0.12580834329128265,
          0.1058969497680664,
          -0.12881869077682495,
          0.1458713412284851,
          -0.029887398704886436,
          -0.10307721793651581,
          0.0820949599146843,
          0.19432270526885986,
          0.17815083265304565,
          -0.15877918899059296,
          0.028238924220204353,
          -0.027836106717586517,
          -0.11538510769605637,
          -0.007202377077192068,
          0.08377724140882492,
          0.17681020498275757,
          -0.19058778882026672,
          -0.05960748344659805,
          -0.07215671241283417,
          -0.014522877521812916,
          0.13896363973617554,
          0.19030921161174774,
          0.05521354824304581,
          0.01124767679721117,
          0.0739688128232956,
          -0.18338310718536377,
          0.1632033735513687,
          -0.08040082454681396,
          -0.11717485636472702,
          0.07661957293748856,
          -0.1482236236333847,
          -0.007760826498270035,
          -0.0033371313475072384,
          0.08370459079742432,
          0.02241376042366028,
          0.14261876046657562,
          -0.14131338894367218,
          0.04619511589407921,
          -0.012944965623319149,
          -0.0917162150144577,
          -0.10184618830680847,
          -0.16304492950439453,
          0.10323711484670639,
          0.01650332100689411
        ],
        [
          1.4837206602096558,
          0.17802010476589203,
          1.4531623125076294,
          -0.19435985386371613,
          0.025275401771068573,
          0.13812099397182465,
          0.4830862581729889,
          0.8777484893798828,
          0.11635259538888931,
          0.024687809869647026,
          0.07907545566558838,
          0.038115400820970535,
          1.965137004852295,
          -1.2965205907821655,
          -0.22433650493621826,
          1.8140404224395752,
          -0.018913133069872856,
          -0.3295568823814392,
          -0.19047927856445312,
          -0.16185790300369263,
          -0.005614119116216898,
          -0.09459230303764343,
          -3.924126148223877,
          -0.018092574551701546,
          0.12457066774368286,
          -0.13506755232810974,
          0.6874097585678101,
          -0.12063413113355637,
          -0.10991319268941879,
          -3.892533779144287,
          0.03929206356406212,
          -2.1300337314605713,
          0.08535999804735184,
          3.505868434906006,
          -0.026082150638103485,
          0.01750851981341839,
          -0.1934555321931839,
          -0.7995548844337463,
          -0.04030700773000717,
          -0.005808337591588497,
          -0.19043929874897003,
          0.13024426996707916,
          0.038781311362981796,
          3.4296579360961914,
          -0.01575925387442112,
          0.5589224696159363,
          0.002673380309715867,
          0.002881063614040613,
          -0.13872773945331573,
          0.17584620416164398,
          0.44322842359542847,
          -6.624423027038574,
          -0.14925377070903778,
          0.09051162749528885,
          -3.533691167831421,
          0.8846582770347595,
          -0.11955468356609344,
          -1.3930132389068604,
          0.0709613636136055,
          -0.023277798667550087,
          -0.09983235597610474,
          -0.15653634071350098,
          0.0205523818731308,
          -0.13185662031173706
        ],
        [
          1.2492588758468628,
          -0.04003966972231865,
          0.7417731285095215,
          0.10048750042915344,
          -0.10120411962270737,
          -0.04974566027522087,
          -0.16394034028053284,
          0.25023216009140015,
          0.08972492069005966,
          -0.007374514825642109,
          -0.021004918962717056,
          0.1875084489583969,
          1.5255839824676514,
          -1.277923345565796,
          -0.2737099528312683,
          1.5440127849578857,
          0.016562264412641525,
          -0.9959900379180908,
          0.16278569400310516,
          0.11406802386045456,
          -0.17463085055351257,
          0.01175631769001484,
          -3.6242945194244385,
          -0.1449783742427826,
          0.045020442456007004,
          0.08972343802452087,
          0.24222373962402344,
          -0.1043425053358078,
          0.02168281190097332,
          -3.702573299407959,
          -0.0773070678114891,
          -2.220914602279663,
          -0.1667076200246811,
          3.0429980754852295,
          0.22287973761558533,
          -0.04625939577817917,
          0.06552603095769882,
          -2.546942710876465,
          -0.47645577788352966,
          -0.05425058305263519,
          -0.2101939171552658,
          -0.09878649562597275,
          -0.18693526089191437,
          2.544166088104248,
          -0.010307131335139275,
          0.26680830121040344,
          0.09852060675621033,
          -0.561816394329071,
          -0.19494567811489105,
          -0.10829539597034454,
          -0.3170224726200104,
          -3.997504234313965,
          0.029700137674808502,
          0.18519386649131775,
          0.7069668769836426,
          -0.35749030113220215,
          0.15621262788772583,
          -1.1555780172348022,
          -0.12558665871620178,
          -0.14508096873760223,
          -0.1486489623785019,
          -0.08180247992277145,
          0.018404683098196983,
          0.11307550221681595
        ],
        [
          1.3908836841583252,
          -0.10586093366146088,
          2.3303215503692627,
          -0.18728668987751007,
          -0.1894635409116745,
          -0.018900278955698013,
          -0.4590035676956177,
          -0.5107881426811218,
          -1.0850886106491089,
          0.0970056876540184,
          0.01851406879723072,
          -0.06696770340204239,
          -2.9055166244506836,
          -1.7540074586868286,
          -0.2518075704574585,
          -12.810174942016602,
          -0.23365449905395508,
          4.085795879364014,
          0.08619500696659088,
          -0.1456613689661026,
          -0.1267811805009842,
          -0.23236852884292603,
          -6.492893695831299,
          -0.07282862067222595,
          -0.01656601019203663,
          -0.24205787479877472,
          -0.06964796036481857,
          -0.03750256076455116,
          0.05149463936686516,
          -2.8726303577423096,
          -0.008067597635090351,
          -3.6136269569396973,
          -0.03368714451789856,
          -7.646770000457764,
          0.6157557368278503,
          0.0814887061715126,
          -0.1455145627260208,
          -4.586973190307617,
          -0.10475080460309982,
          -0.4744269847869873,
          -0.7305065393447876,
          0.06929431855678558,
          -0.07035385817289352,
          -2.7136175632476807,
          -0.40175414085388184,
          0.27796292304992676,
          -0.23565107583999634,
          1.6526060104370117,
          0.21070535480976105,
          -0.14314471185207367,
          7.031220436096191,
          -6.57823371887207,
          -0.07092677801847458,
          -0.10743638873100281,
          0.3996073305606842,
          0.7724480032920837,
          0.05294172465801239,
          -0.35728782415390015,
          0.19247330725193024,
          0.05857465788722038,
          -0.018642783164978027,
          -0.1231088936328888,
          0.03977591171860695,
          0.01937701553106308
        ],
        [
          0.01137642189860344,
          0.09455595910549164,
          -1.7997773885726929,
          0.16175304353237152,
          0.1948011815547943,
          -0.1857595443725586,
          -0.2072230726480484,
          0.7790447473526001,
          -0.6436991691589355,
          0.04254366084933281,
          -0.1618001013994217,
          0.11893834173679352,
          -2.984781265258789,
          0.8135764598846436,
          -0.014278610236942768,
          -2.355100154876709,
          0.05792355164885521,
          0.007175299804657698,
          0.15760496258735657,
          0.14274050295352936,
          0.13139094412326813,
          -0.21097257733345032,
          -0.9604240655899048,
          -0.034710317850112915,
          0.14574672281742096,
          0.03344302624464035,
          -0.03573240712285042,
          -0.07319366186857224,
          -0.018535049632191658,
          1.2822918891906738,
          0.047180261462926865,
          1.233618140220642,
          -0.02859606221318245,
          -0.1740793138742447,
          -1.4505218267440796,
          0.13527262210845947,
          -0.14633674919605255,
          0.027107862755656242,
          -0.15562410652637482,
          0.5697129964828491,
          0.6312100887298584,
          -0.21111415326595306,
          -0.0976247638463974,
          0.5143290758132935,
          -0.4289702773094177,
          0.28466978669166565,
          -0.009906860999763012,
          1.0317482948303223,
          0.257244735956192,
          -0.11915604770183563,
          1.9795918464660645,
          0.004258135333657265,
          0.07123612612485886,
          -0.12303349375724792,
          -2.187809944152832,
          -0.36096084117889404,
          0.04256907105445862,
          -3.2226572036743164,
          -0.00024787953589111567,
          -0.0011761285131797194,
          -0.13846683502197266,
          -0.014463439583778381,
          -0.1435358077287674,
          0.020522277802228928
        ],
        [
          0.0324520505964756,
          0.17452265322208405,
          0.010859445668756962,
          0.002162157790735364,
          0.09078701585531235,
          -0.09466838091611862,
          0.009687281213700771,
          -0.18475857377052307,
          -0.018380865454673767,
          0.03068247251212597,
          0.1411176472902298,
          -0.04997768998146057,
          -0.09841818362474442,
          -0.08643603324890137,
          -0.059359677135944366,
          -0.10707449167966843,
          0.10452067852020264,
          -0.16635729372501373,
          -0.07407611608505249,
          0.11856254935264587,
          0.01879797875881195,
          -0.06879302114248276,
          0.14384061098098755,
          0.12117099016904831,
          0.11851059645414352,
          -0.09364233165979385,
          -0.15238836407661438,
          0.06974412500858307,
          -0.03055110201239586,
          0.14599107205867767,
          0.1271369308233261,
          -0.1762005090713501,
          -0.1546202152967453,
          -0.09618550539016724,
          0.019014479592442513,
          -0.05483508110046387,
          -0.15373370051383972,
          0.05149000510573387,
          0.09155289828777313,
          0.08506158739328384,
          -0.035572126507759094,
          -0.1548733413219452,
          -0.07259120792150497,
          0.04726202040910721,
          0.14485201239585876,
          -0.028401214629411697,
          -0.038754601031541824,
          -0.03907370939850807,
          0.1404668092727661,
          -0.17063641548156738,
          0.1333569884300232,
          0.09309019893407822,
          0.07753840833902359,
          -0.1228594183921814,
          0.07993628829717636,
          0.042233485728502274,
          -0.19311752915382385,
          0.0510115809738636,
          -0.17520074546337128,
          0.04072166979312897,
          -0.06604894250631332,
          0.13781532645225525,
          0.17565929889678955,
          -0.18182717263698578
        ],
        [
          0.05573195591568947,
          0.034002210944890976,
          0.13098198175430298,
          0.06068271026015282,
          -0.029728712514042854,
          0.1141902506351471,
          0.023807467892766,
          -0.0015458476264029741,
          0.0943133533000946,
          0.16727681457996368,
          -0.002537906402722001,
          -0.041367173194885254,
          -0.11170422285795212,
          -0.12941524386405945,
          0.13716231286525726,
          0.13352122902870178,
          -0.09628593176603317,
          0.015340866521000862,
          -0.10497133433818817,
          -0.08795560896396637,
          -0.03678666055202484,
          0.08750351518392563,
          -0.03144906088709831,
          0.09132087230682373,
          -0.009946390055119991,
          0.1683523803949356,
          0.10131783038377762,
          -0.1496838480234146,
          -0.023652002215385437,
          0.16786879301071167,
          0.12915533781051636,
          -0.01623699814081192,
          0.16341279447078705,
          -0.12797029316425323,
          -0.1284649670124054,
          0.1458892971277237,
          0.19292764365673065,
          0.00868308637291193,
          -0.13870370388031006,
          -0.15301015973091125,
          0.09663132578134537,
          -0.1429027020931244,
          0.08643338084220886,
          0.06405160576105118,
          -0.09592977911233902,
          -0.13710598647594452,
          -0.1889275759458542,
          -0.026547584682703018,
          0.15778496861457825,
          -0.030804835259914398,
          0.15366290509700775,
          0.18738213181495667,
          -0.06561046093702316,
          -0.19555191695690155,
          0.09374461323022842,
          0.12058266997337341,
          -0.0036260648630559444,
          -0.09337624907493591,
          0.14133501052856445,
          -0.18617770075798035,
          0.12312709540128708,
          0.06016555055975914,
          -0.018072010949254036,
          0.1328301727771759
        ],
        [
          0.07920418679714203,
          -0.15668946504592896,
          -5.164769649505615,
          -0.17236565053462982,
          -0.10448704659938812,
          -0.043319426476955414,
          -0.07190144807100296,
          -0.4015422463417053,
          -0.18031662702560425,
          0.10162397474050522,
          -0.16310565173625946,
          -0.194403737783432,
          -0.6740940809249878,
          -0.2735932767391205,
          0.35009443759918213,
          2.5894668102264404,
          -0.10926184803247452,
          0.3596552610397339,
          -0.05484509468078613,
          -0.05839860066771507,
          0.030544301494956017,
          -0.0011154002277180552,
          3.8000247478485107,
          0.11571323126554489,
          0.02035064436495304,
          -0.14551390707492828,
          -0.370913028717041,
          -0.17488576471805573,
          -0.07662125676870346,
          -1.4103597402572632,
          -0.12395957857370377,
          -2.5290472507476807,
          -0.1434377133846283,
          -5.7135844230651855,
          1.301639199256897,
          -0.04272117465734482,
          -0.01850244030356407,
          1.9410086870193481,
          -0.41175273060798645,
          0.17146117985248566,
          -5.551745891571045,
          0.15072429180145264,
          0.05089779198169708,
          -0.38418814539909363,
          0.09764181822538376,
          -0.00632677786052227,
          -0.037220548838377,
          -0.8240013122558594,
          -0.08168285340070724,
          -0.045897226780653,
          1.2285594940185547,
          -5.218732833862305,
          -0.12082294374704361,
          0.013447823002934456,
          3.919538736343384,
          -6.644660949707031,
          0.14580033719539642,
          0.6975125074386597,
          -0.04150833934545517,
          -0.08696214109659195,
          0.10846881568431854,
          -0.007230351213365793,
          -0.10821033269166946,
          -0.10092058032751083
        ],
        [
          -0.06229131296277046,
          0.08155374974012375,
          -4.40851354598999,
          0.14247173070907593,
          -0.07847291976213455,
          -0.1750083565711975,
          -0.2510160505771637,
          -0.5134505033493042,
          -0.3209330141544342,
          0.056062228977680206,
          0.008277282118797302,
          0.0762425884604454,
          -0.6190194487571716,
          -0.7197797894477844,
