{
  "version": 1,
  "kind": "legal_action_mlp",
  "feature_schema_version": "goat_state_features_v1",
  "action_schema_version": "goat_action_features_v1",
  "input_size": 91,
  "seed": 707,
  "dataset_hash": "7cbe5654",
  "training_config": {
    "algorithm": "ladder_supervised_policy_v1",
    "target_tier": "top",
    "tiers": [
      "top"
    ],
    "episodes": 2000,
    "iterations": 3,
    "epochs_per_iteration": 8,
    "batch_size": 64,
    "learning_rate": 0.01,
    "max_ticks": 900,
    "max_negatives_per_decision": 8,
    "dataset_sources": [
      {
        "path": "/home/runner/work/edge_royale/edge_royale/artifacts/training/runs/daily-25276131849/datasets/top/shard-001.json",
        "dataset_hash": "6a211f0b",
        "episode_count": 500,
        "sample_count": 6303,
        "row_summary": {
          "rows": 46121,
          "positives": 6303,
          "negatives": 39818
        }
      },
      {
        "path": "/home/runner/work/edge_royale/edge_royale/artifacts/training/runs/daily-25276131849/datasets/top/shard-002.json",
        "dataset_hash": "148290d2",
        "episode_count": 500,
        "sample_count": 6300,
        "row_summary": {
          "rows": 46107,
          "positives": 6300,
          "negatives": 39807
        }
      },
      {
        "path": "/home/runner/work/edge_royale/edge_royale/artifacts/training/runs/daily-25276131849/datasets/top/shard-003.json",
        "dataset_hash": "19572daa",
        "episode_count": 500,
        "sample_count": 6301,
        "row_summary": {
          "rows": 46190,
          "positives": 6301,
          "negatives": 39889
        }
      },
      {
        "path": "/home/runner/work/edge_royale/edge_royale/artifacts/training/runs/daily-25276131849/datasets/top/shard-004.json",
        "dataset_hash": "28fac510",
        "episode_count": 500,
        "sample_count": 6286,
        "row_summary": {
          "rows": 45978,
          "positives": 6286,
          "negatives": 39692
        }
      }
    ],
    "row_summary": {
      "rows": 184396,
      "positives": 25190,
      "negatives": 159206
    },
    "iteration_summaries": [
      {
        "iteration": 1,
        "loss": 0.14625653624534607,
        "accuracy": 0.9028394818305969,
        "evaluation": [
          {
            "tier": "mid",
            "rounds": 50,
            "wins": 0,
            "losses": 0,
            "draws": 50,
            "win_rate": 0
          },
          {
            "tier": "top",
            "rounds": 50,
            "wins": 0,
            "losses": 0,
            "draws": 50,
            "win_rate": 0
          },
          {
            "tier": "pro",
            "rounds": 50,
            "wins": 0,
            "losses": 0,
            "draws": 50,
            "win_rate": 0
          }
        ]
      },
      {
        "iteration": 2,
        "loss": 0.1427794247865677,
        "accuracy": 0.9041898846626282,
        "evaluation": [
          {
            "tier": "mid",
            "rounds": 50,
            "wins": 0,
            "losses": 0,
            "draws": 50,
            "win_rate": 0
          },
          {
            "tier": "top",
            "rounds": 50,
            "wins": 0,
            "losses": 0,
            "draws": 50,
            "win_rate": 0
          },
          {
            "tier": "pro",
            "rounds": 50,
            "wins": 0,
            "losses": 0,
            "draws": 50,
            "win_rate": 0
          }
        ]
      },
      {
        "iteration": 3,
        "loss": 0.14022736251354218,
        "accuracy": 0.9062886238098145,
        "evaluation": [
          {
            "tier": "mid",
            "rounds": 50,
            "wins": 0,
            "losses": 0,
            "draws": 50,
            "win_rate": 0
          },
          {
            "tier": "top",
            "rounds": 50,
            "wins": 0,
            "losses": 0,
            "draws": 50,
            "win_rate": 0
          },
          {
            "tier": "pro",
            "rounds": 50,
            "wins": 0,
            "losses": 0,
            "draws": 50,
            "win_rate": 0
          }
        ]
      }
    ]
  },
  "layers": [
    {
      "type": "dense",
      "activation": "relu",
      "weights": [
        [
          -0.08879052102565765,
          -1.0716663599014282,
          -0.5181176662445068,
          -0.850080132484436,
          -0.06776300072669983,
          0.10637129098176956,
          -0.050299108028411865,
          -0.43073078989982605,
          0.02225874923169613,
          -0.15303891897201538,
          -0.04839673638343811,
          0.381763756275177,
          0.052869509905576706,
          0.09651945531368256,
          -0.21688534319400787,
          -0.24649545550346375,
          -0.21911868453025818,
          -0.12167970836162567,
          -0.23620957136154175,
          -0.16187307238578796,
          -1.0573197603225708,
          0.8662916421890259,
          -0.8484135866165161,
          -0.5261706113815308,
          0.78883296251297,
          0.0674242451786995,
          -0.15960420668125153,
          -0.17069175839424133,
          -0.4066125750541687,
          0.05917863920331001,
          -0.07711759954690933,
          -0.021842656657099724,
          -1.1502628326416016,
          -0.20529873669147491,
          -0.3477303981781006,
          -0.42455145716667175,
          0.03627752512693405,
          -0.6028966903686523,
          -0.9742891788482666,
          -1.6489466428756714,
          0.04447009041905403,
          0.11813661456108093,
          0.5941932797431946,
          0.07806502282619476,
          0.008035996928811073,
          -0.2611452043056488,
          0.4604335427284241,
          0.23310185968875885,
          -0.2743983864784241,
          -0.27811792492866516,
          0.2526227533817291,
          0.021537572145462036,
          -0.12222971767187119,
          -0.1426548808813095,
          -0.16737595200538635,
          -0.012150507420301437,
          -1.9401253461837769,
          -0.07365323603153229,
          0.04543554410338402,
          -0.28214356303215027,
          -0.1771112084388733,
          -0.0675952360033989,
          0.3368407189846039,
          -0.04263389855623245
        ],
        [
          0.12748095393180847,
          -0.013444080017507076,
          -0.06165679544210434,
          0.16868385672569275,
          -0.1862235814332962,
          0.06358323991298676,
          -0.03752054274082184,
          0.043092213571071625,
          -0.03556966781616211,
          0.10069208592176437,
          0.06497547775506973,
          0.07863583415746689,
          0.11462610214948654,
          0.15638412535190582,
          -0.1926840990781784,
          0.0067679667845368385,
          0.09208624809980392,
          -0.009611116722226143,
          0.1427089422941208,
          -0.13463418185710907,
          -0.0880163162946701,
          0.11971886456012726,
          0.13106323778629303,
          0.0822787880897522,
          -0.08964577317237854,
          0.06882933527231216,
          -0.09711810201406479,
          -0.08818694204092026,
          -0.11122669279575348,
          0.1459297239780426,
          0.10432838648557663,
          -0.14043277502059937,
          -0.1832621693611145,
          0.05942085385322571,
          -0.11759380251169205,
          -0.16574297845363617,
          -0.15585683286190033,
          0.019193125888705254,
          0.1749839186668396,
          -0.1487451046705246,
          -0.10780012607574463,
          0.02527228556573391,
          0.0878148078918457,
          -0.12988321483135223,
          -0.11339204758405685,
          -0.13939301669597626,
          0.11348901689052582,
          -0.13916118443012238,
          -0.15097308158874512,
          -0.0712580606341362,
          -0.031535737216472626,
          0.13044710457324982,
          0.11971618235111237,
          -0.12164971232414246,
          0.05445655435323715,
          -0.1940605640411377,
          -0.1131879985332489,
          -0.11388303339481354,
          0.1354069709777832,
          0.09796874225139618,
          -0.0845906212925911,
          0.184663325548172,
          0.09499973058700562,
          -0.15239524841308594
        ],
        [
          0.14088425040245056,
          0.1379317343235016,
          -0.10144209861755371,
          0.04644634947180748,
          -0.03717540204524994,
          -0.0009880069410428405,
          0.07594921439886093,
          -0.05670158192515373,
          0.08462303131818771,
          -0.12381665408611298,
          -0.08676064014434814,
          -0.13596121966838837,
          0.1137484461069107,
          -0.08204210549592972,
          0.1595708429813385,
          -0.07122063636779785,
          0.12623921036720276,
          0.1444263458251953,
          0.08821031451225281,
          -0.03781359642744064,
          0.10270052403211594,
          -0.0033825673162937164,
          -0.19064198434352875,
          0.07901474833488464,
          -0.06028175354003906,
          -0.020241137593984604,
          -0.148643359541893,
          0.09451337903738022,
          -0.18497519195079803,
          0.03477067872881889,
          0.05551670864224434,
          -0.023246556520462036,
          -0.10223381221294403,
          -0.0014367579715326428,
          0.04985209181904793,
          -0.14312344789505005,
          -0.053731903433799744,
          -0.19037297368049622,
          0.12695837020874023,
          0.07580796629190445,
          -0.059954509139060974,
          -0.13971887528896332,
          -0.0476992093026638,
          -0.10430267453193665,
          0.17515170574188232,
          0.07830048352479935,
          -0.19016587734222412,
          -0.007173086516559124,
          -0.02675487846136093,
          -0.12067092955112457,
          0.08251053094863892,
          -0.1900017112493515,
          0.18888811767101288,
          -0.15363982319831848,
          0.11158108711242676,
          0.1518668830394745,
          0.08142589777708054,
          0.06178580969572067,
          -0.12314014136791229,
          0.0804266482591629,
          -0.14863711595535278,
          0.11256194859743118,
          -0.14206330478191376,
          0.11163833737373352
        ],
        [
          -2.2273197174072266,
          1.9139388799667358,
          0.3906519114971161,
          -4.907151699066162,
          2.644097089767456,
          -0.20979243516921997,
          -0.10480692982673645,
          -0.1082119420170784,
          0.17001226544380188,
          -0.15214195847511292,
          0.03456743434071541,
          -2.1803860664367676,
          0.045437656342983246,
          0.012195110321044922,
          -0.18296343088150024,
          -0.4170899987220764,
          -0.20967240631580353,
          -0.09566674381494522,
          -0.06156415119767189,
          0.018852559849619865,
          -0.7624418139457703,
          5.904752254486084,
          -11.081562042236328,
          -0.09565036743879318,
          0.4045059382915497,
          -0.120478056371212,
          -0.09781254827976227,
          0.038940463215112686,
          -1.636545181274414,
          -0.08471263200044632,
          0.0001524050603620708,
          -0.04400711506605148,
          0.8128119111061096,
          0.02204836532473564,
          -0.2850574254989624,
          0.4727261960506439,
          -0.25368252396583557,
          0.9049286246299744,
          -5.758153915405273,
          -0.4561236798763275,
          -0.06562777608633041,
          -0.12329747527837753,
          1.8566267490386963,
          0.032774221152067184,
          -0.05000584200024605,
          -0.13191106915473938,
          2.5609335899353027,
          2.331589460372925,
          0.04113847762346268,
          0.0007841448532417417,
          -5.408047676086426,
          0.0021999168675392866,
          -0.12165141850709915,
          0.55867999792099,
          -0.16011151671409607,
          0.05152950808405876,
          1.1750303506851196,
          -0.037778813391923904,
          0.03968686982989311,
          0.06059578061103821,
          -0.029870765283703804,
          -0.14791281521320343,
          -2.297536611557007,
          -0.028345536440610886
        ],
        [
          0.20548762381076813,
          -1.3947619199752808,
          -0.44462674856185913,
          -0.25583967566490173,
          -0.505364716053009,
          0.01608838513493538,
          0.02286435477435589,
          -0.5892660617828369,
          -0.13802281022071838,
          -0.0651579201221466,
          -0.1541164368391037,
          0.777944028377533,
          -0.2005729228258133,
          -0.18064503371715546,
          -0.23831182718276978,
          -0.37600943446159363,
          -0.24937793612480164,
          -0.14009873569011688,
          0.046558547765016556,
          -0.2734683156013489,
          -0.9632124304771423,
          -0.35029199719429016,
          0.39163902401924133,
          -0.6332562565803528,
          0.8529943227767944,
          -0.05084918066859245,
          -0.02302187867462635,
          -0.2807592749595642,
          0.01020180806517601,
          -0.05578825622797012,
          0.008334663696587086,
          0.025675157085061073,
          -1.4763158559799194,
          -0.10018569231033325,
          -0.3992774188518524,
          -0.5495938062667847,
          -0.1057828962802887,
          -0.600226104259491,
          -0.15922118723392487,
          -1.6341369152069092,
          -0.09443449974060059,
          -0.21942706406116486,
          0.37802135944366455,
          -0.051855649799108505,
          -0.17829576134681702,
          0.061619892716407776,
          0.15166234970092773,
          -0.4995043873786926,
          -0.3540567457675934,
          -0.15434038639068604,
          1.3231956958770752,
          0.0060538966208696365,
          -0.09944327175617218,
          -0.33350619673728943,
          -0.17439129948616028,
          -0.09451761096715927,
          -2.0711066722869873,
          -0.0977938324213028,
          -0.23179250955581665,
          -0.2375965714454651,
          -0.3468475043773651,
          -0.02596799097955227,
          0.553541898727417,
          -0.11302051693201065
        ],
        [
          -0.11841081082820892,
          -1.17537260055542,
          -0.3999055325984955,
          -0.926058292388916,
          -0.07527420669794083,
          0.10887841880321503,
          -0.05999381095170975,
          -0.3410615026950836,
          -0.05264785513281822,
          0.025383831933140755,
          0.056833334267139435,
          0.5000442266464233,
          -0.08049076795578003,
          -0.26398706436157227,
          -0.17691753804683685,
          -0.3165837228298187,
          0.057059817016124725,
          -0.11432411521673203,
          0.1222701296210289,
          -0.23977088928222656,
          -1.082978367805481,
          0.9766893982887268,
          -0.6457085609436035,
          -0.4476379156112671,
          1.0366896390914917,
          -0.13881105184555054,
          -0.061940692365169525,
          -0.18042998015880585,
          -0.35547947883605957,
          -0.17355802655220032,
          -0.016514556482434273,
          -0.2436772882938385,
          -1.0752768516540527,
          0.04584462195634842,
          -0.3183356523513794,
          -0.26672449707984924,
          -0.17088285088539124,
          -0.32588526606559753,
          -0.9130986332893372,
          -1.7188085317611694,
          -0.08968109637498856,
          -0.0733458623290062,
          0.4905667006969452,
          -0.10611513257026672,
          0.05397270992398262,
          -0.2302989512681961,
          0.42284145951271057,
          0.23822754621505737,
          -0.07716399431228638,
          -0.32340285181999207,
          0.030782559886574745,
          -0.15615423023700714,
          -0.24711789190769196,
          -0.2927301228046417,
          -0.16035854816436768,
          -0.1687314808368683,
          -1.700790524482727,
          -0.0070435404777526855,
          -0.018003089353442192,
          -0.3662550151348114,
          -0.3671567142009735,
          -0.12589626014232635,
          0.3025731146335602,
          -0.24850782752037048
        ],
        [
          0.17935487627983093,
          0.13702243566513062,
          -0.1726904809474945,
          0.020450061187148094,
          -0.18616273999214172,
          -0.09509672969579697,
          0.0033571121748536825,
          -0.1947840452194214,
          0.01697417162358761,
          -0.06049459055066109,
          -0.13017487525939941,
          -0.08019241690635681,
          -0.04097827151417732,
          -0.013085237704217434,
          0.17404122650623322,
          -0.1637408435344696,
          -0.014210379682481289,
          0.07589980214834213,
          -0.04116717353463173,
          0.09176218509674072,
          0.008339050225913525,
          0.18069086968898773,
          0.03660695254802704,
          -0.19306761026382446,
          -0.14875340461730957,
          -0.18420347571372986,
          0.17093925178050995,
          0.05189843475818634,
          0.013905162923038006,
          -0.17524316906929016,
          -0.023535365238785744,
          0.14866547286510468,
          -0.0544961541891098,
          -0.018692201003432274,
          -0.19153910875320435,
          -0.07819978147745132,
          -0.01701962947845459,
          0.09778929501771927,
          0.1428910493850708,
          -0.16965289413928986,
          0.15081904828548431,
          0.14348670840263367,
          0.05595505237579346,
          -0.03632539138197899,
          -0.1620246320962906,
          0.00699206069111824,
          0.047153767198324203,
          0.18957585096359253,
          -0.18025000393390656,
          0.18937073647975922,
          0.02090415544807911,
          -0.06575120240449905,
          -0.0951823964715004,
          -0.09203734993934631,
          0.08307377994060516,
          -0.13414891064167023,
          0.09943162649869919,
          -0.16887015104293823,
          -0.07761148363351822,
          0.10910917073488235,
          -0.05559401214122772,
          0.17787842452526093,
          -0.16774201393127441,
          0.03860081732273102
        ],
        [
          -0.8896586298942566,
          -1.3166651725769043,
          -0.22954104840755463,
          1.2028206586837769,
          -1.652443289756775,
          0.08826465159654617,
          -0.150926873087883,
          -0.5030832886695862,
          -0.0764075294137001,
          0.0691298246383667,
          -0.1905214488506317,
          1.133712649345398,
          -0.0696706473827362,
          -0.26489871740341187,
          -0.12377099692821503,
          -1.2484450340270996,
          -0.19563724100589752,
          -0.01862306520342827,
          -0.18762780725955963,
          -0.2113448530435562,
          0.4889979064464569,
          0.6539487242698669,
          3.8853073120117188,
          -0.40855565667152405,
          -1.1398261785507202,
          -0.1335197240114212,
          -0.060478951781988144,
          -0.22740134596824646,
          -0.1863303780555725,
          0.11435418576002121,
          -0.22703570127487183,
          -0.15609678626060486,
          0.49913039803504944,
          -0.06065962836146355,
          -0.2384393960237503,
          -0.2828477621078491,
          -0.09416153281927109,
          1.5994547605514526,
          1.9529870748519897,
          -0.43796664476394653,
          -0.019950203597545624,
          -0.056886184960603714,
          -1.1863293647766113,
          0.045644208788871765,
          -0.07680729776620865,
          -0.11480057239532471,
          1.6164555549621582,
          -1.4355491399765015,
          0.14449067413806915,
          -0.40659844875335693,
          -1.1724839210510254,
          0.14226920902729034,
          -0.25158530473709106,
          -0.15032294392585754,
          -0.08359982073307037,
          -0.10678449273109436,
          -0.9515624046325684,
          0.0365583635866642,
          -0.08309922367334366,
          -0.23359060287475586,
          -0.369087815284729,
          -0.01755068078637123,
          -1.4786717891693115,
          0.053648561239242554
        ],
        [
          1.3397704362869263,
          -0.11824332177639008,
          -0.15904903411865234,
          -1.0667942762374878,
          0.7348406910896301,
          -0.005950226914137602,
          -0.08362166583538055,
          -0.7168780565261841,
          -0.0838349461555481,
          -0.05284246802330017,
          0.06215796619653702,
          -0.04667573794722557,
          0.06302350014448166,
          -0.13204506039619446,
          -0.039658866822719574,
          -1.4358655214309692,
          0.06714540719985962,
          -0.06948980689048767,
          -0.03866136074066162,
          -0.23537521064281464,
          0.9998900294303894,
          0.5358753204345703,
          -0.927831768989563,
          -0.23568454384803772,
          -0.06961216777563095,
          -0.03706146776676178,
          -0.1271960586309433,
          -0.26702821254730225,
          0.34841006994247437,
          -0.1070769727230072,
          0.09059609472751617,
          -0.11371779441833496,
          3.1230971813201904,
          0.025123069062829018,
          -0.26775452494621277,
          -0.02992885187268257,
          -0.2037343978881836,
          -0.5923502445220947,
          -2.520563840866089,
          0.5775003433227539,
          0.102103091776371,
          -0.19546470046043396,
          0.42232754826545715,
          -0.2409811019897461,
          -0.09781234711408615,
          -0.004441691562533379,
          0.5611112117767334,
          0.7937014698982239,
          -0.04667207598686218,
          -0.21641987562179565,
          -0.1563805192708969,
          -0.1861492246389389,
          0.05212311074137688,
          -0.2742152214050293,
          0.08361335843801498,
          -0.0662829726934433,
          -0.32414114475250244,
          -0.16528047621250153,
          -0.26733431220054626,
          -0.2955462634563446,
          -0.2679138779640198,
          -0.24977560341358185,
          -0.6676309704780579,
          -0.09727881103754044
        ],
        [
          0.41153672337532043,
          -0.3683938980102539,
          0.032535117119550705,
          -0.8614655137062073,
          -1.1714191436767578,
          -0.23820863664150238,
          0.13349585235118866,
          0.11758153885602951,
          -0.14089709520339966,
          -0.08023019880056381,
          -0.09821166098117828,
          0.5695821642875671,
          0.1284782588481903,
          -0.13909955322742462,
          0.06386769562959671,
          -0.03071065992116928,
          0.007999887689948082,
          -0.1914295107126236,
          -0.17394916713237762,
          -0.1102161779999733,
          -1.5568500757217407,
          -2.2123799324035645,
          0.018149394541978836,
          -0.11951113492250443,
          1.0958940982818604,
          -0.06035428121685982,
          0.02316279150545597,
          -0.3027826249599457,
          0.2179950624704361,
          0.04272377863526344,
          -0.06972183287143707,
          0.02237231656908989,
          -0.5746080279350281,
          -0.16485360264778137,
          -0.15380029380321503,
          -0.7774578332901001,
          -0.10811797529459,
          -0.2065560221672058,
          -1.3457571268081665,
          0.6304681897163391,
          -0.10045406222343445,
          0.026820817962288857,
          0.4931938350200653,
          0.08234478533267975,
          0.050443995743989944,
          -0.07304847240447998,
          0.2975279688835144,
          -8.012885093688965,
          -0.0475807711482048,
          -0.32319918274879456,
          0.46386927366256714,
          -0.07683007419109344,
          0.04739123582839966,
          -0.08403445780277252,
          0.028067754581570625,
          -0.14964412152767181,
          -1.297309160232544,
          -0.01500134076923132,
          0.041223522275686264,
          0.031008321791887283,
          -0.4163879156112671,
          -0.09575041383504868,
          1.3742789030075073,
          0.08347223699092865
        ],
        [
          -1.6744409799575806,
          6.383839130401611,
          0.12270359694957733,
          -0.03321162611246109,
          -1.359641432762146,
          -0.028919408097863197,
          0.14153623580932617,
          0.3157599866390228,
          0.08619330823421478,
          0.08866479992866516,
          -0.05496999993920326,
          0.2623971402645111,
          0.15194031596183777,
          0.023007135838270187,
          0.020192593336105347,
          0.17380480468273163,
          -0.1828295737504959,
          0.11123700439929962,
          -0.21815647184848785,
          0.011025283485651016,
          -1.0936137437820435,
          -3.7771997451782227,
          -0.2670896649360657,
          -0.4288538992404938,
          0.3965558707714081,
          -0.14560569822788239,
          -0.08130276203155518,
          -0.23830179870128632,
          0.04943215101957321,
          -0.04816795885562897,
          -0.06030532345175743,
          -0.17643952369689941,
          -1.2652510404586792,
          -0.16765251755714417,
          -0.2454339563846588,
          0.11339345574378967,
          0.061037514358758926,
          -0.2351125180721283,
          -1.6577068567276,
          0.013974793255329132,
          -0.16783709824085236,
          -0.10546448081731796,
          0.17346897721290588,
          0.14337438344955444,
          -0.15452782809734344,
          -0.013335865922272205,
          0.7468433380126953,
          -7.8376994132995605,
          0.060016319155693054,
          -0.09128846228122711,
          0.48754099011421204,
          -0.11906162649393082,
          -0.09406784921884537,
          -0.15125630795955658,
          -0.08617895841598511,
          -0.027407120913267136,
          -0.24269376695156097,
          -0.15845349431037903,
          -0.17687082290649414,
          -0.35649627447128296,
          -0.3304292857646942,
          -0.21656349301338196,
          1.7137702703475952,
          -0.05961673706769943
        ],
        [
          0.7650906443595886,
          -0.460750550031662,
          -0.3308805823326111,
          -0.8223342895507812,
          0.16787511110305786,
          0.10605208575725555,
          -0.10442554205656052,
          0.1337551772594452,
          -0.139220729470253,
          0.10919424146413803,
          0.05389029532670975,
          0.16827206313610077,
          -0.1466408669948578,
          -0.28453800082206726,
          -0.1514870524406433,
          -1.6589189767837524,
          0.014791141264140606,
          0.018599769100546837,
          0.07315623015165329,
          -0.1604107916355133,
          -0.4584934115409851,
          0.4590088725090027,
          -0.5911394953727722,
          -0.5744332075119019,
          0.6473820209503174,
          0.1247076690196991,
          -0.07269514352083206,
          -0.07604482024908066,
          0.14706720411777496,
          0.09941676259040833,
          -0.028979968279600143,
          0.009832190349698067,
          -1.1946732997894287,
          0.09240154922008514,
          -0.1451553851366043,
          -0.21926884353160858,
          -0.13753333687782288,
          -0.6785850524902344,
          -1.6763314008712769,
          0.6747668385505676,
          -0.21195606887340546,
          0.11367716640233994,
          -0.07931185513734818,
          -0.023715205490589142,
          -0.13419942557811737,
          0.04880503565073013,
          0.04702360928058624,
          0.9011496305465698,
          -0.4550950527191162,
          -0.19895778596401215,
          0.22951263189315796,
          -0.12538285553455353,
          0.055303093045949936,
          -0.3179440498352051,
          -0.023763975128531456,
          0.08436659723520279,
          -0.7358542680740356,
          -0.08204077929258347,
          -0.07550797611474991,
          -0.08138393610715866,
          0.02692306600511074,
          -0.05302966386079788,
          -0.4269343912601471,
          -0.1796744018793106
        ],
        [
          0.263928085565567,
          -0.38881218433380127,
          -0.09896790981292725,
          -1.5034213066101074,
          0.1170910894870758,
          -0.03046523965895176,
          0.11597143113613129,
          -0.4909920394420624,
          -0.11763420701026917,
          0.09661099314689636,
          -0.09002543240785599,
          -0.10718949884176254,
          0.02082204818725586,
          -0.24852901697158813,
          -0.14863531291484833,
          -0.06745563447475433,
          -0.1746123731136322,
          -0.13165916502475739,
          0.05984444543719292,
          -0.058067575097084045,
          0.2862778604030609,
          0.4085395336151123,
          -0.8695826530456543,
          -0.9139242768287659,
          0.7359614968299866,
          -0.10425125062465668,
          0.11745049804449081,
          -0.400607168674469,
          0.3955017030239105,
          -0.18435372412204742,
          0.12818066775798798,
          -0.008840111084282398,
          0.4035728871822357,
          -0.2873825430870056,
          0.0054055750370025635,
          -0.28612053394317627,
          0.076099693775177,
          0.12983593344688416,
          -2.224679708480835,
          0.2007676064968109,
          -0.10531876981258392,
          0.11508221924304962,
          0.050779636949300766,
          0.06512640416622162,
          -0.178983673453331,
          0.1157151460647583,
          -0.00828225165605545,
          0.4146518111228943,
          0.010050537064671516,
          0.029627293348312378,
          -0.4286171793937683,
          0.0027907039038836956,
          -0.11290187388658524,
          0.13026225566864014,
          -0.022561470046639442,
          -0.19499094784259796,
          5.138095855712891,
          -0.07913976162672043,
          -0.016099847853183746,
          0.10646238923072815,
          0.11983811110258102,
          -0.3284236490726471,
          -0.5552959442138672,
          -0.006186111830174923
        ],
        [
          -0.000467333709821105,
          -1.9467802047729492,
          0.02232053503394127,
          -0.49287253618240356,
          -0.5436237454414368,
          0.001920049893669784,
          0.06939290463924408,
          0.008741168305277824,
          0.0832766741514206,
          -0.030669305473566055,
          -0.022337842732667923,
          0.3335992395877838,
          -0.02781454287469387,
          0.26833376288414,
          0.07207802683115005,
          1.7200028896331787,
          -0.08479207009077072,
          0.0053682392463088036,
          -0.2134067863225937,
          -0.22861213982105255,
          -0.7278314828872681,
          -2.043147563934326,
          -0.6064618825912476,
          0.3284366726875305,
          1.0891916751861572,
          0.014932496473193169,
          -0.17116773128509521,
          -0.15962928533554077,
          -0.016231311485171318,
          -0.08621783554553986,
          0.04395310953259468,
          0.08270347863435745,
          -1.9439635276794434,
          -0.10930817574262619,
          -0.35649898648262024,
          -0.3511274755001068,
          -0.0557897612452507,
          -0.14823555946350098,
          -1.5182340145111084,
          1.3879368305206299,
          -0.0745423287153244,
          0.05568418279290199,
          -1.2366997003555298,
          -0.1100645437836647,
          0.02750374749302864,
          0.11636556684970856,
          -0.5782461166381836,
          -3.082305669784546,
          -0.07561462372541428,
          0.0018988442607223988,
          -0.05050232261419296,
          -0.14189976453781128,
          0.003367322962731123,
          -0.2704578638076782,
          -0.053681425750255585,
          0.026793604716658592,
          -0.5430082678794861,
          -0.19041436910629272,
          -0.16122156381607056,
          -0.16373562812805176,
          -0.3095501959323883,
          -0.03386739268898964,
          0.13325190544128418,
          0.024617142975330353
        ],
        [
          -5.026939868927002,
          1.214609146118164,
          -0.7458543181419373,
          4.0168776512146,
          -0.3575741946697235,
          0.018674317747354507,
          -0.0353696309030056,
          0.20955893397331238,
          -0.0016102355439215899,
          -0.24109789729118347,
          -0.15611359477043152,
          1.0127122402191162,
          -0.08868679404258728,
          -0.1613655984401703,
          0.06191732734441757,
          -0.5281184911727905,
          -0.12726175785064697,
          -0.1419440507888794,
          0.03288962319493294,
          -0.036363184452056885,
          2.048367500305176,
          0.7649044990539551,
          1.7317168712615967,
          -0.2017134577035904,
          -1.1734023094177246,
          -0.07424546033143997,
          0.015180537477135658,
          0.04666430130600929,
          -1.0217570066452026,
          0.09134978801012039,
          -0.23748087882995605,
          -0.1613958477973938,
          -3.437758207321167,
          -0.07016671448945999,
          -0.4843294620513916,
          -0.4468310475349426,
          -0.2162550836801529,
          -0.0939808338880539,
          2.4186439514160156,
          1.821130633354187,
          0.138463094830513,
          -0.07257509976625443,
          1.515152931213379,
          0.0799415335059166,
          -0.14527806639671326,
          -0.2298479974269867,
          2.7417774200439453,
          0.6549170613288879,
          -0.706901490688324,
          -0.4057270586490631,
          1.5467339754104614,
          -0.1413392871618271,
          0.08263891935348511,
          -0.43027806282043457,
          0.034200411289930344,
          -0.03825276345014572,
          -0.10287448018789291,
          0.11863496154546738,
          -0.15448518097400665,
          -0.20646123588085175,
          0.025087928399443626,
          0.09269890934228897,
          0.3750605583190918,
          -0.1941899210214615
        ],
        [
          0.39605945348739624,
          -0.7004733681678772,
          -1.1771093606948853,
          -1.4843231439590454,
          0.7007399797439575,
          0.09466620534658432,
          -0.068539097905159,
          -0.7372215986251831,
          0.21840734779834747,
          0.0030005115550011396,
          -0.08322475105524063,
          0.051996760070323944,
          -0.1581193059682846,
          -0.06672195345163345,
          -0.2634566128253937,
          -2.2746737003326416,
          0.008798152208328247,
          0.06340628117322922,
          0.08603299409151077,
          -0.03826902061700821,
          -0.43534231185913086,
          1.0979361534118652,
          1.346696138381958,
          -0.460507869720459,
          0.26373597979545593,
          0.17408224940299988,
          0.0035375438164919615,
          0.13972045481204987,
          -0.42852917313575745,
          -0.1024484932422638,
          -0.15866252779960632,
          -0.2057880014181137,
          -0.4906286597251892,
          -0.10725294053554535,
          0.04662526398897171,
          0.4738083779811859,
          0.11520121991634369,
          1.8602900505065918,
          4.058550834655762,
          -0.6140035390853882,
          -0.1572309136390686,
          0.07012106478214264,
          -0.2632358968257904,
          -0.24225039780139923,
          -0.13759152591228485,
          -0.030183976516127586,
          -0.361574649810791,
          0.7887812852859497,
          -0.2283354550600052,
          -0.47041282057762146,
          -0.2516740560531616,
          -0.0008068319875746965,
          0.13313305377960205,
          0.07273170351982117,
          0.045493096113204956,
          -0.16077803075313568,
          -0.5195673704147339,
          0.07151918113231659,
          -0.22268939018249512,
          -0.3317970633506775,
          -0.10167551040649414,
          -0.08702821284532547,
          -1.3954955339431763,
          -0.026389140635728836
        ],
        [
          1.1394083499908447,
          0.9057967066764832,
          -0.1826758086681366,
          -0.618904173374176,
          -1.3274180889129639,
          0.1183132454752922,
          0.09269420057535172,
          0.35955971479415894,
          0.08601243048906326,
          0.07325126975774765,
          0.06791795790195465,
          0.595314085483551,
          -0.221443310379982,
          0.05719669535756111,
          0.06458842009305954,
          -0.01470283605158329,
          0.09096862375736237,
          0.045807573944330215,
          0.049375854432582855,
          -0.23033402860164642,
          -1.294471263885498,
          1.858980655670166,
          0.04267588257789612,
          -0.7684462070465088,
          -0.6847694516181946,
          0.06094224750995636,
          -0.014843511395156384,
          -0.13864928483963013,
          0.6912643909454346,
          0.06512116640806198,
          0.008839569985866547,
          0.09243761003017426,
          -8.611077308654785,
          -0.07417341321706772,
          -0.029190290719270706,
          -0.12407270073890686,
          -0.108129121363163,
          -0.41093096137046814,
          1.0330121517181396,
          0.9375279545783997,
          -0.09835747629404068,
          -0.13484761118888855,
          0.25905296206474304,
          0.11009103804826736,
          -0.11805514991283417,
          -0.08361272513866425,
          1.1259349584579468,
          -0.04027041792869568,
          -0.3048062324523926,
          -0.39322808384895325,
          -2.1743812561035156,
          0.13068783283233643,
          -0.18868233263492584,
          -0.11585471779108047,
          -0.11792933195829391,
          -0.24108853936195374,
          3.2513585090637207,
          -0.24620786309242249,
          -0.22186926007270813,
          -0.08011238276958466,
          -0.37668952345848083,
          -0.1255681812763214,
          -0.3010404706001282,
          -0.15401549637317657
        ],
        [
          0.8645141124725342,
          4.3964409828186035,
          -0.4003865420818329,
          -0.0010874238796532154,
          -0.9613412022590637,
          -0.03697855398058891,
          -0.13126204907894135,
          0.15975084900856018,
          0.18997718393802643,
          -0.05180930718779564,
          0.1955863982439041,
          -0.2200465202331543,
          -0.13069933652877808,
          0.01520320400595665,
          -0.2169135957956314,
          -0.6926690936088562,
          -0.049218811094760895,
          0.03968466445803642,
          -0.12902076542377472,
          -0.12212524563074112,
          2.0359649658203125,
          -0.5434433817863464,
          -0.5650216937065125,
          -0.36370742321014404,
          1.2974872589111328,
          -0.18346914649009705,
          -0.12670814990997314,
          -0.06222803145647049,
          0.850721538066864,
          0.09827417135238647,
          -0.11634950339794159,
          -0.14372095465660095,
          0.3069998323917389,
          -0.0265443567186594,
          -0.33546915650367737,
          0.17237858474254608,
          0.09649626165628433,
          1.459359049797058,
          0.6461178064346313,
          2.8423171043395996,
          -0.13977988064289093,
          0.12431230396032333,
          0.7664445638656616,
          -0.14741362631320953,
          0.08228737115859985,
          -0.021024268120527267,
          -0.2881034016609192,
          -0.06807789951562881,
          -0.22116895020008087,
          0.10712790489196777,
          -0.5803539752960205,
          0.0949682742357254,
          -0.02357431687414646,
          -0.743224561214447,
          0.005002286750823259,
          0.013297260738909245,
          2.1209685802459717,
          -0.12701205909252167,
          -0.18141308426856995,
          -0.39599907398223877,
          0.13127632439136505,
          -0.5009873509407043,
          -3.2121949195861816,
          -0.06871366500854492
        ],
        [
          -0.7690256834030151,
          -5.364427089691162,
          -0.4497353732585907,
          1.505974531173706,
          -0.1365451067686081,
          -0.21066297590732574,
          -0.23190996050834656,
          -0.5657256841659546,
          0.18355117738246918,
          0.11784953624010086,
          -0.07125317305326462,
          -0.08055051416158676,
          -0.01224892120808363,
          -0.0657963976264,
          -0.18175601959228516,
          -0.31198564171791077,
          0.12261001765727997,
          0.13862156867980957,
          -0.21163402497768402,
          -0.042350057512521744,
          2.2838099002838135,
          0.34191033244132996,
          0.03525952994823456,
          -0.5626944303512573,
          -0.6627349853515625,
          0.123271644115448,
          -0.03071063756942749,
          -0.12634408473968506,
          -1.782184362411499,
          -0.2449079304933548,
          -0.026930496096611023,
          -0.20004358887672424,
          0.16858766973018646,
          0.00787794217467308,
          -0.07119064033031464,
          -0.6059635877609253,
          0.05609860271215439,
          0.6545551419258118,
          0.4733642637729645,
          1.1463510990142822,
          -0.1931600123643875,
          0.11064592748880386,
          0.3537381589412689,
          0.08780435472726822,
          -0.00011373969027772546,
          0.022444413974881172,
          0.31342563033103943,
          -0.2644692659378052,
          -0.30043768882751465,
          -0.4587755799293518,
          -0.029377002269029617,
          0.12206538766622543,
          0.018260130658745766,
          -0.47412094473838806,
          -0.13871116936206818,
          -0.0072508156299591064,
          0.22247737646102905,
          -0.052200280129909515,
          -0.22403430938720703,
          0.06068779155611992,
          -0.05327320098876953,
          0.018811453133821487,
          -2.149686098098755,
          -0.16957055032253265
        ],
        [
          0.8819242715835571,
          3.427004337310791,
          -0.07327140122652054,
          -0.6969372034072876,
          -0.5927103757858276,
          -0.23377613723278046,
          -0.1463427096605301,
          -0.4915463328361511,
          -0.097521111369133,
          -0.11246269196271896,
          -0.1172824501991272,
          1.2440179586410522,
          -0.10687783360481262,
          0.3380890488624573,
          -0.06163115054368973,
          0.7252989411354065,
          -0.027180224657058716,
          0.16916388273239136,
          -0.017460940405726433,
          -0.19737879931926727,
          0.7589241862297058,
          -4.0114288330078125,
          2.338196039199829,
          0.5579245090484619,
          0.20228230953216553,
          -0.13636480271816254,
          0.14094196259975433,
          -0.2976920008659363,
          0.628446102142334,
          -0.05364258587360382,
          0.16744853556156158,
          -0.04687841981649399,
          1.7162811756134033,
          -0.10889673978090286,
          -0.20018449425697327,
          0.04386432096362114,
          -0.4597959816455841,
          -0.3531397581100464,
          -0.09225300699472427,
          -0.26927706599235535,
          -0.03740523383021355,
          -0.24300408363342285,
          -0.9470546245574951,
          -0.13129188120365143,
          0.05188826471567154,
          -0.18709884583950043,
          0.34619149565696716,
          1.6622275114059448,
          0.18222834169864655,
          -0.1995808482170105,
          2.0082643032073975,
          -0.061633266508579254,
          0.07251793891191483,
          -0.011962988413870335,
          0.08893227577209473,
          -0.15662787854671478,
          0.2381730079650879,
          -0.17436283826828003,
          0.016715284436941147,
          -0.5419365763664246,
          -0.17560216784477234,
          -0.10691159218549728,
          1.753198504447937,
          -0.072377510368824
        ],
        [
          -0.8967552185058594,
          1.9910573959350586,
          -0.46155351400375366,
          0.28250324726104736,
          -1.0595535039901733,
          0.006900015287101269,
          -0.13607017695903778,
          0.08242039382457733,
          0.11660078912973404,
          0.06668105721473694,
          0.08958879858255386,
          0.07892386615276337,
          0.17085270583629608,
          0.18736331164836884,
          -0.12279791384935379,
          -0.6565171480178833,
          -0.1919298619031906,
          -0.07136949896812439,
          0.14124169945716858,
          0.04615839198231697,
          2.096512794494629,
          0.6587957739830017,
          0.6913525462150574,
          0.43142905831336975,
          -0.4673788547515869,
          0.02934909053146839,
          0.10612387210130692,
          0.19171668589115143,
          1.723031997680664,
          -0.013385633938014507,
          -0.08985000103712082,
          -0.11202364414930344,
          1.3490760326385498,
          0.08041670173406601,
          -0.27214398980140686,
          -0.042589664459228516,
          0.0037026619538664818,
          0.8619743585586548,
          -0.12011886388063431,
          1.403502106666565,
          -0.07994578778743744,
          0.1495644748210907,
          0.4040530025959015,
          0.09842991083860397,
          0.05720336362719536,
          -0.09889930486679077,
          1.2199538946151733,
          -1.6015020608901978,
          -0.3934113681316376,
          -0.6667870879173279,
          0.44324904680252075,
          -0.16803643107414246,
          -0.17377865314483643,
          -0.30424782633781433,
          -0.17773938179016113,
          -0.1985706388950348,
          -6.223159313201904,
          0.0007901908829808235,
          0.0999949499964714,
          -0.2275104969739914,
          -0.6081465482711792,
          -0.14850901067256927,
          1.618005633354187,
          -0.11702517420053482
        ],
        [
          -1.6326864957809448,
          1.6605340242385864,
          -0.03522564098238945,
          -0.8849602341651917,
          -0.1746077686548233,
          -0.07569994032382965,
          -0.05783732607960701,
          -0.45374348759651184,
          -0.10434460639953613,
          0.08842800557613373,
          -0.1663508266210556,
          -0.11345826834440231,
          -0.24554188549518585,
          0.10974457859992981,
          -0.06615091115236282,
          -1.3367929458618164,
          -0.23674608767032623,
          0.18874430656433105,
          0.08822616189718246,
          -0.15990965068340302,
          -2.2648298740386963,
          0.9057142734527588,
          -0.817121148109436,
          -1.0773792266845703,
          -0.6026988625526428,
          0.16457688808441162,
          -0.055153463035821915,
          -0.2823585867881775,
          -0.011820693500339985,
          -0.20070183277130127,
          0.11890341341495514,
          -0.17365601658821106,
          -0.45142626762390137,
          -0.1846667230129242,
          -0.1728954017162323,
          -0.5861082673072815,
          -0.04019859433174133,
          0.3500259518623352,
          -0.008300399407744408,
          -0.3561531603336334,
          0.05484127625823021,
          -0.13095319271087646,
          -0.04239416494965553,
          -0.21809901297092438,
          -0.05270255357027054,
          0.06572670489549637,
          -0.796238124370575,
          -0.982408881187439,
          -0.42562538385391235,
          0.02588159218430519,
          -0.6076275110244751,
          0.05156046524643898,
          -0.19471852481365204,
          0.0200328566133976,
          0.11746584624052048,
          -0.24636510014533997,
          -0.7003177404403687,
          -0.016242174431681633,
          0.08895528316497803,
          0.3004213273525238,
          0.08701969683170319,
          -0.08577044308185577,
          0.08499941974878311,
          -0.030269743874669075
        ],
        [
          0.7726446986198425,
          1.4524626731872559,
          -0.028372421860694885,
          -0.19801561534404755,
          0.6987807750701904,
          0.10136913508176804,
          -0.19710339605808258,
          -0.3952632546424866,
          -0.05351553484797478,
          -0.14967022836208344,
          0.10234547406435013,
          1.2823833227157593,
          -0.14620764553546906,
          -0.16701146960258484,
          -0.0773187205195427,
          0.3162243366241455,
          0.046441175043582916,
          -0.09518137574195862,
          -0.24195602536201477,
          -0.12033247202634811,
          0.4394852817058563,
          0.4500950276851654,
          0.10570446401834488,
          -0.2459421455860138,
          -0.08828434348106384,
          -0.16275575757026672,
          -0.04931706562638283,
          -0.2781018316745758,
          0.1303311586380005,
          0.0803140327334404,
          0.09327743202447891,
          0.016956625506281853,
          0.5611885786056519,
          0.018239082768559456,
          -0.2708587050437927,
          0.26819294691085815,
          0.07587447017431259,
          0.43751364946365356,
          -2.320739507675171,
          -0.6348413825035095,
          -0.09349930286407471,
          0.04845993220806122,
          0.0310053788125515,
          -0.11975699663162231,
          -0.2243676632642746,
          0.06487567722797394,
          -0.291919082403183,
          0.7141013145446777,
          0.11163582652807236,
          0.01298989076167345,
          -0.43120357394218445,
          0.1944776475429535,
          0.057287782430648804,
          0.9327647686004639,
          -0.17438362538814545,
          0.001361133181490004,
          0.9529401659965515,
          -0.09472108632326126,
          -0.050739798694849014,
          -0.41698572039604187,
          -0.24285122752189636,
          -0.12183193862438202,
          -0.4877006709575653,
          -0.0022865738719701767
        ],
        [
          -0.36527588963508606,
          0.49050086736679077,
          -0.23866496980190277,
          0.48192551732063293,
          2.792982816696167,
          -0.1732853204011917,
          0.026349687948822975,
          0.18729089200496674,
          0.13712410628795624,
          0.05013811215758324,
          -0.1670934557914734,
          0.6751306653022766,
          -0.15649619698524475,
          -0.06404010951519012,
          0.1253122240304947,
          -0.8170617818832397,
          0.11048056930303574,
          -0.13176746666431427,
          0.07481375336647034,
          -0.06673967838287354,
          -0.4579160809516907,
          -4.287766933441162,
          1.0265010595321655,
          -0.476849228143692,
          0.483566015958786,
          -0.07039768993854523,
          0.023811262100934982,
          -0.07637009769678116,
          0.6510232090950012,
          0.02325472980737686,
          0.010638904757797718,
          -0.04514746367931366,
          1.7659162282943726,
          0.13253936171531677,
          -0.5217952132225037,
          -0.5053081512451172,
          -0.1252698451280594,
          -4.488199234008789,
          -0.30002376437187195,
          0.45570895075798035,
          0.010402609594166279,
          -0.08143080025911331,
          -0.16553163528442383,
          -0.1547722965478897,
          -0.052078574895858765,
          -0.15661552548408508,
          2.376127243041992,
          -0.15926620364189148,
          -0.4068553149700165,
          0.00852297805249691,
          2.514951229095459,
          0.009233432821929455,
          -0.05627476051449776,
          -0.33810198307037354,
          -0.14344316720962524,
          -0.23298506438732147,
          1.4842746257781982,
          -0.12992481887340546,
          -0.22893694043159485,
          0.0020422281231731176,
          -0.11414387077093124,
          -0.09551438689231873,
          3.3343892097473145,
          -0.10670628398656845
        ],
        [
          0.03324718028306961,
          -1.2215155363082886,
          -0.5171048045158386,
          -0.049177803099155426,
          -0.19105488061904907,
          0.017596855759620667,
          0.051709141582250595,
          -0.2232922613620758,
          -0.2452165186405182,
          0.07379786670207977,
          -0.013631043024361134,
          0.02971697971224785,
          -0.23138079047203064,
          -0.2282598316669464,
          0.10924652218818665,
          -0.44798868894577026,
          -0.058829665184020996,
          0.169460266828537,
          0.08315078914165497,
          -0.12761715054512024,
          -0.43374544382095337,
          0.39896830916404724,
          -0.42399320006370544,
          -0.36968880891799927,
          -0.7581297755241394,
          -0.10126283764839172,
          -0.09617145359516144,
          -0.20614105463027954,
          0.4957801103591919,
          -0.1821603775024414,
          0.1364116072654724,
          0.09275055676698685,
          0.11738798022270203,
          -0.12768703699111938,
          -0.22425368428230286,
          0.009642641991376877,
          -0.11044217646121979,
          -0.26951709389686584,
          -0.6744740009307861,
          -1.7250661849975586,
          0.07644596695899963,
          0.02091258578002453,
          0.212458074092865,
          0.03988215699791908,
          -0.06720216572284698,
          -0.027183597907423973,
          -0.5811876058578491,
          -0.45785650610923767,
          0.02281610295176506,
          -0.09427106380462646,
          -0.22797779738903046,
          -0.16386157274246216,
          0.11941303312778473,
          -0.02258097566664219,
          -0.003117632819339633,
          0.02844136394560337,
          0.03163321688771248,
          0.058501947671175,
          0.029187744483351707,
          -0.3245719075202942,
          -0.27466651797294617,
          0.09239103645086288,
          -0.04764983803033829,
          0.004581635817885399
        ],
        [
          -0.09101671725511551,
          -0.9731927514076233,
          -0.30266618728637695,
          0.35938987135887146,
          -0.3529498279094696,
          -0.14976125955581665,
          -0.11050017923116684,
          -0.3844066262245178,
          0.017736326903104782,
          -0.17475849390029907,
          -0.1454654037952423,
          -0.0769607350230217,
          -0.19656823575496674,
          -0.23301918804645538,
          0.11157641559839249,
          -0.7433267831802368,
          -0.14947007596492767,
          -0.10005693882703781,
          0.05940626561641693,
          -0.24661286175251007,
          -0.45788687467575073,
          0.22934861481189728,
          -0.1567719280719757,
          -0.6142427921295166,
          -0.24563468992710114,
          -0.04814301058650017,
          -0.16739672422409058,
          -0.16245876252651215,
          -0.27491191029548645,
          -0.08709850162267685,
          -0.10154740512371063,
          -0.09177643805742264,
          0.045572590082883835,
          -0.1710091233253479,
          -0.26779404282569885,
          -0.19204342365264893,
          -0.27552133798599243,
          0.05032484978437424,
          0.1515303999185562,
          -1.8900229930877686,
          -0.15217089653015137,
          0.03427049145102501,
          -0.19403450191020966,
          -0.03526085987687111,
          0.000794533989392221,
          0.06100831925868988,
          -0.6276823878288269,
          -0.7807173132896423,
          -0.08598197251558304,
          -0.01189055573195219,
          -0.18560948967933655,
          -0.15053842961788177,
          -0.23547790944576263,
          -0.1347929835319519,
          -0.15846511721611023,
          -0.005680322181433439,
          -0.0853847861289978,
          -0.15476258099079132,
          0.03620341047644615,
          -0.337606281042099,
          -0.007120087277144194,
          0.02113361284136772,
          -0.4582233726978302,
          -0.13599464297294617
        ],
        [
          -0.17681072652339935,
          -1.022420883178711,
          -0.4653025269508362,
          0.23860764503479004,
          -0.22102142870426178,
          -0.04793266952037811,
          -0.23558764159679413,
          -0.31114253401756287,
          -0.1929634064435959,
          -0.2480626106262207,
          0.011485711671411991,
          0.20248141884803772,
          -0.06731430441141129,
          -0.1829935759305954,
          0.12076011300086975,
          -0.9963833093643188,
          -0.1811923235654831,
          0.11176668852567673,
          -0.17946705222129822,
          -0.16708151996135712,
          -0.5228975415229797,
          0.36133700609207153,
          -0.3534155488014221,
          -0.5120413899421692,
          -0.07256924360990524,
          -0.14722178876399994,
          -0.24879369139671326,
          -0.3881947994232178,
          -0.1509227156639099,
          -0.25982531905174255,
          -0.02119167521595955,
          0.030179820954799652,
          -0.06882600486278534,
          -0.22273506224155426,
          -0.274892657995224,
          -0.14180999994277954,
          0.10370003432035446,
          0.11448674649000168,
          0.17336665093898773,
          -1.7748873233795166,
          0.04075196757912636,
          -0.12851782143115997,
          -0.14541444182395935,
          -0.2420482188463211,
          -0.02991362102329731,
          -0.23505568504333496,
          -0.5047716498374939,
          -0.4871352016925812,
          -0.12805509567260742,
          -0.036718305200338364,
          -0.14104421436786652,
          -0.17739862203598022,
          -0.02989370748400688,
          -0.22968362271785736,
          0.1235017329454422,
          -0.039264190942049026,
          0.1770235002040863,
          0.004446725826710463,
          -0.027918927371501923,
          -0.3257298469543457,
          -0.2133994847536087,
          -0.15320199728012085,
          -0.21086525917053223,
          -0.05364147201180458
        ],
        [
          -0.06931183487176895,
          0.11757279187440872,
          -0.09708308428525925,
          -0.1848035454750061,
          0.10413097590208054,
          0.19385668635368347,
          0.11847557872533798,
          -0.07574830949306488,
          -0.024105055257678032,
          0.027816876769065857,
          0.09837886691093445,
          -0.101987823843956,
          -0.1658712923526764,
          0.11361321806907654,
          0.07172410935163498,
          0.16127489507198334,
          -0.002602977678179741,
          -0.006057618651539087,
          0.12478305399417877,
          -0.08578354120254517,
          -0.1897096186876297,
          -0.13831941783428192,
          -0.1612764447927475,
          -0.01748064160346985,
          0.14240235090255737,
          0.17769034206867218,
          0.017232952639460564,
          -0.14486883580684662,
          0.06129574403166771,
          0.13955609500408173,
          -0.1409478634595871,
          -0.13691675662994385,
          0.11414527893066406,
          -0.11514919996261597,
          0.10173632204532623,
          0.07895307242870331,
          0.1724591851234436,
          -0.024188851937651634,
          -0.08305171877145767,
          -0.09257451444864273,
          0.12473692744970322,
          -0.11556006222963333,
          -0.02507862262427807,
          0.18969278037548065,
          0.18629759550094604,
          -0.11435922980308533,
          -0.17144137620925903,
          0.11912468820810318,
          -0.1832718402147293,
          0.15444119274616241,
          0.16924910247325897,
          0.061791419982910156,
          -0.18976996839046478,
          0.189949631690979,
          0.17017653584480286,
          0.0448237806558609,
          -0.05773886293172836,
          0.116373211145401,
          0.1390460729598999,
          0.026182813569903374,
          -0.0651666671037674,
          0.09825172275304794,
          -0.13592644035816193,
          0.1293511837720871
        ],
        [
          0.17259691655635834,
          0.09879380464553833,
          -0.11476084589958191,
          -0.0410626158118248,
          -0.04401785135269165,
          -0.102122962474823,
          0.09833517670631409,
          -0.1659923493862152,
          -0.06215202063322067,
          0.01741444692015648,
          -0.04541684314608574,
          -0.0900871530175209,
          0.03805670887231827,
          0.07448981702327728,
          -0.16075105965137482,
          -0.09519386291503906,
          0.08077333867549896,
          0.06673282384872437,
          -0.11172126978635788,
          0.185816690325737,
          -0.1366151124238968,
          -0.11960604041814804,
          0.013050790876150131,
          -0.15764220058918,
          -0.018503015860915184,
          -0.02614295296370983,
          0.1683427095413208,
          -0.16507965326309204,
          0.08934751152992249,
          -0.18821434676647186,
          0.14958348870277405,
          -0.07688687741756439,
          0.03987572342157364,
          0.10507572442293167,
          0.05346999689936638,
          -0.08523443341255188,
          -0.12635451555252075,
          -0.14864888787269592,
          0.16229605674743652,
          0.07567299902439117,
          -0.11426647007465363,
          0.14302796125411987,
          0.18510206043720245,
          -0.15193721652030945,
          0.04991926997900009,
          0.1679983139038086,
          0.166563481092453,
          -0.1527099460363388,
          -0.041636768728494644,
          -0.02368318848311901,
          -0.010991852730512619,
          0.12028393149375916,
          0.07600268721580505,
          0.16817066073417664,
          0.17060190439224243,
          -0.025455696508288383,
          -0.01585904136300087,
          0.13115057349205017,
          0.1425563097000122,
          -0.11101372539997101,
          0.16656000912189484,
          0.010320130735635757,
          -0.1271960586309433,
          -0.18590785562992096
        ],
        [
          3.8856422901153564,
          -0.527529239654541,
          -0.20250022411346436,
          2.0501909255981445,
          -1.488991379737854,
          -0.01563822291791439,
          0.10500399023294449,
          0.1378021538257599,
          -0.12568198144435883,
          0.10516407340765,
          0.15287147462368011,
          0.7518183588981628,
          -0.19125889241695404,
          -0.2525433599948883,
          0.1267659217119217,
          0.04921558126807213,
          0.054720308631658554,
          0.0691448524594307,
          -0.010572092607617378,
          -0.34523311257362366,
          2.4114766120910645,
          -3.9760797023773193,
          -0.3221481740474701,
          -0.29960617423057556,
          1.4090559482574463,
          0.1819634586572647,
          -0.18454892933368683,
          -0.16564536094665527,
          -0.5755060911178589,
          -0.11379680782556534,
          -0.18501535058021545,
          -0.03014431893825531,
          1.6026101112365723,
          -0.10823088139295578,
          -0.8009801506996155,
          0.3309404253959656,
          0.06062164530158043,
          2.936638593673706,
          1.692376732826233,
          1.2474424839019775,
          -0.10152146965265274,
          -0.13157451152801514,
          -0.836310863494873,
          0.010832121595740318,
          0.05909395217895508,
          0.08752913028001785,
          0.5989754796028137,
          0.1620437502861023,
          0.11321514844894409,
          -0.39055508375167847,
          -0.9858822226524353,
          -0.10494279116392136,
          0.1226649060845375,
          -0.21755456924438477,
          -0.07542230933904648,
          -0.22189047932624817,
          0.3382597863674164,
          -0.04058142006397247,
          -0.056632447987794876,
          -0.19705884158611298,
          -0.16994212567806244,
          -0.09981608390808105,
          0.08667903393507004,
          0.052190475165843964
        ],
        [
          0.09597042202949524,
          -0.6765967011451721,
          -0.055244628340005875,
          0.35210442543029785,
          1.2504240274429321,
          -0.16415786743164062,
          -0.1835295557975769,
          -0.03967863693833351,
          -0.2434808313846588,
          -0.11646654456853867,
          -0.12410170584917068,
          -0.1102505624294281,
          -0.1412966400384903,
          -0.053190410137176514,
          0.09733116626739502,
          0.0009516527643427253,
          0.0683109387755394,
          0.028593135997653008,
          -0.06253384798765182,
          -0.48874732851982117,
          0.986137330532074,
          -1.7587180137634277,
          -0.354402095079422,
          -0.48734718561172485,
          0.5903937816619873,
          -0.07060971856117249,
          -0.24083220958709717,
          -0.27828025817871094,
          0.2123936265707016,
          -0.07259954512119293,
          -0.027321645990014076,
          -0.014052612707018852,
          -0.6948577165603638,
          -0.08975822478532791,
          -0.6181415319442749,
          0.13883794844150543,
          -0.2338259071111679,
          0.013599737547338009,
          0.40954041481018066,
          -0.379146933555603,
          -0.19602183997631073,
          -0.11525773257017136,
          0.29163095355033875,
          -0.0663648322224617,
          -0.07644303143024445,
          0.09097786247730255,
          0.2142714262008667,
          -1.0641944408416748,
          -0.19963231682777405,
          -0.15298843383789062,
          -0.2626979947090149,
          0.1461128145456314,
          -0.24373871088027954,
          0.0383443683385849,
          -0.1581638902425766,
          0.04743354022502899,
          -0.4252713918685913,
          -0.07955343276262283,
          -0.22795413434505463,
          0.005093039479106665,
          -0.54442298412323,
          -0.2631111443042755,
          -0.5071089863777161,
          0.0054694414138793945
        ],
        [
          0.15567834675312042,
          -0.6933602690696716,
          -0.26974019408226013,
          0.3504987955093384,
          0.8664072155952454,
          -0.2088799625635147,
          -0.08840138465166092,
          -0.06967417895793915,
          -0.15677598118782043,
          -0.12128157168626785,
          -0.09550007432699203,
          0.13933797180652618,
          0.08300785720348358,
          -0.06947853416204453,
          -0.2380369007587433,
          -0.08406969159841537,
          -0.034285273402929306,
          0.042604103684425354,
          -0.25264793634414673,
          -0.4133632779121399,
          0.8998695015907288,
          -1.9922891855239868,
          -0.11566130071878433,
          -0.39237546920776367,
          0.4619341492652893,
          -0.19119365513324738,
          0.02869885228574276,
          -0.079208604991436,
          0.5594509840011597,
          0.09143151342868805,
          -0.095590740442276,
          -0.13763736188411713,
          -0.4317595958709717,
          0.006809950340539217,
          -0.6936476826667786,
          0.19155968725681305,
          -0.0300216693431139,
          0.212441548705101,
          0.4073368310928345,
          -0.14171677827835083,
          -0.024378186091780663,
          0.028932344168424606,
          0.1462087333202362,
          0.0014834594912827015,
          0.12273954600095749,
          -0.06141235679388046,
          0.31744545698165894,
          -0.6793549656867981,
          0.011556471697986126,
          -0.15394163131713867,
          -0.18725749850273132,
          0.009094626642763615,
          -0.20328575372695923,
          -0.08799395710229874,
          -0.13335594534873962,
          0.08107700198888779,
          -0.2940284013748169,
          -0.24858267605304718,
          -0.21257896721363068,
          -0.2969553470611572,
          -0.37154072523117065,
          -0.17076052725315094,
          -0.5181677341461182,
          -0.2172839492559433
        ],
        [
          0.14840170741081238,
          -0.035442039370536804,
          0.0011445044074207544,
          0.15321147441864014,
          -0.15361380577087402,
          -0.13661326467990875,
          -0.03702840209007263,
          -0.1911524534225464,
          0.18644261360168457,
          0.09654852002859116,
          0.18538513779640198,
          0.0624382346868515,
          0.010198114439845085,
          0.06450262665748596,
          -0.15935467183589935,
          0.1692100167274475,
          -0.024344975128769875,
          -0.10060461610555649,
          -0.09987669438123703,
          0.1725134253501892,
          -0.12386515736579895,
          -0.017505072057247162,
          0.035612985491752625,
          0.18635796010494232,
          0.07296556234359741,
          0.02590479515492916,
          0.09226890653371811,
          -0.0033901967108249664,
          -0.06424760073423386,
          -0.16134554147720337,
          0.11492502689361572,
          -0.13272427022457123,
          0.07521481066942215,
          -0.008562345057725906,
          -0.19351325929164886,
          -0.0277372058480978,
          -0.17324963212013245,
          -0.16435815393924713,
          -0.03118254989385605,
          -0.16324549913406372,
          -0.17475581169128418,
          0.030075637623667717,
          -0.04469338431954384,
          0.15625686943531036,
          0.0377328097820282,
          -0.09196046739816666,
          -0.06646397709846497,
          0.021691005676984787,
          -0.030003059655427933,
          0.16061870753765106,
          0.11684094369411469,
          -0.11994439363479614,
          0.1201634407043457,
          0.040456417948007584,
          0.15523169934749603,
          -0.02516300044953823,
          0.19288723170757294,
          0.18537865579128265,
          0.07849492877721786,
          -0.09492076933383942,
          -0.11375746876001358,
          -0.18705157935619354,
          0.1416422575712204,
          0.09259065240621567
        ],
        [
          -0.06675299257040024,
          0.13583345711231232,
          -0.06500294804573059,
          0.06475801765918732,
          0.18253636360168457,
          -0.16353081166744232,
          0.18870140612125397,
          0.14949488639831543,
          0.1159469336271286,
          -0.042282018810510635,
          0.11760959029197693,
          -0.014892608858644962,
          0.1830914467573166,
          -0.05280272290110588,
          -0.07059024274349213,
          -0.019646497443318367,
          0.11494088172912598,
          0.04716894403100014,
          0.14029210805892944,
          0.09528842568397522,
          0.06654230505228043,
          -0.15630961954593658,
          -0.03223904222249985,
          -0.019875211641192436,
          -0.09326274693012238,
          0.09965165704488754,
          -0.14779840409755707,
          -0.1509864181280136,
          -0.06767689436674118,
          0.17235812544822693,
          0.16364429891109467,
          0.0534244142472744,
          -0.16264602541923523,
          -0.03336906433105469,
          0.12688980996608734,
          0.16921572387218475,
          -0.16379407048225403,
          0.06200409308075905,
          0.027134299278259277,
          -0.032234109938144684,
          -0.039460714906454086,
          0.12186048924922943,
          0.18705831468105316,
          0.0790601447224617,
          -0.12729613482952118,
          -0.004975914489477873,
          -0.027140077203512192,
          -0.005137213505804539,
          0.13888075947761536,
          -0.009472078643739223,
          -0.013979232870042324,
          0.19569915533065796,
          -0.06425168365240097,
          -0.03772783651947975,
          -0.13527220487594604,
          -0.019420014694333076,
          0.15094709396362305,
          -0.04119628295302391,
          0.09289564937353134,
          -0.18802887201309204,
          -0.11088020354509354,
          0.014794456772506237,
          0.01450400147587061,
          0.17270563542842865
        ],
        [
          -5.876332759857178,
          -0.18654771149158478,
          -0.08290032297372818,
          -0.9963170886039734,
          -0.15152640640735626,
          0.07062669098377228,
          0.04577169194817543,
          -0.7946915030479431,
          -0.07572966068983078,
          0.007893307134509087,
          -0.07070969045162201,
          -2.087944269180298,
          0.058311622589826584,
          0.06956511735916138,
          -0.09944725036621094,
          -0.41130074858665466,
          -0.08288843184709549,
          -0.1263812631368637,
          0.12607209384441376,
          -0.1381600797176361,
          -2.247373580932617,
          -0.011249195784330368,
          -0.6108494997024536,
          -0.2665374279022217,
          -6.150104522705078,
          0.06365551054477692,
          0.08505246788263321,
          0.16661296784877777,
          4.523400783538818,
          0.13157863914966583,
          0.015432735905051231,
          0.04457660764455795,
          -0.8310230374336243,
          0.09665876626968384,
          -0.19110538065433502,
          -0.021584922447800636,
          -0.09511387348175049,
          -4.31388521194458,
          -0.2457205057144165,
          -1.8705004453659058,
          0.10417050868272781,
          -0.12416743487119675,
          4.665494918823242,
          -0.012475208379328251,
          -0.1281127631664276,
          0.02391294576227665,
          2.5037200450897217,
          10.50385570526123,
          0.3613893389701843,
          0.23679977655410767,
          0.42822110652923584,
          -0.17271146178245544,
          -0.19042858481407166,
          0.1703490912914276,
          0.07711734622716904,
          0.10245300084352493,
          -0.004991474561393261,
          -0.022613421082496643,
          0.183076873421669,
          -0.05143692344427109,
          -0.21419353783130646,
          -0.24589967727661133,
          -1.1290773153305054,
          0.10644319653511047
        ],
        [
          -3.6247832775115967,
          0.17373788356781006,
          -0.18763025104999542,
          -1.2893245220184326,
          -0.2768271267414093,
          -0.14175160229206085,
          0.1841372698545456,
          -0.8902097940444946,
          0.04416051134467125,
          0.009782887995243073,
          0.09498715400695801,
          -3.206362724304199,
          0.11005223542451859,
          -0.18825896084308624,
          -0.15178237855434418,
          -0.4666185677051544,
          -0.01409271452575922,
          -0.19023188948631287,
          0.0551268570125103,
          -0.12406405806541443,
          -2.2777955532073975,
          -0.40123242139816284,
          -0.5802902579307556,
          -0.12890951335430145,
          -5.9501752853393555,
          0.01665576547384262,
          -0.04995567351579666,
          0.030686384066939354,
          5.651666164398193,
          -0.04515593498945236,
          -0.1828198879957199,
          -0.1839754581451416,
          -0.9415709972381592,
          -0.18843351304531097,
          0.02072005905210972,
          -0.06942198425531387,
          -0.045627087354660034,
          -4.059626579284668,
          -0.012742237187922001,
          -2.1169841289520264,
          0.1597636193037033,
          -0.1839396059513092,
          5.704298496246338,
          0.020853150635957718,
          -0.15273383259773254,
          0.12726297974586487,
          0.9566258788108826,
          9.399816513061523,
          0.20320148766040802,
          0.09928352385759354,
          -0.05726834759116173,
          -0.08054672181606293,
          0.14807447791099548,
          0.29266563057899475,
          0.044214241206645966,
          0.015289809554815292,
          -0.21396055817604065,
          0.1309042125940323,
          -0.19139304757118225,
          -0.04144776239991188,
          -0.10686264932155609,
          -0.6026748418807983,
          -1.069676399230957,
          -0.15546995401382446
        ],
        [
          -4.3301286697387695,
          -0.4939824938774109,
          -0.45486778020858765,
          -3.5251104831695557,
          0.6446345448493958,
          -0.18865104019641876,
          -0.06889622658491135,
          0.08941308408975601,
          -0.06346386671066284,
          0.12872914969921112,
          0.14242170751094818,
          -2.227545976638794,
          -0.07149287313222885,
          -0.14642685651779175,
          0.04540006443858147,
          -1.7908626794815063,
          0.11556807160377502,
          0.11081036925315857,
          0.06834849715232849,
          -0.15723197162151337,
          0.294189453125,
          -2.1272454261779785,
          1.5329610109329224,
          0.10120858252048492,
          -3.4074249267578125,
          -0.0026437905617058277,
          -0.03407170996069908,
          -0.3964739441871643,
          -2.181688070297241,
          -0.02251289412379265,
          0.11878090351819992,
          -0.053639717400074005,
          -4.7353692054748535,
          0.10229489207267761,
          -0.5558016896247864,
          -1.5044423341751099,
          -0.30653175711631775,
          -10.820821762084961,
          -1.825579047203064,
          -3.356208562850952,
          -0.030509432777762413,
          -0.0519135445356369,
          0.2473907768726349,
          0.1411428302526474,
          -0.17880627512931824,
          0.11406959593296051,
          0.12716783583164215,
          4.880580425262451,
          -0.3102077543735504,
          -0.4865972399711609,
          -0.5639095306396484,
          0.07019752264022827,
          -0.009713251143693924,
          -0.6223666667938232,
          0.14480799436569214,
          -0.10645045340061188,
          2.135219097137451,
          -0.09229136258363724,
          0.12855888903141022,
          -0.24444055557250977,
          -0.11152186989784241,
          -0.0736524760723114,
          5.827193737030029,
          -0.07238661497831345
        ],
        [
          0.4626563787460327,
          0.6765502691268921,
          -0.30269360542297363,
          1.3587558269500732,
          -3.626781463623047,
          -0.04369502142071724,
          0.00016227968444582075,
          -0.5069668292999268,
          0.12414059042930603,
          -0.1067190170288086,
          -0.04994269087910652,
          3.8072280883789062,
          -0.020279185846447945,
          -0.03278473764657974,
          -0.10705938935279846,
          -0.8052767515182495,
          -0.17996248602867126,
          0.015395177528262138,
          0.025003328919410706,
          -0.2204192578792572,
          1.613879919052124,
          2.6579129695892334,
          6.353259086608887,
          -0.1844535917043686,
          0.508747398853302,
          0.18713435530662537,
          -0.13143838942050934,
          -0.4135238528251648,
          -2.347667694091797,
          -0.19070272147655487,
          -0.19357693195343018,
          -0.04387311637401581,
          -1.9269001483917236,
          -0.16012687981128693,
          -0.3284974694252014,
          -0.9677191972732544,
          -0.08426754921674728,
          -3.400982618331909,
          2.3250584602355957,
          0.6219197511672974,
          -0.05862298235297203,
          0.0680803507566452,
          1.5002617835998535,
          0.11321597546339035,
          -0.022420275956392288,
          -0.23628588020801544,
          -0.9210168719291687,
          -1.9748458862304688,
          -0.21640339493751526,
          -0.3049713373184204,
          0.2606586515903473,
          -0.012082340195775032,
          -0.09010113775730133,
          -0.3652411103248596,
          -0.03950965031981468,
          0.054215945303440094,
          2.895632743835449,
          -0.02277619019150734,
          -0.137278750538826,
          -0.32719725370407104,
          -0.10297807306051254,
          -0.04712983965873718,
          1.8396332263946533,
          -0.2268214374780655
        ],
        [
          0.07995535433292389,
          -0.057348787784576416,
          -0.15790778398513794,
          0.17934568226337433,
          -0.1827566772699356,
          -0.1060025542974472,
          0.07843086123466492,
          -0.17562304437160492,
          -0.10646174103021622,
          -0.019379781559109688,
          -0.1632116734981537,
          -0.030482660979032516,
          0.03902914747595787,
          -0.12644453346729279,
          0.14093822240829468,
          -0.08427153527736664,
          -0.12677599489688873,
          0.0006169183179736137,
          -0.1127014309167862,
          -0.08252329379320145,
          0.098729208111763,
          -0.1461845338344574,
          -0.17595244944095612,
          -0.18776850402355194,
          0.01861865073442459,
          -0.15414924919605255,
          0.012111184187233448,
          0.03464861214160919,
          0.11942548304796219,
          0.16526207327842712,
          -0.04152701422572136,
          0.1238621398806572,
          0.10779458284378052,
          -0.11209055036306381,
          -0.19369734823703766,
          -0.05705739185214043,
          -0.08619746565818787,
          0.020251600071787834,
          0.17774653434753418,
          0.15251809358596802,
          0.033268462866544724,
          -0.034961897879838943,
          0.07917696237564087,
          -0.12873215973377228,
          -0.0681338831782341,
          -0.04950525611639023,
          -0.10003763437271118,
          -0.014461341314017773,
          0.03954937309026718,
          0.1855859011411667,
          0.09292467683553696,
          0.029102953150868416,
          0.10957647860050201,
          0.12887023389339447,
          -0.09617284685373306,
          -0.16090255975723267,
          0.0684879943728447,
          -0.038552530109882355,
          -0.05879730358719826,
          0.13006621599197388,
          -0.1256382167339325,
          -0.04226416349411011,
          -0.19630445539951324,
          -0.10885997116565704
        ],
        [
          0.14525920152664185,
          -0.06495261192321777,
          0.018649213016033173,
          0.12790928781032562,
          0.04702675715088844,
          -0.18104372918605804,
          0.11402864754199982,
          0.14432650804519653,
          -0.08420293778181076,
          0.08999774605035782,
          -0.18131673336029053,
          0.1460285633802414,
          0.06296361982822418,
          -0.16496078670024872,
          -0.0389862023293972,
          0.12708477675914764,
          0.09539192169904709,
          0.19000685214996338,
          -0.1728820949792862,
          0.02430713176727295,
          -0.006431670393794775,
          0.07462650537490845,
          0.15735748410224915,
          0.09134640544652939,
          -0.08718084543943405,
          0.07651687413454056,
          -0.00937715545296669,
          0.07943273335695267,
          0.036593660712242126,
          0.16000685095787048,
          0.17206110060214996,
          -0.05236123502254486,
          -0.0039374507032334805,
          -0.1101413369178772,
          0.016425978392362595,
          0.13549746572971344,
          -0.039390988647937775,
          -0.054719477891922,
          0.18215355277061462,
          -0.06911385804414749,
          -0.10810893774032593,
          -0.16876915097236633,
          -0.03863292559981346,
          0.08180898427963257,
          -0.10718929022550583,
          0.13588730990886688,
          -0.19574636220932007,
          -0.15127940475940704,
          -0.11378762125968933,
          0.16635531187057495,
          0.04340171068906784,
          -0.0203696358948946,
          0.18094980716705322,
          0.11668571084737778,
          0.19301414489746094,
          -0.009378449060022831,
          -0.02673250250518322,
          0.13927625119686127,
          -0.18460693955421448,
          0.18061967194080353,
          -0.10190540552139282,
          0.14409905672073364,
          0.06785595417022705,
          0.10562256723642349
        ],
        [
          -0.48942720890045166,
          -0.1333143413066864,
          -0.03572525829076767,
          -0.9354745745658875,
          -1.790050983428955,
          0.068564273416996,
          -0.048506200313568115,
          0.32444190979003906,
          -0.08479303121566772,
          -0.15041877329349518,
          -0.1372499316930771,
          1.2370586395263672,
          -0.07032639533281326,
          0.07333602011203766,
          0.08175384253263474,
          -0.43318793177604675,
          0.06554468721151352,
          0.1479043811559677,
          0.10353925824165344,
          0.017654074355959892,
          -3.737616539001465,
          1.99102783203125,
          -1.5177205801010132,
          -0.8139055967330933,
          -2.2830324172973633,
          -0.1145835891366005,
          0.0055915433913469315,
          0.07878342270851135,
          -0.9636121392250061,
          0.016570061445236206,
          0.0031312364153563976,
          0.08054818958044052,
          -1.3034917116165161,
          0.07695434242486954,
          -0.1252705156803131,
          -1.2074917554855347,
          -0.10431668907403946,
          -4.4526801109313965,
          -3.7578818798065186,
          -2.106302261352539,
          0.0958479642868042,
          0.10921843349933624,
          -2.80844783782959,
          0.07434859871864319,
          0.14722579717636108,
          -0.12712180614471436,
          0.5670695900917053,
          -3.925629138946533,
          -0.5972515940666199,
          0.17285116016864777,
          6.444035530090332,
          0.08039295673370361,
          0.1497335582971573,
          -0.12663380801677704,
          -0.17375357449054718,
          -0.019658071920275688,
          0.08809312433004379,
          -0.07415231317281723,
          -0.06398415565490723,
          0.1268148124217987,
          0.004530908074229956,
          -0.18867915868759155,
          -0.5629869103431702,
          -0.08815336972475052
        ],
        [
          -0.47947731614112854,
          -0.021093696355819702,
          -0.3197673559188843,
          -1.1669883728027344,
          -2.352555513381958,
          0.023338694125413895,
          0.06793060153722763,
          0.1901380866765976,
          -0.1424381583929062,
          0.18519489467144012,
          0.06475596874952316,
          0.39824774861335754,
          -0.034810397773981094,
          -0.1528593748807907,
          0.16472597420215607,
          -0.22637954354286194,
          -0.1325850784778595,
          -0.1301826536655426,
          0.18202857673168182,
          0.17628410458564758,
          -4.087649822235107,
          1.6540976762771606,
          -1.5204524993896484,
          -0.5052109956741333,
          -2.2100653648376465,
          0.1445157676935196,
          -0.18732935190200806,
          -0.08313128352165222,
          -3.026618480682373,
          0.12995122373104095,
          -0.08529559522867203,
          -0.15069542825222015,
          -1.4758538007736206,
          0.12081508338451385,
          0.08939986675977707,
          -0.9121414422988892,
          -0.3719751834869385,
          -3.592575788497925,
          -4.034563064575195,
          -2.3696534633636475,
          -0.12157192081212997,
          -0.09701615571975708,
          -3.128509044647217,
          0.09080371260643005,
          0.09530289471149445,
          0.10641436278820038,
          2.2477850914001465,
          -4.341092586517334,
          -0.3402292728424072,
          0.15423491597175598,
          6.772411346435547,
          -0.024735603481531143,
          0.03277125954627991,
          0.11626724898815155,
          0.016948144882917404,
          -0.09454343467950821,
          -0.5082916617393494,
          0.1779932826757431,
          0.040556155145168304,
          -0.022770514711737633,
          0.11590374261140823,
          -0.10507933795452118,
          -0.6949650049209595,
          0.021870555356144905
        ],
        [
          -5.403810024261475,
          0.5244350433349609,
          0.07288814336061478,
          -2.339726686477661,
          -16.303861618041992,
          -0.05644434690475464,
          -0.15156714618206024,
          -1.5386041402816772,
          -0.07931403070688248,
          0.04143529385328293,
          0.09783387184143066,
          -0.3573518395423889,
          0.09543973952531815,
          0.020957745611667633,
          0.025737058371305466,
          0.7636582851409912,
          0.051846202462911606,
          -0.10386095941066742,
          -0.054707299917936325,
          0.1328331083059311,
          -0.795191764831543,
          -5.350942134857178,
          -1.8617454767227173,
          -0.8196157813072205,
          -1.304835557937622,
          -0.06845839321613312,
          -0.10385802388191223,
          0.01909085363149643,
          7.933260917663574,
          -0.05633208900690079,
          0.0818190723657608,
          -0.022370707243680954,
          -0.7098939418792725,
          0.08626487106084824,
          0.5303342342376709,
          -1.610321044921875,
          -0.33525779843330383,
          -14.174600601196289,
          -7.901641845703125,
          0.20279820263385773,
          0.18309907615184784,
          0.009999502450227737,
          2.5176281929016113,
          0.12022411078214645,
          0.002929219277575612,
          0.11381326615810394,
          1.821850299835205,
          -3.0964112281799316,
          -0.24838125705718994,
          0.3562847673892975,
          -6.334068298339844,
          0.045835092663764954,
          -0.018032131716609,
          -0.2571154832839966,
          -0.042140498757362366,
          -0.13720959424972534,
          -0.17429856956005096,
          -0.22564460337162018,
          -0.15711374580860138,
          -0.331161767244339,
          0.9120038747787476,
          -0.3492869734764099,
          -6.195671558380127,
          -0.10519029945135117
        ],
        [
          1.9197547435760498,
          -0.2952004373073578,
          0.6499550938606262,
          -3.0197949409484863,
          -2.995065450668335,
          0.0993058979511261,
          -0.009161248803138733,
          -0.4479174017906189,
          0.02528480626642704,
          -0.02572333998978138,
          -0.17998938262462616,
          0.3502178192138672,
          -0.03615108132362366,
          0.027593865990638733,
          0.25815626978874207,
          0.8360061049461365,
          -0.1168912723660469,
          0.1873876452445984,
          0.0021605941001325846,
          0.25554266571998596,
          2.0971052646636963,
          -1.1660367250442505,
          -3.8158793449401855,
          -0.06471151858568192,
          -0.6099337935447693,
          -0.1193457767367363,
          -0.03429418057203293,
          -0.18631242215633392,
          0.18072791397571564,
          -0.031794968992471695,
          -0.0015578592428937554,
          -0.07122546434402466,
          3.808987617492676,
          -0.09086981415748596,
          0.40714073181152344,
          -0.303796648979187,
          0.06720887124538422,
          0.6894038915634155,
          -4.871941566467285,
          1.383670449256897,
          -0.10182374715805054,
          -0.06447584182024002,
          -0.5220615267753601,
          0.07126525789499283,
          0.03863966837525368,
          0.11010129749774933,
          -1.5801541805267334,
          -1.3420532941818237,
          0.1955394446849823,
          0.21634146571159363,
          -1.8009793758392334,
          -0.015353532508015633,
          -0.08436687290668488,
          -0.3254844546318054,
          -0.14874182641506195,
          -0.14167135953903198,
          0.40275049209594727,
          -0.07173431664705276,
          -0.04575634002685547,
          -0.3068651556968689,
          0.5747222304344177,
          -0.38019615411758423,
          -0.9363307356834412,
          0.02506682462990284
        ],
        [
          0.11013126373291016,
          0.05961449071764946,
          0.0069458321668207645,
          -0.17766936123371124,
          -0.04275120794773102,
          -0.07418851554393768,
          0.13267427682876587,
          0.18535540997982025,
          0.13937725126743317,
          -0.09746596962213516,
          0.054532527923583984,
          -0.1485055387020111,
          0.10186274349689484,
          -0.1768765151500702,
          -0.14143989980220795,
          -0.012791929766535759,
          -0.10863590985536575,
          0.11697575449943542,
          0.02033979818224907,
          0.020464543253183365,
          -0.13163535296916962,
          -0.0382360965013504,
          -0.0031878380104899406,
          -0.11585351824760437,
          -0.11891381442546844,
          -0.024881061166524887,
          -0.15574055910110474,
          0.18824559450149536,
          -0.05818953737616539,
          -0.13103707134723663,
          -0.014241821132600307,
          0.19307896494865417,
          -0.032642193138599396,
          0.04108443483710289,
          -0.01702512800693512,
          0.11723527312278748,
          -0.10399600863456726,
          0.1343209594488144,
          0.07042448967695236,
          -0.14806199073791504,
          -0.11367577314376831,
          -0.06483220309019089,
          0.1506069451570511,
          0.1909247487783432,
          0.0716773048043251,
          0.1777627021074295,
          0.06474010646343231,
          0.07678335160017014,
          -0.06487470120191574,
          0.1111721396446228,
          -0.17430637776851654,
          0.11238504946231842,
          0.13947941362857819,
          0.16793198883533478,
          -0.14632894098758698,
          -0.13284699618816376,
          0.12502779066562653,
          0.1718900203704834,
          0.07404565811157227,
          -0.18298739194869995,
          0.15719829499721527,
          0.1054878830909729,
          0.05204519256949425,
          -0.0037698184605687857
        ],
        [
          -0.19048865139484406,
          0.00873724278062582,
          0.1570877581834793,
          -0.004595221485942602,
          0.04688527062535286,
          0.17914216220378876,
          -0.023198647424578667,
          0.10943879932165146,
          0.14380285143852234,
          -0.08298113942146301,
          -0.10241897404193878,
          0.009157706052064896,
          -0.05669383704662323,
          0.14812900125980377,
          0.04204468056559563,
          -0.019399698823690414,
          -0.053190313279628754,
          -0.015429130755364895,
          0.09106918424367905,
          0.01707908883690834,
          -0.03195680305361748,
          0.15469425916671753,
          0.19289226830005646,
          0.19651590287685394,
          -0.11788858473300934,
          -0.1662629097700119,
          0.03066095896065235,
          0.05981551855802536,
          -0.09375686943531036,
          0.15518522262573242,
          0.18658483028411865,
          0.034645769745111465,
          0.1713818609714508,
          0.0651225671172142,
          -0.08092392235994339,
          0.10501943528652191,
          0.1107681542634964,
          0.03718571737408638,
          0.1835300773382187,
          -0.005414364393800497,
          -0.012571120634675026,
          0.18088474869728088,
          -0.09546878188848495,
          -0.08925074338912964,
          0.07316114753484726,
          0.1530584841966629,
          -0.16487939655780792,
          -0.15048623085021973,
          -0.12657004594802856,
          -0.057739969342947006,
          0.0813826248049736,
          -0.19270282983779907,
          0.0765727311372757,
          0.061072368174791336,
          0.15588314831256866,
          -0.00028925310471095145,
          0.11476466059684753,
          0.12172831594944,
          0.18319736421108246,
          -0.18553629517555237,
          0.041563957929611206,
          -0.02380780130624771,
          0.1469983011484146,
          -0.12945188581943512
        ],
        [
          5.6551384925842285,
          0.0830751284956932,
          0.05613502487540245,
          4.742786884307861,
          -3.5648610591888428,
          0.1055937111377716,
          0.1655454784631729,
          0.2466716319322586,
          0.022364361211657524,
          -0.11714041233062744,
          -0.19187778234481812,
          0.7730972766876221,
          0.035247188061475754,
          0.0016119014471769333,
          -0.017809472978115082,
          -0.23847071826457977,
          0.0465095192193985,
          0.05155063420534134,
          0.10088939964771271,
          -0.01446518674492836,
          1.5319675207138062,
          -3.1755917072296143,
          -0.33881399035453796,
          -0.21497349441051483,
          1.6654369831085205,
          -0.06328518688678741,
          -0.17483793199062347,
          -0.09233321249485016,
          0.5455002188682556,
          -0.05189831182360649,
          -0.152674600481987,
          -0.07961463183164597,
          -3.8261525630950928,
          -0.0465155765414238,
          -0.13441814482212067,
          -0.5207313299179077,
          0.0016092476435005665,
          -5.326179027557373,
          -0.4175092875957489,
          0.4885852336883545,
          -0.04167447239160538,
          0.051563993096351624,
          3.8442564010620117,
          -0.03910358250141144,
          0.07516761124134064,
          -0.05318755283951759,
          2.1203577518463135,
          -3.5259904861450195,
          -0.5856361389160156,
          -0.1592196673154831,
          4.554409027099609,
          -0.07963365316390991,
          0.13993245363235474,
          0.1116470918059349,
          -0.17980918288230896,
          -0.07398206740617752,
          1.810511589050293,
          0.007950774393975735,
          -0.10118329524993896,
          0.16090206801891327,
          -0.3462167978286743,
          -0.3851509392261505,
          0.047017909586429596,
          -0.19338557124137878
        ],
        [
          4.151096820831299,
          0.3309085965156555,
          0.18998242914676666,
          4.137279987335205,
          -2.191629648208618,
          -0.09679041057825089,
          0.14336544275283813,
          0.4259321093559265,
          0.08452498912811279,
          -0.005640500690788031,
          -0.0212135948240757,
          0.522560179233551,
          -0.10866844654083252,
          0.15683613717556,
          0.023009227588772774,
          -0.13289669156074524,
          -0.029199495911598206,
          0.13522349298000336,
          -0.07349496334791183,
